{"learner":{"attributes":{"scikit_learn":"{\"_estimator_type\": \"regressor\"}"},"feature_names":["temperature_2m_mean","precipitation_sum","wind_speed_10m_max","wind_direction_10m_dominant","day_of_week"],"feature_types":["float","float","float","float","int"],"gradient_booster":{"model":{"gbtree_model_param":{"num_parallel_tree":"1","num_trees":"100"},"iteration_indptr":[0,1,2,3,4,5,6,7,8,9,10,11,12,13,14,15,16,17,18,19,20,21,22,23,24,25,26,27,28,29,30,31,32,33,34,35,36,37,38,39,40,41,42,43,44,45,46,47,48,49,50,51,52,53,54,55,56,57,58,59,60,61,62,63,64,65,66,67,68,69,70,71,72,73,74,75,76,77,78,79,80,81,82,83,84,85,86,87,88,89,90,91,92,93,94,95,96,97,98,99,100],"tree_info":[0,0,0,0,0,0,0,0,0,0,0,0,0,0,0,0,0,0,0,0,0,0,0,0,0,0,0,0,0,0,0,0,0,0,0,0,0,0,0,0,0,0,0,0,0,0,0,0,0,0,0,0,0,0,0,0,0,0,0,0,0,0,0,0,0,0,0,0,0,0,0,0,0,0,0,0,0,0,0,0,0,0,0,0,0,0,0,0,0,0,0,0,0,0,0,0,0,0,0,0],"trees":[{"base_weights":[-1.2405519E-7,-2.1618853E0,8.8440746E-1,-3.9530563E-1,-4.608743E0,2.7060395E-1,3.6296105E0,-1.4538935E0,5.625538E-1,-2.1100705E0,-6.040073E0,1.4048269E0,-2.805328E0,-2.3463116E0,5.189155E0,2.884426E0,-1.8155739E0,1.6393432E-1,-1.5590166E0,-1.19262315E-1,-6.695697E0,1.7586695E0,-5.1967216E0,2.4036884E0,-3.8659596E0,-1.1692624E0,-5.3005475E-1,6.7470727E0,2.8899295E0,-8.292351E-1,2.0291803E0,6.307377E-1,-2.4845173E0,6.5368843E-1,-2.692623E-1,-2.2187355E0,-2.692623E-1,6.88993E0,9.395936E-1,-1.9192624E0,-4.1926232E-1,-2.692623E-1,1.1409837E0,-4.3703895E0,6.307377E-1,3.0737687E-2,-2.692623E-1,1.0961065E0,2.4461067E0,4.6994528E-1,1.1291803E0,-7.1926236E-1,-1.0819703E-2,-1.19262315E-1,-8.087091E-1,4.0983584E-2,3.307377E-1,5.409836E-1,2.5691805E0,-4.5720145E-1,5.868852E-1,-1.7889348E-1,-1.5586382E0,3.0737687E-2,1.8073769E-1],"categories":[],"categories_nodes":[],"categories_segments":[],"categories_sizes":[],"default_left":[0,0,0,0,0,0,0,0,0,0,0,0,0,0,0,0,0,0,0,0,0,0,0,0,0,0,0,0,0,0,0,0,0,0,0,0,0,0,0,0,0,0,0,0,0,0,0,0,0,0,0,0,0,0,0,0,0,0,0,0,0,0,0,0,0],"id":0,"left_children":[1,3,5,7,9,11,13,-1,15,17,19,21,23,25,27,29,31,33,-1,-1,35,37,39,41,43,-1,45,47,49,51,-1,-1,53,55,-1,-1,-1,57,59,-1,-1,-1,-1,61,-1,-1,-1,-1,-1,63,-1,-1,-1,-1,-1,-1,-1,-1,-1,-1,-1,-1,-1,-1,-1],"loss_changes":[2.3708649E2,1.5379065E2,1.4729916E2,9.652195E1,4.0901398E1,2.5862286E2,1.6129086E2,0E0,1.1014936E2,4.998533E1,3.0632568E1,1.3527841E2,1.1978952E2,9.203815E0,2.7067474E1,1.4968066E2,3.1433018E1,3.1860218E0,0E0,0E0,2.5835693E1,2.1207663E2,4.7455673E0,2.1895075E1,6.0369583E1,0E0,7.8928137E-1,6.673889E-1,1.3036705E1,7.3771257E0,0E0,0E0,2.8948898E0,7.7758574E-1,0E0,0E0,0E0,4.4162384E1,1.18198364E2,0E0,0E0,0E0,0E0,4.672403E1,0E0,0E0,0E0,0E0,0E0,8.436358E-2,0E0,0E0,0E0,0E0,0E0,0E0,0E0,0E0,0E0,0E0,0E0,0E0,0E0,0E0,0E0],"parents":[2147483647,0,0,1,1,2,2,3,3,4,4,5,5,6,6,8,8,9,9,10,10,11,11,12,12,13,13,14,14,15,15,16,16,17,17,20,20,21,21,22,22,23,23,24,24,26,26,27,27,28,28,29,29,32,32,33,33,37,37,38,38,43,43,49,49],"right_children":[2,4,6,8,10,12,14,-1,16,18,20,22,24,26,28,30,32,34,-1,-1,36,38,40,42,44,-1,46,48,50,52,-1,-1,54,56,-1,-1,-1,58,60,-1,-1,-1,-1,62,-1,-1,-1,-1,-1,64,-1,-1,-1,-1,-1,-1,-1,-1,-1,-1,-1,-1,-1,-1,-1],"split_conditions":[1.3608762E1,2.379468E2,2.8621512E2,9.19939E0,1.1368535E1,2.5510825E2,1.4277983E1,-1.4538935E0,1.0948973E1,1.4717083E1,2.6476474E2,1.937125E1,1.5124284E1,4.8691664E0,8.494166E0,8.94625E0,3.40075E1,1.3569167E1,-1.5590166E0,-1.19262315E-1,2E-1,1.61198E1,1.9479584E1,1.4021525E1,2.4738707E1,-1.1692624E0,5.2295833E0,3.4337494E0,1.503835E1,4.9275002E0,2.0291803E0,6.307377E-1,6.83375E0,1.3560834E1,-2.692623E-1,-2.2187355E0,-2.692623E-1,4.056667E0,1.8089775E1,-1.9192624E0,-4.1926232E-1,-2.692623E-1,1.1409837E0,3.031667E0,6.307377E-1,3.0737687E-2,-2.692623E-1,1.0961065E0,2.4461067E0,1.1123332E1,1.1291803E0,-7.1926236E-1,-1.0819703E-2,-1.19262315E-1,-8.087091E-1,4.0983584E-2,3.307377E-1,5.409836E-1,2.5691805E0,-4.5720145E-1,5.868852E-1,-1.7889348E-1,-1.5586382E0,3.0737687E-2,1.8073769E-1],"split_indices":[2,3,3,2,2,3,2,0,2,0,3,0,2,0,0,0,3,0,0,0,1,2,0,2,2,0,0,0,2,0,0,0,0,0,0,0,0,0,2,0,0,0,0,0,0,0,0,0,0,0,0,0,0,0,0,0,0,0,0,0,0,0,0,0,0],"split_type":[0,0,0,0,0,0,0,0,0,0,0,0,0,0,0,0,0,0,0,0,0,0,0,0,0,0,0,0,0,0,0,0,0,0,0,0,0,0,0,0,0,0,0,0,0,0,0,0,0,0,0,0,0,0,0,0,0,0,0,0,0,0,0,0,0],"sum_hessian":[1.22E2,3.5E1,8.7E1,2.1E1,1.4E1,7.2E1,1.5E1,3E0,1.8E1,6E0,8E0,5.3E1,1.9E1,3E0,1.2E1,9E0,9E0,4E0,2E0,1E0,7E0,5.1E1,2E0,3E0,1.6E1,1E0,2E0,6E0,6E0,5E0,4E0,1E0,8E0,3E0,1E0,6E0,1E0,6E0,4.5E1,1E0,1E0,1E0,2E0,1.5E1,1E0,1E0,1E0,3E0,3E0,2E0,4E0,1E0,4E0,1E0,7E0,2E0,1E0,2E0,4E0,1.3E1,3.2E1,3E0,1.2E1,1E0,1E0],"tree_param":{"num_deleted":"0","num_feature":"5","num_nodes":"65","size_leaf_vector":"1"}},{"base_weights":[-3.0449813E-3,-6.808981E-1,1.7207255E0,9.068962E-2,-1.9317219E0,1.1650636E0,5.73584E0,6.628328E-1,-3.4250236E0,-3.69259E0,-3.472161E-1,-1.2165104E0,2.1498756E0,1.9867624E0,4.6136057E-1,1.1524701E0,-3.8764691E0,-1.1221438E-1,-4.3796744E0,-1.6851289E0,-4.728554E0,-4.426994E0,1.4260613E0,1.0236065E0,-2.800146E0,-2.650333E-1,3.0177865E0,2.5046572E-1,6.013284E0,-1.5000284E0,9.270487E-2,-1.4964099E0,-2.0068218E-1,1.3524589E-1,-1.2472132E0,-1.0137291E-1,-5.178858E0,-2.4242836E-1,-1.4967465E0,-7.193649E-1,2.0765743E0,-1.3809396E0,5.217621E-1,5.6353503E-1,-7.8546655E-1,-5.8797836E-1,3.5377538E0,4.6868435E-1,-4.100337E-1,4.247612E-1,2.7322133E0,1.651537E-1,-2.2887297E-1,-1.6906463E0,-2.2887297E-1,2.6127005E-2,-3.0516398E-1,1.1849151E-1,8.943197E-1,2.257907E-1,-5.7295132E-2,-3.5729516E-1,9.270487E-2,1.6390574E0,7.8030527E-1],"categories":[],"categories_nodes":[],"categories_segments":[],"categories_sizes":[],"default_left":[0,0,0,0,0,0,0,0,0,0,0,0,0,0,0,0,0,0,0,0,0,0,0,0,0,0,0,0,0,0,0,0,0,0,0,0,0,0,0,0,0,0,0,0,0,0,0,0,0,0,0,0,0,0,0,0,0,0,0,0,0,0,0,0,0],"id":1,"left_children":[1,3,5,7,9,11,13,15,17,19,21,23,25,-1,-1,27,29,-1,31,33,35,37,39,-1,41,43,45,47,49,-1,-1,-1,-1,51,-1,-1,53,-1,-1,55,57,-1,-1,59,-1,61,63,-1,-1,-1,-1,-1,-1,-1,-1,-1,-1,-1,-1,-1,-1,-1,-1,-1,-1],"loss_changes":[1.4489261E2,8.607089E1,7.140401E1,1.1491374E2,9.358146E1,7.766823E1,4.704773E0,1.1337548E2,2.1662727E1,2.530629E1,1.4377014E2,8.285325E1,4.900611E1,0E0,0E0,1.9579527E2,2.5059692E1,0E0,1.0208038E1,3.20652E1,1.802124E1,8.1747055E0,2.1032598E1,0E0,7.3480896E1,1.5123903E1,3.395308E1,8.487482E1,8.667891E1,0E0,0E0,0E0,0E0,2.2848608E0,0E0,0E0,1.3848709E1,0E0,0E0,1.0493939E0,1.5553505E1,0E0,0E0,9.998208E-1,0E0,1.9907112E0,1.2848358E1,0E0,0E0,0E0,0E0,0E0,0E0,0E0,0E0,0E0,0E0,0E0,0E0,0E0,0E0,0E0,0E0,0E0,0E0],"parents":[2147483647,0,0,1,1,2,2,3,3,4,4,5,5,6,6,7,7,8,8,9,9,10,10,11,11,12,12,15,15,16,16,18,18,19,19,20,20,21,21,22,22,24,24,25,25,26,26,27,27,28,28,33,33,36,36,39,39,40,40,43,43,45,45,46,46],"right_children":[2,4,6,8,10,12,14,16,18,20,22,24,26,-1,-1,28,30,-1,32,34,36,38,40,-1,42,44,46,48,50,-1,-1,-1,-1,52,-1,-1,54,-1,-1,56,58,-1,-1,60,-1,62,64,-1,-1,-1,-1,-1,-1,-1,-1,-1,-1,-1,-1,-1,-1,-1,-1,-1,-1],"split_conditions":[1.992235E1,2.5765036E2,2.965194E2,6E0,1.3830749E1,8.625415E0,7.1150002E0,1.9091883E1,9.631665E0,1.1368535E1,2E0,2.2415602E1,2.2545315E1,1.9867624E0,4.6136057E-1,5E0,6E-1,-1.1221438E-1,1.5375871E2,1.4717083E1,2.6476474E2,3.031667E0,1.4277983E1,1.0236065E0,2.6092667E2,2.167786E1,1.7165486E2,1.8536723E2,8.106666E0,-1.5000284E0,9.270487E-2,-1.4964099E0,-2.0068218E-1,1.3569167E1,-1.2472132E0,-1.0137291E-1,2E-1,-2.4242836E-1,-1.4967465E0,5.2295833E0,2.8469308E2,-1.3809396E0,5.217621E-1,2E-1,-7.8546655E-1,1.2396251E1,1.8648105E2,4.6868435E-1,-4.100337E-1,4.247612E-1,2.7322133E0,1.651537E-1,-2.2887297E-1,-1.6906463E0,-2.2887297E-1,2.6127005E-2,-3.0516398E-1,1.1849151E-1,8.943197E-1,2.257907E-1,-5.7295132E-2,-3.5729516E-1,9.270487E-2,1.6390574E0,7.8030527E-1],"split_indices":[2,3,3,4,2,0,0,2,0,2,4,2,2,0,0,4,1,0,3,0,3,0,2,0,3,2,3,3,0,0,0,0,0,0,0,0,1,0,0,0,3,0,0,1,0,0,3,0,0,0,0,0,0,0,0,0,0,0,0,0,0,0,0,0,0],"split_type":[0,0,0,0,0,0,0,0,0,0,0,0,0,0,0,0,0,0,0,0,0,0,0,0,0,0,0,0,0,0,0,0,0,0,0,0,0,0,0,0,0,0,0,0,0,0,0,0,0,0,0,0,0,0,0,0,0,0,0,0,0,0,0,0,0],"sum_hessian":[1.22E2,8.8E1,3.4E1,5.5E1,3.3E1,3.1E1,3E0,4.8E1,7E0,1.5E1,1.8E1,9E0,2.2E1,2E0,1E0,4.4E1,4E0,2E0,5E0,6E0,9E0,5E0,1.3E1,2E0,7E0,6E0,1.6E1,3.8E1,6E0,3E0,1E0,4E0,1E0,4E0,2E0,1E0,8E0,1E0,4E0,3E0,1E1,5E0,2E0,5E0,1E0,2E0,1.4E1,2.1E1,1.7E1,3E0,3E0,3E0,1E0,7E0,1E0,1E0,2E0,4E0,6E0,4E0,1E0,1E0,1E0,3E0,1.1E1],"tree_param":{"num_deleted":"0","num_feature":"5","num_nodes":"65","size_leaf_vector":"1"}},{"base_weights":[-3.6589848E-3,-1.2322781E0,6.486161E-1,-2.7794328E-1,-2.542302E0,1.7475893E-1,3.1138105E0,4.7793132E-1,-3.548203E0,-2.793052E0,-3.5753408E-1,8.102116E-1,-1.5401276E0,4.2567396E0,1.5260516E0,-2.9597548E-1,4.034506E0,-1.0080729E-1,-1.2801725E0,-1.3668661E0,-3.5120769E0,2.2207975E-2,-1.8309832E-1,4.096409E0,4.4337758E-1,8.584616E-1,-2.2262964E0,7.296381E-1,1.7636542E0,-1.9676018E-1,6.763586E-1,4.1271618E-1,-1.9002601E0,-3.1353667E-2,1.634705E0,8.192845E-2,-9.9777055E-1,-8.616701E-2,-3.8384802E0,1.8306057E0,-5.889047E-1,-1.5806905E0,9.643593E-1,-3.871345E0,-1.2182475E0,-1.0802107E-1,1.947899E-2,1.1279908E0,-2.5259593E-1,4.6582434E-1,-8.7042344E-1,-9.745381E-2,2.5635397E-1,-1.2468516E0,-1.9454199E-1,3.2901523E-1,-6.0001135E-1,-2.5846836E-1,5.5206865E-1,-1.5614262E-1,-1.3312272E0,3.44772E-1,-6.4053106E-1],"categories":[],"categories_nodes":[],"categories_segments":[],"categories_sizes":[],"default_left":[0,0,0,0,0,0,0,0,0,0,0,0,0,0,0,0,0,0,0,0,0,0,0,0,0,0,0,0,0,0,0,0,0,0,0,0,0,0,0,0,0,0,0,0,0,0,0,0,0,0,0,0,0,0,0,0,0,0,0,0,0,0,0],"id":2,"left_children":[1,3,5,7,9,11,13,15,17,19,21,23,25,27,29,31,33,-1,-1,35,37,-1,-1,39,41,-1,43,-1,-1,45,-1,47,49,-1,-1,51,-1,-1,53,-1,-1,55,57,59,61,-1,-1,-1,-1,-1,-1,-1,-1,-1,-1,-1,-1,-1,-1,-1,-1,-1,-1],"loss_changes":[9.9371185E1,5.3052048E1,9.407599E1,6.5965355E1,8.862335E0,7.643915E1,1.709504E1,6.1748173E1,1.0114506E1,1.1606865E1,3.7246782E-1,5.9663673E1,6.3756073E1,6.4199142E0,9.228802E0,2.2386189E1,2.398822E1,0E0,0E0,2.0140163E1,9.423531E0,0E0,0E0,7.274258E1,5.1085964E1,0E0,2.347467E1,0E0,0E0,1.5158921E-1,0E0,6.196314E1,2.5247055E1,0E0,0E0,1.848924E0,0E0,0E0,6.4257812E0,0E0,0E0,1.3421112E1,6.2357655E1,9.071564E0,2.8501486E1,0E0,0E0,0E0,0E0,0E0,0E0,0E0,0E0,0E0,0E0,0E0,0E0,0E0,0E0,0E0,0E0,0E0,0E0],"parents":[2147483647,0,0,1,1,2,2,3,3,4,4,5,5,6,6,7,7,8,8,9,9,10,10,11,11,12,12,13,13,14,14,15,15,16,16,19,19,20,20,23,23,24,24,26,26,29,29,31,31,32,32,35,35,38,38,41,41,42,42,43,43,44,44],"right_children":[2,4,6,8,10,12,14,16,18,20,22,24,26,28,30,32,34,-1,-1,36,38,-1,-1,40,42,-1,44,-1,-1,46,-1,48,50,-1,-1,52,-1,-1,54,-1,-1,56,58,60,62,-1,-1,-1,-1,-1,-1,-1,-1,-1,-1,-1,-1,-1,-1,-1,-1,-1,-1],"split_conditions":[1.4369594E1,2.5826144E2,2.8621512E2,6E0,1.3830749E1,2.5510825E2,8.494166E0,5E0,5.4858327E0,1.1368535E1,5.2295833E0,1.61198E1,1.5124284E1,4.8087497E0,1.503835E1,4E-1,8.106666E0,-1.0080729E-1,-1.2801725E0,1.4717083E1,2.6476474E2,2.2207975E-2,-1.8309832E-1,1.9707729E2,1.7653183E2,8.584616E-1,2.6092667E2,7.296381E-1,1.7636542E0,1.1123332E1,6.763586E-1,9.901636E0,3.40075E1,-3.1353667E-2,1.634705E0,1E-1,-9.9777055E-1,-8.616701E-2,2E-1,1.8306057E0,-5.889047E-1,9.548332E0,1.8116623E1,-2.9100006E0,2.6263257E2,-1.0802107E-1,1.947899E-2,1.1279908E0,-2.5259593E-1,4.6582434E-1,-8.7042344E-1,-9.745381E-2,2.5635397E-1,-1.2468516E0,-1.9454199E-1,3.2901523E-1,-6.0001135E-1,-2.5846836E-1,5.5206865E-1,-1.5614262E-1,-1.3312272E0,3.44772E-1,-6.4053106E-1],"split_indices":[2,3,3,4,2,3,0,4,0,2,0,2,2,0,2,1,0,0,0,0,3,0,0,3,3,0,3,0,0,0,0,2,3,0,0,1,0,0,1,0,0,0,2,0,3,0,0,0,0,0,0,0,0,0,0,0,0,0,0,0,0,0,0],"split_type":[0,0,0,0,0,0,0,0,0,0,0,0,0,0,0,0,0,0,0,0,0,0,0,0,0,0,0,0,0,0,0,0,0,0,0,0,0,0,0,0,0,0,0,0,0,0,0,0,0,0,0,0,0,0,0,0,0,0,0,0,0,0,0],"sum_hessian":[1.22E2,4.2E1,8E1,2.5E1,1.7E1,6.8E1,1.2E1,2.1E1,4E0,1.5E1,2E0,5E1,1.8E1,6E0,6E0,1.8E1,3E0,1E0,3E0,6E0,9E0,1E0,1E0,4E0,4.6E1,2E0,1.6E1,4E0,2E0,2E0,4E0,1.3E1,5E0,1E0,2E0,4E0,2E0,1E0,8E0,3E0,1E0,9E0,3.7E1,5E0,1.1E1,1E0,1E0,3E0,1E1,1E0,4E0,3E0,1E0,7E0,1E0,1E0,8E0,1.2E1,2.5E1,1E0,4E0,3E0,8E0],"tree_param":{"num_deleted":"0","num_feature":"5","num_nodes":"63","size_leaf_vector":"1"}},{"base_weights":[1.0337869E-2,4.3074685E-1,-1.3672205E0,1.9643302E-1,3.8736632E0,-2.1858282E0,6.947777E-1,-9.4247746E-1,6.2486225E-1,-3.324572E-1,1.8179514E0,8.5759383E-1,-3.46037E0,-3.866767E-1,1.9014481E0,-1.7131054E0,3.8477498E-1,-5.2775604E-1,1.2536525E0,-2.1077815E-1,6.1172392E-2,-1.2769448E0,1.2387881E0,-4.7871523E0,1.5062484E-1,6.1700094E-1,1.6880094E-1,-8.010307E-1,-2.5250514E0,1.0052432E0,-1.3980652E0,6.2532055E-1,-2.2045953E0,2.3408067E0,3.2619294E-3,-2.086093E0,2.9394722E-1,-5.7673903E0,-1.6298876E0,3.4226775E-1,-5.715669E-1,-3.216891E-1,-5.8162097E-2,1.4435292E-2,-8.698563E-1,5.22195E-1,-2.4019538E-1,-5.5588746E-1,-7.3241904E-2,2.9856226E-1,-6.8296456E-1,-2.3211384E-2,-1.2949036E0,-7.652262E-1,8.784403E-1,-3.0804545E-1,4.472379E-1,-8.141911E-1,-3.0369187E-2,-1.8811985E0,-3.3667403E-1,-6.629931E-1,1.6557027E-2],"categories":[],"categories_nodes":[],"categories_segments":[],"categories_sizes":[],"default_left":[0,0,0,0,0,0,0,0,0,0,0,0,0,0,0,0,0,0,0,0,0,0,0,0,0,0,0,0,0,0,0,0,0,0,0,0,0,0,0,0,0,0,0,0,0,0,0,0,0,0,0,0,0,0,0,0,0,0,0,0,0,0,0],"id":3,"left_children":[1,3,5,7,9,11,13,15,17,19,-1,21,23,-1,25,27,29,31,33,-1,-1,35,-1,37,39,-1,-1,41,43,45,47,49,51,53,55,57,-1,59,61,-1,-1,-1,-1,-1,-1,-1,-1,-1,-1,-1,-1,-1,-1,-1,-1,-1,-1,-1,-1,-1,-1,-1,-1],"loss_changes":[7.182289E1,7.587777E1,5.0469734E1,4.4503754E1,5.7186516E1,8.442591E1,2.3993868E1,2.6229607E1,4.849546E1,7.3884964E-1,0E0,5.4157864E1,7.2586136E1,0E0,8.961868E-2,9.826244E0,1.2467353E1,4.778316E1,5.8445152E1,0E0,0E0,1.1174306E1,0E0,2.4643387E1,1.2352852E1,0E0,0E0,1.2744212E0,7.8481064E0,1.20181875E1,1.1223569E0,1.836609E1,4.4587692E1,7.3546745E1,3.3708572E1,4.7102623E0,0E0,1.1664886E1,4.031951E0,0E0,0E0,0E0,0E0,0E0,0E0,0E0,0E0,0E0,0E0,0E0,0E0,0E0,0E0,0E0,0E0,0E0,0E0,0E0,0E0,0E0,0E0,0E0,0E0],"parents":[2147483647,0,0,1,1,2,2,3,3,4,4,5,5,6,6,7,7,8,8,9,9,11,11,12,12,14,14,15,15,16,16,17,17,18,18,21,21,23,23,24,24,27,27,28,28,29,29,30,30,31,31,32,32,33,33,34,34,35,35,37,37,38,38],"right_children":[2,4,6,8,10,12,14,16,18,20,-1,22,24,-1,26,28,30,32,34,-1,-1,36,-1,38,40,-1,-1,42,44,46,48,50,52,54,56,58,-1,60,62,-1,-1,-1,-1,-1,-1,-1,-1,-1,-1,-1,-1,-1,-1,-1,-1,-1,-1,-1,-1,-1,-1,-1,-1],"split_conditions":[1.702125E1,1.6519167E1,6E-1,1.3608762E1,1E-1,1.35999E2,1.790875E1,1.3112918E1,6.3608336E0,1.6865004E1,1.8179514E0,1.1521448E2,1.8466455E1,-3.866767E-1,1.9171251E1,2.379468E2,1.1966953E1,4.8087497E0,1.084E1,-2.1077815E-1,6.1172392E-2,1.8692083E1,1.2387881E0,2.5988608E2,2.550332E2,6.1700094E-1,1.6880094E-1,9.906544E0,1.1212135E1,1.3787918E1,1.3554584E1,2.7295977E1,1.6928614E1,1E0,1.9469976E1,1.2503199E1,2.9394722E-1,1.9479584E1,1.1901798E1,3.4226775E-1,-5.715669E-1,-3.216891E-1,-5.8162097E-2,1.4435292E-2,-8.698563E-1,5.22195E-1,-2.4019538E-1,-5.5588746E-1,-7.3241904E-2,2.9856226E-1,-6.8296456E-1,-2.3211384E-2,-1.2949036E0,-7.652262E-1,8.784403E-1,-3.0804545E-1,4.472379E-1,-8.141911E-1,-3.0369187E-2,-1.8811985E0,-3.3667403E-1,-6.629931E-1,1.6557027E-2],"split_indices":[0,0,1,2,1,3,0,0,0,0,0,3,2,0,0,3,2,0,0,0,0,0,0,3,3,0,0,2,2,0,0,2,2,4,2,2,0,0,2,0,0,0,0,0,0,0,0,0,0,0,0,0,0,0,0,0,0,0,0,0,0,0,0],"split_type":[0,0,0,0,0,0,0,0,0,0,0,0,0,0,0,0,0,0,0,0,0,0,0,0,0,0,0,0,0,0,0,0,0,0,0,0,0,0,0,0,0,0,0,0,0,0,0,0,0,0,0,0,0,0,0,0,0,0,0,0,0,0,0],"sum_hessian":[1.22E2,9.4E1,2.8E1,8.9E1,5E0,2E1,8E0,2.4E1,6.5E1,2E0,3E0,6E0,1.4E1,3E0,5E0,1.5E1,9E0,2.3E1,4.2E1,1E0,1E0,4E0,2E0,1E1,4E0,4E0,1E0,8E0,7E0,7E0,2E0,1.4E1,9E0,2.2E1,2E1,3E0,1E0,7E0,3E0,3E0,1E0,5E0,3E0,1E0,6E0,5E0,2E0,1E0,1E0,1.3E1,1E0,5E0,4E0,2E0,2E1,1.2E1,8E0,2E0,1E0,6E0,1E0,2E0,1E0],"tree_param":{"num_deleted":"0","num_feature":"5","num_nodes":"63","size_leaf_vector":"1"}},{"base_weights":[-2.01658E-2,2.8716305E-1,-1.0262374E0,1.0380841E-1,2.9896219E0,-1.6446242E0,5.306918E-1,-2.3803154E-1,9.1025096E-1,-2.8258863E-1,4.6963744E0,6.986261E-1,-2.6284995E0,-9.989147E-1,1.4619808E0,1.3067099E0,-6.966933E-1,-2.1260674E0,1.530744E0,-1.7916141E-1,5.1996518E-2,3.9134333E-1,1.6176543E0,-1.0039841E0,9.9103034E-1,-3.611398E0,5.957737E-2,-3.5055944E-1,-7.350969E-2,1.0704318E-1,1.6116527E0,3.0473864E0,-1.9233958E-1,-1.2390265E0,5.33204E-1,-3.743291E-2,-7.7855885E-1,-9.9670583E-1,2.288186E0,-1.6714053E0,2.4985515E-1,-4.979684E0,-4.9236375E-1,2.6525748E-1,-4.858319E-1,5.326294E-1,1.4348088E-1,-2.151394E-3,1.2811931E0,-4.0517727E-1,4.7793669E-1,-6.7943245E-1,-1.8161556E-1,-2.1554376E-1,3.5024017E-1,8.3945274E-2,-7.0995057E-1,2.7328712E-1,1.1687558E0,-6.513529E-1,-2.5813866E-2,-1.678217E0,-2.86173E-1],"categories":[],"categories_nodes":[],"categories_segments":[],"categories_sizes":[],"default_left":[0,0,0,0,0,0,0,0,0,0,0,0,0,0,0,0,0,0,0,0,0,0,0,0,0,0,0,0,0,0,0,0,0,0,0,0,0,0,0,0,0,0,0,0,0,0,0,0,0,0,0,0,0,0,0,0,0,0,0,0,0,0,0],"id":4,"left_children":[1,3,5,7,9,11,13,15,17,19,21,23,25,27,29,31,33,35,37,-1,-1,-1,-1,39,-1,41,43,-1,-1,-1,45,47,49,51,53,-1,-1,55,57,59,-1,61,-1,-1,-1,-1,-1,-1,-1,-1,-1,-1,-1,-1,-1,-1,-1,-1,-1,-1,-1,-1,-1],"loss_changes":[3.832566E1,4.676294E1,2.8793541E1,2.5027353E1,3.483627E1,5.025112E1,1.4280947E1,4.6255264E1,5.4122856E1,5.3381866E-1,2.4064255E0,3.436141E1,3.9846764E1,2.2515583E-1,4.174223E-1,3.972654E1,3.4011368E1,4.370495E0,4.6311764E1,0E0,0E0,0E0,0E0,7.521743E0,0E0,2.148082E1,8.354601E0,0E0,0E0,0E0,7.898331E-2,2.6186195E1,2.0763777E1,2.1377415E1,1.3541145E1,0E0,0E0,1.115365E1,3.6305298E1,2.9824429E0,0E0,9.503723E0,0E0,0E0,0E0,0E0,0E0,0E0,0E0,0E0,0E0,0E0,0E0,0E0,0E0,0E0,0E0,0E0,0E0,0E0,0E0,0E0,0E0],"parents":[2147483647,0,0,1,1,2,2,3,3,4,4,5,5,6,6,7,7,8,8,9,9,10,10,11,11,12,12,13,13,14,14,15,15,16,16,17,17,18,18,23,23,25,25,26,26,30,30,31,31,32,32,33,33,34,34,37,37,38,38,39,39,41,41],"right_children":[2,4,6,8,10,12,14,16,18,20,22,24,26,28,30,32,34,36,38,-1,-1,-1,-1,40,-1,42,44,-1,-1,-1,46,48,50,52,54,-1,-1,56,58,60,-1,62,-1,-1,-1,-1,-1,-1,-1,-1,-1,-1,-1,-1,-1,-1,-1,-1,-1,-1,-1,-1,-1],"split_conditions":[1.702125E1,1.6519167E1,6E-1,5E0,1E-1,1.35999E2,1.790875E1,1.8596217E2,1.7543109E2,1.6865004E1,1.6598333E1,1.1521448E2,1.8466455E1,1.769E1,7.0000005E-1,1E-1,1.91588E1,5.4858327E0,5.012917E0,-1.7916141E-1,5.1996518E-2,3.9134333E-1,1.6176543E0,1.8692083E1,9.9103034E-1,2.2612321E2,2.550332E2,-3.5055944E-1,-7.350969E-2,1.0704318E-1,1.9171251E1,1.1885453E1,1.30129175E1,2E0,2.2152615E2,-3.743291E-2,-7.7855885E-1,6E0,1.7992796E1,1.2503199E1,2.4985515E-1,1.9479584E1,-4.9236375E-1,2.6525748E-1,-4.858319E-1,5.326294E-1,1.4348088E-1,-2.151394E-3,1.2811931E0,-4.0517727E-1,4.7793669E-1,-6.7943245E-1,-1.8161556E-1,-2.1554376E-1,3.5024017E-1,8.3945274E-2,-7.0995057E-1,2.7328712E-1,1.1687558E0,-6.513529E-1,-2.5813866E-2,-1.678217E0,-2.86173E-1],"split_indices":[0,0,1,4,1,3,0,3,3,0,0,3,2,0,1,1,2,0,0,0,0,0,0,0,0,3,3,0,0,0,0,2,0,4,3,0,0,4,2,2,0,0,0,0,0,0,0,0,0,0,0,0,0,0,0,0,0,0,0,0,0,0,0],"split_type":[0,0,0,0,0,0,0,0,0,0,0,0,0,0,0,0,0,0,0,0,0,0,0,0,0,0,0,0,0,0,0,0,0,0,0,0,0,0,0,0,0,0,0,0,0,0,0,0,0,0,0,0,0,0,0,0,0,0,0,0,0,0,0],"sum_hessian":[1.22E2,9.4E1,2.8E1,8.9E1,5E0,2E1,8E0,6.3E1,2.6E1,2E0,3E0,6E0,1.4E1,3E0,5E0,1.4E1,4.9E1,4E0,2.2E1,1E0,1E0,1E0,2E0,4E0,2E0,1E1,4E0,2E0,1E0,1E0,4E0,6E0,8E0,3.4E1,1.5E1,1E0,3E0,5E0,1.7E1,3E0,1E0,5E0,5E0,3E0,1E0,3E0,1E0,2E0,4E0,5E0,3E0,1.2E1,2.2E1,5E0,1E1,3E0,2E0,1E1,7E0,2E0,1E0,4E0,1E0],"tree_param":{"num_deleted":"0","num_feature":"5","num_nodes":"63","size_leaf_vector":"1"}},{"base_weights":[-7.995621E-3,2.2740713E-1,-7.788669E-1,7.961594E-2,2.4063737E0,-1.2518848E0,4.1138256E-1,-2.5670564E-1,5.91229E-1,-2.4020036E-1,3.789711E0,-6.1196476E-1,-1.1455663E0,-8.052578E-1,1.1539124E0,1.3912238E-2,-2.9656668E0,1.3065726E0,2.4172115E-1,-1.5228724E-1,4.4197083E-2,3.3264172E-1,1.2941233E0,2.3360224E0,-1.3572971E0,-2.8044757E-1,-6.2483314E-2,9.0986684E-2,3.790138E-1,1.1550412E0,-3.668208E-1,-1.0488273E0,-1.2659569E-1,-3.1848258E-1,2.1021936E0,7.928244E-1,2.123769E-1,-1.7473632E0,2.3562662E-1,2.3323596E-2,7.196787E-1,-7.6503134E-1,-5.3965118E-2,-6.529521E-1,6.081834E-2,3.7955794E-1,1.1941795E0,-6.223204E-1,1.0269451E-2],"categories":[],"categories_nodes":[],"categories_segments":[],"categories_sizes":[],"default_left":[0,0,0,0,0,0,0,0,0,0,0,0,0,0,0,0,0,0,0,0,0,0,0,0,0,0,0,0,0,0,0,0,0,0,0,0,0,0,0,0,0,0,0,0,0,0,0,0,0],"id":5,"left_children":[1,3,5,7,9,11,13,15,17,19,21,23,-1,25,27,29,31,-1,33,-1,-1,-1,-1,35,37,-1,-1,-1,-1,39,41,-1,-1,43,45,-1,-1,47,-1,-1,-1,-1,-1,-1,-1,-1,-1,-1,-1],"loss_changes":[2.2497341E1,3.0401463E1,1.6842276E1,1.5637757E1,2.2876919E1,3.2154907E1,9.059723E0,4.0361393E1,4.630712E1,3.8568443E-1,8.364296E-1,4.2720814E1,0E0,1.146934E-1,1.7552137E-1,2.2581434E1,5.2708435E0,0E0,3.6105793E1,0E0,0E0,0E0,0E0,1.2665558E-1,1.3909447E1,0E0,0E0,0E0,0E0,1.7233948E1,1.5458608E1,0E0,0E0,2.6588621E1,7.54158E0,0E0,0E0,7.645462E0,0E0,0E0,0E0,0E0,0E0,0E0,0E0,0E0,0E0,0E0,0E0],"parents":[2147483647,0,0,1,1,2,2,3,3,4,4,5,5,6,6,7,7,8,8,9,9,10,10,11,11,13,13,14,14,15,15,16,16,18,18,23,23,24,24,29,29,30,30,33,33,34,34,37,37],"right_children":[2,4,6,8,10,12,14,16,18,20,22,24,-1,26,28,30,32,-1,34,-1,-1,-1,-1,36,38,-1,-1,-1,-1,40,42,-1,-1,44,46,-1,-1,48,-1,-1,-1,-1,-1,-1,-1,-1,-1,-1,-1],"split_conditions":[1.702125E1,1.6519167E1,6E-1,1.8089775E1,1E-1,4E-1,1.790875E1,1.7533146E1,1.8606289E1,1.6865004E1,1.6598333E1,1.0948973E1,-1.1455663E0,1.769E1,7.0000005E-1,1.8536723E2,1.0964999E1,1.3065726E0,2.9313947E2,-1.5228724E-1,4.4197083E-2,3.3264172E-1,1.2941233E0,1.9308752E1,2.2545315E1,-2.8044757E-1,-6.2483314E-2,9.0986684E-2,3.790138E-1,1.2641076E1,2.0090652E2,-1.0488273E0,-1.2659569E-1,6.3608336E0,2.7295977E1,7.928244E-1,2.123769E-1,2.7761517E2,2.3562662E-1,2.3323596E-2,7.196787E-1,-7.6503134E-1,-5.3965118E-2,-6.529521E-1,6.081834E-2,3.7955794E-1,1.1941795E0,-6.223204E-1,1.0269451E-2],"split_indices":[0,0,1,2,1,1,0,2,2,0,0,2,0,0,1,3,0,0,3,0,0,0,0,0,2,0,0,0,0,2,3,0,0,0,2,0,0,3,0,0,0,0,0,0,0,0,0,0,0],"split_type":[0,0,0,0,0,0,0,0,0,0,0,0,0,0,0,0,0,0,0,0,0,0,0,0,0,0,0,0,0,0,0,0,0,0,0,0,0,0,0,0,0,0,0,0,0,0,0,0,0],"sum_hessian":[1.22E2,9.4E1,2.8E1,8.9E1,5E0,2E1,8E0,5.4E1,3.5E1,2E0,3E0,1.7E1,3E0,3E0,5E0,5E1,4E0,2E0,3.3E1,1E0,1E0,1E0,2E0,3E0,1.4E1,2E0,1E0,1E0,4E0,1.2E1,3.8E1,3E0,1E0,2.6E1,7E0,2E0,1E0,1.2E1,2E0,7E0,5E0,2E0,3.6E1,5E0,2.1E1,6E0,1E0,1E1,2E0],"tree_param":{"num_deleted":"0","num_feature":"5","num_nodes":"49","size_leaf_vector":"1"}},{"base_weights":[1.2010567E-2,1.8608437E-1,-5.5864537E-1,-6.421655E-2,1.0711551E0,-1.0286582E0,9.895941E-2,-8.9796805E-1,1.956411E-1,3.7049648E-1,2.4195442E0,-6.042605E-1,-1.1728531E0,8.9117306E-1,-1.346817E0,-5.7531673E-2,-1.564564E0,3.9490116E-1,-1.312525E0,6.2567484E-1,9.902014E-2,9.463333E-1,1.0797582E0,-9.615282E-1,3.7932262E-1,-1.9925095E-1,1.1686121E0,-1.9843884E0,1.8052025E-1,-4.2131424E-1,2.4314147E-1,-3.9240742E-1,-2.0108588E0,1.4936072E0,-4.9190722E-2,-6.372584E-1,-1.7272425E-1,4.0902358E-1,-1.03118606E-1,-1.0279656E-3,4.3258858E-1,-1.3317953E0,2.9708862E-1,1.2735502E0,6.510687E-2,-6.938227E-1,-1.49899E-1,-2.6104146E-1,-6.044617E-2,1.3593484E-2,-2.558347E-1,-7.0438486E-1,1.7529489E-3,7.354123E-2,8.6562306E-1,-9.166928E-2,9.131066E-1,2.579365E-2,-1.4232503E-1,-8.911583E-2,1.9270383E-1,-4.396365E-1,7.201195E-4,1.8850137E-1,-1.0449887E-1,2.0611034E-1,5.479679E-1],"categories":[],"categories_nodes":[],"categories_segments":[],"categories_sizes":[],"default_left":[0,0,0,0,0,0,0,0,0,0,0,0,0,0,0,0,0,0,0,0,0,0,0,0,0,0,0,0,0,0,0,0,0,0,0,0,0,0,0,0,0,0,0,0,0,0,0,0,0,0,0,0,0,0,0,0,0,0,0,0,0,0,0,0,0,0,0],"id":6,"left_children":[1,3,5,7,9,11,13,15,17,19,21,23,-1,25,27,29,31,33,35,-1,37,-1,39,41,-1,-1,43,45,-1,47,-1,49,51,53,55,-1,57,-1,59,-1,-1,61,63,65,-1,-1,-1,-1,-1,-1,-1,-1,-1,-1,-1,-1,-1,-1,-1,-1,-1,-1,-1,-1,-1,-1,-1],"loss_changes":[1.2322314E1,2.111452E1,9.065191E0,1.6424934E1,1.8943537E1,1.842229E1,1.6089977E1,9.994154E0,1.7948317E1,6.7775655E0,3.4862213E0,1.1897606E1,0E0,4.659774E0,7.405777E0,3.1833432E0,4.442198E0,2.5445642E1,6.1090918E0,0E0,3.718749E0,0E0,1.574275E0,6.920004E0,0E0,0E0,5.2247334E-1,7.944679E-1,0E0,5.1532376E-1,0E0,8.447003E-1,4.772402E0,2.5357037E1,3.1061474E1,0E0,3.5298488E-1,0E0,2.070234E0,0E0,0E0,1.965126E0,1.0740459E0,1.0155325E0,0E0,0E0,0E0,0E0,0E0,0E0,0E0,0E0,0E0,0E0,0E0,0E0,0E0,0E0,0E0,0E0,0E0,0E0,0E0,0E0,0E0,0E0,0E0],"parents":[2147483647,0,0,1,1,2,2,3,3,4,4,5,5,6,6,7,7,8,8,9,9,10,10,11,11,13,13,14,14,15,15,16,16,17,17,18,18,20,20,22,22,23,23,26,26,27,27,29,29,31,31,32,32,33,33,34,34,36,36,38,38,41,41,42,42,43,43],"right_children":[2,4,6,8,10,12,14,16,18,20,22,24,-1,26,28,30,32,34,36,-1,38,-1,40,42,-1,-1,44,46,-1,48,-1,50,52,54,56,-1,58,-1,60,-1,-1,62,64,66,-1,-1,-1,-1,-1,-1,-1,-1,-1,-1,-1,-1,-1,-1,-1,-1,-1,-1,-1,-1,-1,-1,-1],"split_conditions":[1.702125E1,1.3554584E1,1.8577497E1,1.3608762E1,4E-1,1.8537918E1,1.937125E1,1.1212135E1,1.2389999E1,1.3556668E1,1.945333E1,1.8392084E1,-1.1728531E0,9.19939E0,1.951292E1,1.0009036E1,2.1987863E2,1.6862455E1,1.30129175E1,6.2567484E-1,1.4518013E2,9.463333E-1,3.2E0,2.2545315E1,3.7932262E-1,-1.9925095E-1,1.9308752E1,1.9479584E1,1.8052025E-1,4.9275002E0,2.4314147E-1,9.139998E0,3.5765903E2,5.473333E0,2.965194E2,-6.372584E-1,1.3177501E1,4.0902358E-1,2.9852692E2,-1.0279656E-3,4.3258858E-1,1.8265003E1,4E-1,1.907125E1,6.510687E-2,-6.938227E-1,-1.49899E-1,-2.6104146E-1,-6.044617E-2,1.3593484E-2,-2.558347E-1,-7.0438486E-1,1.7529489E-3,7.354123E-2,8.6562306E-1,-9.166928E-2,9.131066E-1,2.579365E-2,-1.4232503E-1,-8.911583E-2,1.9270383E-1,-4.396365E-1,7.201195E-4,1.8850137E-1,-1.0449887E-1,2.0611034E-1,5.479679E-1],"split_indices":[0,0,0,2,1,0,0,2,0,0,2,0,0,2,0,2,3,2,0,0,3,0,1,2,0,0,0,0,0,0,0,0,3,0,3,0,0,0,3,0,0,0,1,0,0,0,0,0,0,0,0,0,0,0,0,0,0,0,0,0,0,0,0,0,0,0,0],"split_type":[0,0,0,0,0,0,0,0,0,0,0,0,0,0,0,0,0,0,0,0,0,0,0,0,0,0,0,0,0,0,0,0,0,0,0,0,0,0,0,0,0,0,0,0,0,0,0,0,0,0,0,0,0,0,0,0,0,0,0,0,0,0,0,0,0,0,0],"sum_hessian":[1.22E2,9.4E1,2.8E1,7.4E1,2E1,1.6E1,1.2E1,1.7E1,5.7E1,1.4E1,6E0,1.5E1,1E0,8E0,4E0,8E0,9E0,5.1E1,6E0,1E0,1.3E1,3E0,3E0,1.3E1,2E0,1E0,7E0,3E0,1E0,6E0,2E0,3E0,6E0,1.4E1,3.7E1,3E0,3E0,1E0,1.2E1,1E0,2E0,1E1,3E0,6E0,1E0,2E0,1E0,1E0,5E0,2E0,1E0,5E0,1E0,8E0,6E0,3.5E1,2E0,2E0,1E0,1E1,2E0,9E0,1E0,2E0,1E0,4E0,2E0],"tree_param":{"num_deleted":"0","num_feature":"5","num_nodes":"67","size_leaf_vector":"1"}},{"base_weights":[1.904195E-2,-1.54044E-1,4.5863074E-1,-8.932873E-2,-1.9794391E0,2.555921E-1,1.9682822E0,4.665051E-2,-1.0330626E0,-7.746709E-1,-1.16076715E-1,5.9322935E-1,-1.0350024E0,2.0192185E-1,8.780866E-1,-2.2229108E-1,1.5219418E0,-1.1373622E0,1.4900208E-3,1.1591179E0,-4.281041E-1,-6.39486E-1,3.203659E-1,6.761936E-1,-6.8690145E-1,2.3954172E0,-8.2386374E-1,-2.9849783E-1,-3.9292982E-1,2.093718E0,4.58998E-1,-1.1490083E0,5.226017E-1,1.873623E-1,-8.882389E-2,3.5975748E-1,-2.0716305E-1,-5.6603557E-1,-5.339492E-2,-1.6825218E-1,8.5051644E-1,3.5849478E-2,-3.5344517E-1,-2.6249744E-2,-1.08074285E-1,7.193358E-1,4.0396787E-2,8.84024E-3,3.6099288E-1,4.0683366E-2,-5.475663E-1,2.1719895E-1,4.4101905E-2],"categories":[],"categories_nodes":[],"categories_segments":[],"categories_sizes":[],"default_left":[0,0,0,0,0,0,0,0,0,0,0,0,0,0,0,0,0,0,0,0,0,0,0,0,0,0,0,0,0,0,0,0,0,0,0,0,0,0,0,0,0,0,0,0,0,0,0,0,0,0,0,0,0],"id":7,"left_children":[1,3,5,7,9,11,13,15,17,-1,-1,19,21,-1,-1,23,25,27,-1,29,31,-1,33,35,37,39,41,43,-1,45,47,49,51,-1,-1,-1,-1,-1,-1,-1,-1,-1,-1,-1,-1,-1,-1,-1,-1,-1,-1,-1,-1],"loss_changes":[9.429307E0,1.0336834E1,1.0225039E1,1.1212748E1,1.8807697E0,1.4558082E1,2.9966755E0,3.0889387E1,1.1965761E0,0E0,0E0,1.5523207E1,1.1087145E1,0E0,0E0,2.801587E1,2.6561544E1,1.0552711E0,0E0,1.0162636E1,7.454151E0,0E0,9.349433E-1,1.726851E1,2.6532473E1,1.328714E1,1.4776697E0,7.566005E-3,0E0,3.846939E0,3.481291E0,5.4595757E0,2.7178264E-1,0E0,0E0,0E0,0E0,0E0,0E0,0E0,0E0,0E0,0E0,0E0,0E0,0E0,0E0,0E0,0E0,0E0,0E0,0E0,0E0],"parents":[2147483647,0,0,1,1,2,2,3,3,4,4,5,5,6,6,7,7,8,8,11,11,12,12,15,15,16,16,17,17,19,19,20,20,22,22,23,23,24,24,25,25,26,26,27,27,29,29,30,30,31,31,32,32],"right_children":[2,4,6,8,10,12,14,16,18,-1,-1,20,22,-1,-1,24,26,28,-1,30,32,-1,34,36,38,40,42,44,-1,46,48,50,52,-1,-1,-1,-1,-1,-1,-1,-1,-1,-1,-1,-1,-1,-1,-1,-1,-1,-1,-1,-1],"split_conditions":[1.992235E1,1.945333E1,2.965194E2,6E0,1.14775E1,2.7295977E1,2.4162947E1,5E0,3.0947507E2,-7.746709E-1,-1.16076715E-1,2.4070164E2,8.625415E0,2.0192185E-1,8.780866E-1,1.8536723E2,2.9607578E2,7.4774995E0,1.4900208E-3,1.2389999E1,2.4738707E1,-6.39486E-1,1.6598333E1,1.6862455E1,2.3909608E2,-2.9100006E0,1.3056667E1,5.4858327E0,-3.9292982E-1,1.4000001E0,2.474329E1,2.0929594E1,4E0,1.873623E-1,-8.882389E-2,3.5975748E-1,-2.0716305E-1,-5.6603557E-1,-5.339492E-2,-1.6825218E-1,8.5051644E-1,3.5849478E-2,-3.5344517E-1,-2.6249744E-2,-1.08074285E-1,7.193358E-1,4.0396787E-2,8.84024E-3,3.6099288E-1,4.0683366E-2,-5.475663E-1,2.1719895E-1,4.4101905E-2],"split_indices":[2,2,3,4,0,2,2,4,3,0,0,3,0,0,0,3,3,0,0,0,2,0,0,2,3,0,0,0,0,1,2,2,4,0,0,0,0,0,0,0,0,0,0,0,0,0,0,0,0,0,0,0,0],"split_type":[0,0,0,0,0,0,0,0,0,0,0,0,0,0,0,0,0,0,0,0,0,0,0,0,0,0,0,0,0,0,0,0,0,0,0,0,0,0,0,0,0,0,0,0,0,0,0,0,0,0,0,0,0],"sum_hessian":[1.22E2,8.8E1,3.4E1,8.6E1,2E0,3.1E1,3E0,7.6E1,1E1,1E0,1E0,2.5E1,6E0,2E0,1E0,6.5E1,1.1E1,9E0,1E0,1.6E1,9E0,3E0,3E0,2.2E1,4.3E1,8E0,3E0,2E0,7E0,6E0,1E1,5E0,4E0,2E0,1E0,1.6E1,6E0,1.2E1,3.1E1,1E0,7E0,1E0,2E0,1E0,1E0,5E0,1E0,7E0,3E0,2E0,3E0,2E0,2E0],"tree_param":{"num_deleted":"0","num_feature":"5","num_nodes":"53","size_leaf_vector":"1"}},{"base_weights":[1.2551734E-2,1.5041648E-1,-4.3950695E-1,5.5351436E-2,1.5513226E0,-7.418859E-1,3.1487805E-1,-1.6527867E-1,3.9088768E-1,-3.701337E-2,2.354744E0,-3.3964163E-1,-7.0995414E-1,-2.8524208E-1,6.6247845E-1,-2.4244973E-2,-7.805344E-1,9.8387975E-1,1.2450471E-1,-9.8665245E-2,8.2009226E-2,1.8975277E-1,8.153958E-1,1.2170548E0,-7.321179E-1,-1.21769145E-1,1.1508465E-2,7.229546E-1,5.4014686E-2,3.2559666E-1,-5.3200346E-1,-8.5372925E-2,1.3588696E0,4.2050305E-1,9.947834E-2,-1.2684127E0,-1.0430837E-1,5.4431535E-2,2.4389221E-1,2.1584533E-1,-2.2828443E-1,-7.1634465E-1,-9.89778E-2,-1.4991292E-1,2.810809E-1,1.3638926E-1,7.4637365E-1,-5.061962E-1,-2.3378374E-3,-2.8793323E-1,4.650376E-2],"categories":[],"categories_nodes":[],"categories_segments":[],"categories_sizes":[],"default_left":[0,0,0,0,0,0,0,0,0,0,0,0,0,0,0,0,0,0,0,0,0,0,0,0,0,0,0,0,0,0,0,0,0,0,0,0,0,0,0,0,0,0,0,0,0,0,0,0,0,0,0],"id":8,"left_children":[1,3,5,7,9,11,13,15,17,19,21,23,-1,25,27,29,-1,-1,31,-1,-1,-1,-1,33,35,-1,-1,37,-1,39,41,43,45,-1,-1,47,49,-1,-1,-1,-1,-1,-1,-1,-1,-1,-1,-1,-1,-1,-1],"loss_changes":[7.7318325E0,1.2565966E1,6.848798E0,6.7272515E0,7.7437754E0,1.2919676E1,2.0663846E0,1.8836514E1,2.7293802E1,3.6167538E-1,7.832012E-1,1.1888424E1,0E0,1.7174849E-1,4.4885635E-2,9.587877E0,0E0,0E0,8.924241E0,0E0,0E0,0E0,0E0,1.8911362E-1,4.9180584E0,0E0,0E0,9.623003E-2,0E0,1.4242744E1,7.4625897E0,1.3175606E1,3.9735374E0,0E0,0E0,4.211521E0,1.9235055E0,0E0,0E0,0E0,0E0,0E0,0E0,0E0,0E0,0E0,0E0,0E0,0E0,0E0,0E0],"parents":[2147483647,0,0,1,1,2,2,3,3,4,4,5,5,6,6,7,7,8,8,9,9,10,10,11,11,13,13,14,14,15,15,18,18,23,23,24,24,27,27,29,29,30,30,31,31,32,32,35,35,36,36],"right_children":[2,4,6,8,10,12,14,16,18,20,22,24,-1,26,28,30,-1,-1,32,-1,-1,-1,-1,34,36,-1,-1,38,-1,40,42,44,46,-1,-1,48,50,-1,-1,-1,-1,-1,-1,-1,-1,-1,-1,-1,-1,-1,-1],"split_conditions":[1.702125E1,1.6519167E1,6E-1,1.8089775E1,1E-1,4E-1,1.790875E1,1.7992796E1,1.8606289E1,1.6865004E1,1.6598333E1,1.0948973E1,-7.0995414E-1,1.769E1,1.9171251E1,2.7138638E2,-7.805344E-1,9.8387975E-1,2.965194E2,-9.8665245E-2,8.2009226E-2,1.8975277E-1,8.153958E-1,1.9308752E1,2.0672937E2,-1.21769145E-1,1.1508465E-2,7.0000005E-1,5.4014686E-2,2E-1,2.7515625E2,1.14775E1,2.4162947E1,4.2050305E-1,9.947834E-2,1E-1,1.7025417E1,5.4431535E-2,2.4389221E-1,2.1584533E-1,-2.2828443E-1,-7.1634465E-1,-9.89778E-2,-1.4991292E-1,2.810809E-1,1.3638926E-1,7.4637365E-1,-5.061962E-1,-2.3378374E-3,-2.8793323E-1,4.650376E-2],"split_indices":[0,0,1,2,1,1,0,2,2,0,0,2,0,0,0,3,0,0,3,0,0,0,0,0,3,0,0,1,0,1,3,0,2,0,0,1,0,0,0,0,0,0,0,0,0,0,0,0,0,0,0],"split_type":[0,0,0,0,0,0,0,0,0,0,0,0,0,0,0,0,0,0,0,0,0,0,0,0,0,0,0,0,0,0,0,0,0,0,0,0,0,0,0,0,0,0,0,0,0,0,0,0,0,0,0],"sum_hessian":[1.22E2,9.4E1,2.8E1,8.9E1,5E0,2E1,8E0,5.4E1,3.5E1,2E0,3E0,1.7E1,3E0,3E0,5E0,5.2E1,2E0,2E0,3.3E1,1E0,1E0,1E0,2E0,3E0,1.4E1,2E0,1E0,4E0,1E0,3.1E1,2.1E1,2.9E1,4E0,2E0,1E0,7E0,7E0,1E0,3E0,2.3E1,8E0,1E0,2E1,2.1E1,8E0,3E0,1E0,5E0,2E0,1E0,6E0],"tree_param":{"num_deleted":"0","num_feature":"5","num_nodes":"51","size_leaf_vector":"1"}},{"base_weights":[1.4316086E-2,-1.13225035E-1,3.382259E-1,7.720515E-2,-5.3084815E-1,1.9580808E-1,1.393012E0,-1.8884627E-2,1.9732656E0,-1.1498755E0,8.230063E-2,4.3640953E-1,-7.258271E-1,4.4753265E-1,6.3441753E-1,4.6576655E-1,-9.9840395E-2,-3.173518E-2,9.1970474E-1,-1.5619458E0,-9.575977E-2,5.5727804E-1,-2.0033684E0,8.019161E-1,-2.2859259E-1,-4.6187112E-1,2.6937294E-1,1.6689463E-1,3.449507E-2,-1.0590484E0,-9.175937E-3,-5.413545E-1,-7.422799E-1,-2.3587966E-1,6.970797E-2,-9.770543E-1,1.6383675E0,-8.055266E-1,-9.598918E-2,1.6410629E0,1.9501218E-1,5.3254205E-1,-8.2477266E-1,1.4590588E-1,-5.723505E-2,5.048695E-2,-5.800112E-1,4.9387076E-1,-3.13512E-2,-3.198252E-2,-1.8209462E-1,1.0013867E-2,-1.0102778E-1,-4.5946923E-1,2.6932412E-1,-1.002225E-1,7.054583E-1,2.4766113E-1,7.359755E-1,-3.801191E-2,2.3690887E-1,6.2529184E-2,2.0374183E-1,-4.053647E-1,4.562264E-2],"categories":[],"categories_nodes":[],"categories_segments":[],"categories_sizes":[],"default_left":[0,0,0,0,0,0,0,0,0,0,0,0,0,0,0,0,0,0,0,0,0,0,0,0,0,0,0,0,0,0,0,0,0,0,0,0,0,0,0,0,0,0,0,0,0,0,0,0,0,0,0,0,0,0,0,0,0,0,0,0,0,0,0,0,0],"id":9,"left_children":[1,3,5,7,9,11,13,15,17,19,21,23,25,27,-1,-1,29,-1,-1,31,33,35,37,39,41,-1,43,-1,-1,45,47,49,-1,51,-1,53,55,-1,-1,57,59,61,63,-1,-1,-1,-1,-1,-1,-1,-1,-1,-1,-1,-1,-1,-1,-1,-1,-1,-1,-1,-1,-1,-1],"loss_changes":[5.1196494E0,7.1189804E0,4.9849496E0,1.133317E1,1.07221985E1,7.412655E0,1.7830505E0,7.7880344E0,7.137867E0,5.9316063E0,1.597612E1,6.5029416E0,6.083579E0,4.4559717E-2,0E0,0E0,5.034315E0,0E0,0E0,7.971607E0,2.8468943E-1,2.3164532E1,2.5837011E0,8.337756E0,4.9769588E0,0E0,4.9216703E-1,0E0,0E0,5.6908116E0,8.693626E0,1.0647857E-1,0E0,1.1989188E-1,0E0,7.61253E0,1.2038923E1,0E0,0E0,2.6112785E0,2.2045891E0,9.601605E-2,3.2910156E0,0E0,0E0,0E0,0E0,0E0,0E0,0E0,0E0,0E0,0E0,0E0,0E0,0E0,0E0,0E0,0E0,0E0,0E0,0E0,0E0,0E0,0E0],"parents":[2147483647,0,0,1,1,2,2,3,3,4,4,5,5,6,6,7,7,8,8,9,9,10,10,11,11,12,12,13,13,16,16,19,19,20,20,21,21,22,22,23,23,24,24,26,26,29,29,30,30,31,31,33,33,35,35,36,36,39,39,40,40,41,41,42,42],"right_children":[2,4,6,8,10,12,14,16,18,20,22,24,26,28,-1,-1,30,-1,-1,32,34,36,38,40,42,-1,44,-1,-1,46,48,50,-1,52,-1,54,56,-1,-1,58,60,62,64,-1,-1,-1,-1,-1,-1,-1,-1,-1,-1,-1,-1,-1,-1,-1,-1,-1,-1,-1,-1,-1,-1],"split_conditions":[1.992235E1,1.6928614E1,2.965194E2,1.6801823E1,1E-1,2.7295977E1,2.4162947E1,3.40075E1,5.148333E0,1.14775E1,1.6696253E1,2.4070164E2,8.625415E0,1.0545832E0,6.3441753E-1,4.6576655E-1,4.056667E0,-3.173518E-2,9.1970474E-1,1.7423777E1,1.6865004E1,2.1770541E2,1.8577497E1,1.2389999E1,4E0,-4.6187112E-1,1.6598333E1,1.6689463E-1,3.449507E-2,2E0,4.8087497E0,-4.418333E0,-7.422799E-1,1.3056667E1,6.970797E-2,1.8000002E1,1.7533146E1,-8.055266E-1,-9.598918E-2,1.0483749E1,2.474329E1,2.0929594E1,2.4738707E1,1.4590588E-1,-5.723505E-2,5.048695E-2,-5.800112E-1,4.9387076E-1,-3.13512E-2,-3.198252E-2,-1.8209462E-1,1.0013867E-2,-1.0102778E-1,-4.5946923E-1,2.6932412E-1,-1.002225E-1,7.054583E-1,2.4766113E-1,7.359755E-1,-3.801191E-2,2.3690887E-1,6.2529184E-2,2.0374183E-1,-4.053647E-1,4.562264E-2],"split_indices":[2,2,3,2,1,2,2,3,0,0,0,3,0,0,0,0,0,0,0,2,0,3,0,0,4,0,0,0,0,4,0,0,0,0,0,1,2,0,0,0,2,2,2,0,0,0,0,0,0,0,0,0,0,0,0,0,0,0,0,0,0,0,0,0,0],"split_type":[0,0,0,0,0,0,0,0,0,0,0,0,0,0,0,0,0,0,0,0,0,0,0,0,0,0,0,0,0,0,0,0,0,0,0,0,0,0,0,0,0,0,0,0,0,0,0,0,0,0,0,0,0,0,0,0,0,0,0,0,0,0,0,0,0],"sum_hessian":[1.22E2,8.8E1,3.4E1,6.1E1,2.7E1,3.1E1,3E0,5.9E1,2E0,1.3E1,1.4E1,2.5E1,6E0,2E0,1E0,2E0,5.7E1,1E0,1E0,9E0,4E0,1.2E1,2E0,1.6E1,9E0,3E0,3E0,1E0,1E0,4E0,5.3E1,5E0,4E0,3E0,1E0,5E0,7E0,1E0,1E0,6E0,1E1,4E0,5E0,2E0,1E0,2E0,2E0,2E0,5.1E1,1E0,4E0,1E0,2E0,4E0,1E0,2E0,5E0,4E0,2E0,7E0,3E0,2E0,2E0,3E0,2E0],"tree_param":{"num_deleted":"0","num_feature":"5","num_nodes":"65","size_leaf_vector":"1"}},{"base_weights":[2.1194493E-2,5.8807675E-2,-8.782381E-1,3.8669795E-1,-6.1093424E-2,-4.4423145E-1,1.7041206E-2,8.6979166E-2,1.4446965E0,-2.455118E-1,3.6464852E-1,-8.15908E-2,8.925934E-2,6.1712915E-1,-5.8295655E-1,-2.4283886E-1,2.1682785E0,6.279616E-1,-3.8654417E-1,1.088857E0,-2.8730875E-1,3.2416806E-1,5.0427526E-1,-1.0694325E0,1.9720604E-1,-1.7464358E-1,6.536608E-2,9.317034E-1,1.5243588E-1,8.107771E-2,5.0841105E-1,-6.225617E-1,2.686054E-1,2.9356608E-1,2.8048701E0,-5.3429914E-1,3.1353188E-1,1.9576712E-1,-1.733539E-1,-4.660186E-1,-1.7056556E-1,6.1055377E-2,-9.803453E-2,-9.1020964E-2,-4.6490902E-1,1.7974126E-1,-1.5368591E-1,-1.629596E-1,3.7169117E-1,9.8022175E-1,2.1258946E-1,-1.8048191E-1,2.0815946E-2,2.4894524E-2,1.3187142E-1],"categories":[],"categories_nodes":[],"categories_segments":[],"categories_sizes":[],"default_left":[0,0,0,0,0,0,0,0,0,0,0,0,0,0,0,0,0,0,0,0,0,0,0,0,0,0,0,0,0,0,0,0,0,0,0,0,0,0,0,0,0,0,0,0,0,0,0,0,0,0,0,0,0,0,0],"id":10,"left_children":[1,3,5,7,9,-1,11,13,15,17,19,-1,-1,21,23,25,27,29,31,33,35,37,-1,39,-1,-1,-1,-1,-1,41,-1,43,45,47,49,51,53,-1,-1,-1,-1,-1,-1,-1,-1,-1,-1,-1,-1,-1,-1,-1,-1,-1,-1],"loss_changes":[4.212801E0,4.7020383E0,2.7224123E0,1.0021607E1,6.998813E0,0E0,3.2411295E-1,9.594085E0,9.074034E0,7.8803926E0,1.3060968E1,0E0,0E0,4.129829E0,7.9435654E0,5.958234E-1,6.203106E0,5.1130524E0,8.517069E0,1.6918068E1,2.3935475E0,4.227827E0,0E0,1.2984829E0,0E0,0E0,0E0,0E0,0E0,4.1607472E-1,0E0,1.1365935E1,4.1785774E0,8.583818E0,1.562954E0,4.886999E-1,1.088157E-1,0E0,0E0,0E0,0E0,0E0,0E0,0E0,0E0,0E0,0E0,0E0,0E0,0E0,0E0,0E0,0E0,0E0,0E0],"parents":[2147483647,0,0,1,1,2,2,3,3,4,4,6,6,7,7,8,8,9,9,10,10,13,13,14,14,15,15,16,16,17,17,18,18,19,19,20,20,21,21,23,23,29,29,31,31,32,32,33,33,34,34,35,35,36,36],"right_children":[2,4,6,8,10,-1,12,14,16,18,20,-1,-1,22,24,26,28,30,32,34,36,38,-1,40,-1,-1,-1,-1,-1,42,-1,44,46,48,50,52,54,-1,-1,-1,-1,-1,-1,-1,-1,-1,-1,-1,-1,-1,-1,-1,-1,-1,-1],"split_conditions":[1.937125E1,1.8596217E2,1.9479584E1,1.8293228E2,5E0,-4.4423145E-1,1.951292E1,3E0,7.737915E0,1.1368535E1,9.052501E0,-8.15908E-2,8.925934E-2,5.1E0,1.7746248E1,1.3275E0,1.2389999E1,3E0,6E-1,8.106666E0,2.2545315E1,1.54800005E1,5.0427526E-1,1E-1,1.9720604E-1,-1.7464358E-1,6.536608E-2,9.317034E-1,1.5243588E-1,1E-1,5.0841105E-1,4E0,5.400001E0,2.568747E2,2E-1,3.5765903E2,1.7273336E1,1.9576712E-1,-1.733539E-1,-4.660186E-1,-1.7056556E-1,6.1055377E-2,-9.803453E-2,-9.1020964E-2,-4.6490902E-1,1.7974126E-1,-1.5368591E-1,-1.629596E-1,3.7169117E-1,9.8022175E-1,2.1258946E-1,-1.8048191E-1,2.0815946E-2,2.4894524E-2,1.3187142E-1],"split_indices":[0,3,0,3,4,0,0,4,0,2,0,0,0,1,0,0,0,4,1,0,2,2,0,1,0,0,0,0,0,1,0,4,1,3,1,3,0,0,0,0,0,0,0,0,0,0,0,0,0,0,0,0,0,0,0],"split_type":[0,0,0,0,0,0,0,0,0,0,0,0,0,0,0,0,0,0,0,0,0,0,0,0,0,0,0,0,0,0,0,0,0,0,0,0,0,0,0,0,0,0,0,0,0,0,0,0,0,0,0,0,0,0,0],"sum_hessian":[1.22E2,1.18E2,4E0,3.1E1,8.7E1,2E0,2E0,2.5E1,6E0,6.1E1,2.6E1,1E0,1E0,1.4E1,1.1E1,2E0,4E0,8E0,5.3E1,1.2E1,1.4E1,1.2E1,2E0,8E0,3E0,1E0,1E0,2E0,2E0,6E0,2E0,3.9E1,1.4E1,9E0,3E0,1E1,4E0,9E0,3E0,3E0,5E0,5E0,1E0,3E1,9E0,1E1,4E0,5E0,4E0,2E0,1E0,9E0,1E0,2E0,2E0],"tree_param":{"num_deleted":"0","num_feature":"5","num_nodes":"55","size_leaf_vector":"1"}},{"base_weights":[3.0818272E-2,-3.4559643E-1,9.444702E-2,1.8198776E-1,-5.625125E-1,1.8263075E-1,-2.9387456E-1,-1.4149618E-1,1.2211407E-1,-8.088225E-1,-2.3584358E-1,1.4116393E-1,1.0077763E0,3.3852658E-1,-5.890841E-1,-6.6129476E-2,-3.5850236E-1,-2.360932E-2,-2.263874E-1,1.9144076E-1,-9.122329E-1,4.8350117E-1,2.6925468E-1,-1.4218226E-1,7.5830173E-1,-1.1668152E0,3.7569317E-1,-1.8299992E-1,1.01835966E-1,3.629436E-1,-4.4332776E-2,-3.1448594E-1,-7.561083E-2,8.721828E-3,1.12442784E-1,7.577562E-2,3.0337527E-1,-1.3704209E0,6.930456E-2,2.4008276E-2,1.2564623E-1,-7.055598E-2,-1.1793995E-2,6.008787E-2,-2.9030228E-2,-5.8532357E-3,2.1908261E-1,-1.2818266E-1,6.939265E-2,-2.8098107E-3,-4.690558E-1],"categories":[],"categories_nodes":[],"categories_segments":[],"categories_sizes":[],"default_left":[0,0,0,0,0,0,0,0,0,0,0,0,0,0,0,0,0,0,0,0,0,0,0,0,0,0,0,0,0,0,0,0,0,0,0,0,0,0,0,0,0,0,0,0,0,0,0,0,0,0,0],"id":11,"left_children":[1,3,5,7,9,11,13,-1,-1,15,17,19,21,23,25,-1,-1,27,-1,29,31,-1,33,-1,35,37,39,41,43,45,47,-1,-1,-1,-1,-1,-1,49,-1,-1,-1,-1,-1,-1,-1,-1,-1,-1,-1,-1,-1],"loss_changes":[2.978588E0,2.1623168E0,3.6834974E0,1.0746335E0,8.55248E-1,2.8345444E0,3.9332376E0,0E0,0E0,1.327178E0,7.529056E-1,4.6234007E0,1.3500056E0,2.7467656E0,8.24171E0,0E0,0E0,1.3860478E-1,0E0,3.291392E0,9.508276E-2,0E0,6.5160155E-2,0E0,3.841753E-1,2.878045E0,4.2990804E-2,1.3249613E-2,9.7597346E-2,6.617167E0,3.7932558E0,0E0,0E0,0E0,0E0,0E0,0E0,2.0878963E0,0E0,0E0,0E0,0E0,0E0,0E0,0E0,0E0,0E0,0E0,0E0,0E0,0E0],"parents":[2147483647,0,0,1,1,2,2,3,3,4,4,5,5,6,6,9,9,10,10,11,11,12,12,13,13,14,14,17,17,19,19,20,20,22,22,24,24,25,25,26,26,27,27,28,28,29,29,30,30,37,37],"right_children":[2,4,6,8,10,12,14,-1,-1,16,18,20,22,24,26,-1,-1,28,-1,30,32,-1,34,-1,36,38,40,42,44,46,48,-1,-1,-1,-1,-1,-1,50,-1,-1,-1,-1,-1,-1,-1,-1,-1,-1,-1,-1,-1],"split_conditions":[1E0,1.8536723E2,1.7523336E1,9.19939E0,8.73375E0,2.858545E1,1.35999E2,-1.4149618E-1,1.2211407E-1,4.9275002E0,1.6515001E1,2.7295977E1,7.1150002E0,1.7746248E1,6E-1,-6.6129476E-2,-3.5850236E-1,2.1394121E2,-2.263874E-1,2.5765036E2,7.887916E0,4.8350117E-1,8.704581E0,-1.4218226E-1,1.1521448E2,1.8466455E1,7.0000005E-1,1.3554584E1,2.2725668E1,2.1770541E2,1.4021525E1,-3.1448594E-1,-7.561083E-2,8.721828E-3,1.12442784E-1,7.577562E-2,3.0337527E-1,2E0,6.930456E-2,2.4008276E-2,1.2564623E-1,-7.055598E-2,-1.1793995E-2,6.008787E-2,-2.9030228E-2,-5.8532357E-3,2.1908261E-1,-1.2818266E-1,6.939265E-2,-2.8098107E-3,-4.690558E-1],"split_indices":[4,3,0,2,0,2,3,0,0,0,0,2,0,0,1,0,0,3,0,3,0,0,0,0,3,2,1,0,2,3,2,0,0,0,0,0,0,4,0,0,0,0,0,0,0,0,0,0,0,0,0],"split_type":[0,0,0,0,0,0,0,0,0,0,0,0,0,0,0,0,0,0,0,0,0,0,0,0,0,0,0,0,0,0,0,0,0,0,0,0,0,0,0,0,0,0,0,0,0,0,0,0,0,0,0],"sum_hessian":[1.22E2,1.7E1,1.05E2,5E0,1.2E1,8.6E1,1.9E1,1E0,4E0,6E0,6E0,8.3E1,3E0,6E0,1.3E1,3E0,3E0,5E0,1E0,8E1,3E0,1E0,2E0,2E0,4E0,8E0,5E0,2E0,3E0,4.6E1,3.4E1,2E0,1E0,1E0,1E0,2E0,2E0,7E0,1E0,1E0,4E0,1E0,1E0,2E0,1E0,2.3E1,2.3E1,1.4E1,2E1,1E0,6E0],"tree_param":{"num_deleted":"0","num_feature":"5","num_nodes":"51","size_leaf_vector":"1"}},{"base_weights":[1.8575959E-2,-2.8201163E-1,6.944389E-2,-3.7264563E-2,-5.8328736E-1,3.8200125E-2,8.566098E-1,8.532503E-2,-1.17783554E-1,-6.9895786E-1,3.3960916E-2,2.310256E-1,-1.0951763E-1,4.1097596E-1,2.2886658E-1,-1.2027169E-1,1.9621706E-1,-1.708343E-1,-3.157026E-1,4.6170235E-2,6.342752E-1,-5.806584E-1,1.1148705E-1,7.4134828E-3,9.557648E-2,9.280667E-2,5.739689E-3,-1.9393828E-2,-7.340985E-2,-8.4907365E-1,1.9009708E-1,2.7048746E-1,-9.039596E-1,6.575001E-1,-1.1063441E-1,3.814459E-2,-2.313385E-2,-3.8461223E-1,1.9736424E-1,-3.8280375E-2,1.8451537E-1,-1.5977316E-1,6.428716E-1,-4.5028642E-1,-8.057818E-2,-3.077183E-2,3.6451876E-1,-2.5125372E-1,8.840406E-2],"categories":[],"categories_nodes":[],"categories_segments":[],"categories_sizes":[],"default_left":[0,0,0,0,0,0,0,0,0,0,0,0,0,0,0,0,0,0,0,0,0,0,0,0,0,0,0,0,0,0,0,0,0,0,0,0,0,0,0,0,0,0,0,0,0,0,0,0,0],"id":12,"left_children":[1,3,5,7,9,11,13,15,-1,17,-1,19,21,-1,23,-1,25,27,-1,29,-1,31,33,-1,-1,-1,35,-1,-1,37,39,41,43,45,47,-1,-1,-1,-1,-1,-1,-1,-1,-1,-1,-1,-1,-1,-1],"loss_changes":[1.9002868E0,1.3055185E0,2.574244E0,5.126803E-1,7.2363114E-1,2.9591272E0,9.753785E-1,5.639365E-1,0E0,1.126637E0,0E0,1.5567978E1,6.2080703E0,0E0,4.707855E-2,0E0,1.7062697E-1,1.5555583E-2,0E0,5.5730906E0,0E0,5.4728627E0,5.045272E0,0E0,0E0,0E0,5.004094E-2,0E0,0E0,4.758199E0,5.0737486E0,1.0163297E1,4.907194E0,5.210089E0,9.085226E0,0E0,0E0,0E0,0E0,0E0,0E0,0E0,0E0,0E0,0E0,0E0,0E0,0E0,0E0],"parents":[2147483647,0,0,1,1,2,2,3,3,4,4,5,5,6,6,7,7,9,9,11,11,12,12,14,14,16,16,17,17,19,19,21,21,22,22,26,26,29,29,30,30,31,31,32,32,33,33,34,34],"right_children":[2,4,6,8,10,12,14,16,-1,18,-1,20,22,-1,24,-1,26,28,-1,30,-1,32,34,-1,-1,-1,36,-1,-1,38,40,42,44,46,48,-1,-1,-1,-1,-1,-1,-1,-1,-1,-1,-1,-1,-1,-1],"split_conditions":[1E0,2.2152615E2,2.858545E1,3.8E0,1.864369E1,1.61198E1,7.1150002E0,9.19939E0,-1.17783554E-1,4.9275002E0,3.3960916E-2,1.5275627E1,1.8089775E1,4.1097596E-1,8.704581E0,-1.2027169E-1,1.8536723E2,4.4775E0,-3.157026E-1,4.8691664E0,6.342752E-1,1.8484518E2,3E0,7.4134828E-3,9.557648E-2,9.280667E-2,8.94625E0,-1.9393828E-2,-7.340985E-2,1E-1,1.2641076E1,1.8293228E2,2.4423953E2,2.1770541E2,1E-1,3.814459E-2,-2.313385E-2,-3.8461223E-1,1.9736424E-1,-3.8280375E-2,1.8451537E-1,-1.5977316E-1,6.428716E-1,-4.5028642E-1,-8.057818E-2,-3.077183E-2,3.6451876E-1,-2.5125372E-1,8.840406E-2],"split_indices":[4,3,2,1,2,2,0,2,0,0,0,2,2,0,0,0,3,0,0,0,0,3,4,0,0,0,0,0,0,1,2,3,3,3,1,0,0,0,0,0,0,0,0,0,0,0,0,0,0],"split_type":[0,0,0,0,0,0,0,0,0,0,0,0,0,0,0,0,0,0,0,0,0,0,0,0,0,0,0,0,0,0,0,0,0,0,0,0,0,0,0,0,0,0,0,0,0,0,0,0,0],"sum_hessian":[1.22E2,1.7E1,1.05E2,1E1,7E0,1.02E2,3E0,8E0,2E0,6E0,1E0,4.4E1,5.8E1,1E0,2E0,1E0,7E0,3E0,3E0,4.1E1,3E0,1.8E1,4E1,1E0,1E0,4E0,3E0,2E0,1E0,5E0,3.6E1,5E0,1.3E1,1.1E1,2.9E1,1E0,2E0,4E0,1E0,2.1E1,1.5E1,4E0,1E0,6E0,7E0,5E0,6E0,1E1,1.9E1],"tree_param":{"num_deleted":"0","num_feature":"5","num_nodes":"49","size_leaf_vector":"1"}},{"base_weights":[1.8902237E-2,7.660167E-2,-1.7076494E-1,-2.4187082E-2,4.3291378E-1,6.0045466E-2,-3.9019102E-1,-1.6257581E-1,2.590934E-1,4.8567298E-1,2.926685E-1,-2.1569115E-1,3.282764E-1,-1.04468994E-1,-9.4074124E-1,6.147817E-1,-2.6043603E-1,-7.731844E-1,4.9253607E-1,1.364415E-1,3.397423E-1,-5.14124E-1,1.3592148E-1,-1.0223094E-1,4.7253582E-1,1.9591694E-1,-3.0410624E-1,-5.28352E-1,5.7981398E-2,3.1891623E-1,9.3754925E-2,-1.698164E-1,-8.362641E-1,-2.728598E-1,-4.1617242E-1,1.3397042E0,1.4406452E-1,2.9050964E-3,4.830551E-1,-1.2505532E-3,-1.8458442E-1,6.9564915E-1,1.3128853E-1,-1.2760349E-1,1.372706E-1,-3.9227954E-1,-5.5782E-2,-8.518606E-2,2.1262848E-1,-3.8196E-1,7.521534E-3,-1.7781401E-2,-9.728966E-2,6.583552E-1,-7.398434E-2,1.6991434E-1,-7.4200556E-2,2.0986806E-1,-3.1348825E-2,2.3814964E-1,3.3779147E-3,5.160084E-2,2.438591E-1,6.0684968E-2,-1.2254334E-2,-3.219023E-2,-1.3100971E-1,-3.153105E-2,6.429148E-3],"categories":[],"categories_nodes":[],"categories_segments":[],"categories_sizes":[],"default_left":[0,0,0,0,0,0,0,0,0,0,0,0,0,0,0,0,0,0,0,0,0,0,0,0,0,0,0,0,0,0,0,0,0,0,0,0,0,0,0,0,0,0,0,0,0,0,0,0,0,0,0,0,0,0,0,0,0,0,0,0,0,0,0,0,0,0,0,0,0],"id":13,"left_children":[1,3,5,7,9,11,13,15,17,-1,19,21,23,25,27,29,31,33,35,37,-1,39,-1,-1,41,43,45,-1,-1,-1,-1,47,49,51,-1,53,55,57,59,-1,-1,61,63,-1,-1,65,67,-1,-1,-1,-1,-1,-1,-1,-1,-1,-1,-1,-1,-1,-1,-1,-1,-1,-1,-1,-1,-1,-1],"loss_changes":[1.3591545E0,3.422135E0,1.4921582E0,2.9823346E0,3.0191336E0,1.1802226E0,2.2612865E0,4.0398016E0,6.405263E0,0E0,2.4694903E0,1.829581E0,9.3315554E-1,7.1922994E-1,4.9922867E0,4.8076153E-1,2.2583292E0,1.1576166E0,6.0064907E0,8.3173627E-1,0E0,3.0694997E-1,0E0,0E0,4.416269E-1,1.0073957E0,1.3138688E-1,0E0,0E0,0E0,0E0,4.3126683E0,2.2900128E0,2.4725527E-2,0E0,8.677235E0,2.784799E0,1.1206033E0,7.241777E-1,0E0,0E0,1.0570097E-1,5.714587E-2,0E0,0E0,1.6434908E-2,1.3677125E-2,0E0,0E0,0E0,0E0,0E0,0E0,0E0,0E0,0E0,0E0,0E0,0E0,0E0,0E0,0E0,0E0,0E0,0E0,0E0,0E0,0E0,0E0],"parents":[2147483647,0,0,1,1,2,2,3,3,4,4,5,5,6,6,7,7,8,8,10,10,11,11,12,12,13,13,14,14,15,15,16,16,17,17,18,18,19,19,21,21,24,24,25,25,26,26,31,31,32,32,33,33,35,35,36,36,37,37,38,38,41,41,42,42,45,45,46,46],"right_children":[2,4,6,8,10,12,14,16,18,-1,20,22,24,26,28,30,32,34,36,38,-1,40,-1,-1,42,44,46,-1,-1,-1,-1,48,50,52,-1,54,56,58,60,-1,-1,62,64,-1,-1,66,68,-1,-1,-1,-1,-1,-1,-1,-1,-1,-1,-1,-1,-1,-1,-1,-1,-1,-1,-1,-1,-1,-1],"split_conditions":[1.702125E1,1.3554584E1,4E0,5E0,1.3556668E1,1E-1,1.8537918E1,1.0545832E0,1.7543109E2,4.8567298E-1,4.6E0,3E0,9.19939E0,1E-1,6E-1,1.54800005E1,2.9755267E2,1.8913708E1,2.2918866E2,1.6519167E1,3.397423E-1,1.1521448E2,1.3592148E-1,-1.0223094E-1,1.6293728E1,1.14249855E2,3.6999998E0,-5.28352E-1,5.7981398E-2,3.1891623E-1,9.3754925E-2,2.8621512E2,2E-1,5.4858327E0,-4.1617242E-1,1.4000001E0,1.4494192E1,1.4518013E2,1.6696253E1,-1.2505532E-3,-1.8458442E-1,1.885875E1,1.937125E1,-1.2760349E-1,1.372706E-1,1.7273336E1,1.769E1,-8.518606E-2,2.1262848E-1,-3.8196E-1,7.521534E-3,-1.7781401E-2,-9.728966E-2,6.583552E-1,-7.398434E-2,1.6991434E-1,-7.4200556E-2,2.0986806E-1,-3.1348825E-2,2.3814964E-1,3.3779147E-3,5.160084E-2,2.438591E-1,6.0684968E-2,-1.2254334E-2,-3.219023E-2,-1.3100971E-1,-3.153105E-2,6.429148E-3],"split_indices":[0,0,4,4,0,1,0,0,3,0,1,4,2,1,1,2,3,2,3,0,0,3,0,0,2,3,1,0,0,0,0,3,1,0,0,1,2,3,0,0,0,0,0,0,0,0,0,0,0,0,0,0,0,0,0,0,0,0,0,0,0,0,0,0,0,0,0,0,0],"split_type":[0,0,0,0,0,0,0,0,0,0,0,0,0,0,0,0,0,0,0,0,0,0,0,0,0,0,0,0,0,0,0,0,0,0,0,0,0,0,0,0,0,0,0,0,0,0,0,0,0,0,0,0,0,0,0,0,0,0,0,0,0,0,0,0,0,0,0,0,0],"sum_hessian":[1.22E2,9.4E1,2.8E1,7.4E1,2E1,1.4E1,1.4E1,5E1,2.4E1,1E0,1.9E1,7E0,7E0,1E1,4E0,5E0,4.5E1,4E0,2E1,1.7E1,2E0,5E0,2E0,1E0,6E0,4E0,6E0,2E0,2E0,1E0,4E0,4E1,5E0,3E0,1E0,5E0,1.5E1,1.3E1,4E0,1E0,4E0,3E0,3E0,1E0,3E0,4E0,2E0,3.6E1,4E0,3E0,2E0,1E0,2E0,3E0,2E0,7E0,8E0,1E0,1.2E1,2E0,2E0,1E0,2E0,2E0,1E0,1E0,3E0,1E0,1E0],"tree_param":{"num_deleted":"0","num_feature":"5","num_nodes":"69","size_leaf_vector":"1"}},{"base_weights":[2.2196762E-2,8.88628E-2,-1.1330269E-1,3.9711165E-1,-1.1233475E-1,-1.0216362E0,7.160124E-2,-9.583017E-2,9.2685175E-1,-4.1103327E-1,2.3861326E-2,-1.6832514E0,4.2160097E-1,3.815352E-1,-3.436198E-2,2.9623708E-1,-6.229439E-1,1.35001E0,-3.4139156E-3,4.0917248E-1,-6.600538E-2,-5.877712E-1,-8.689628E-2,2.4026214E-1,-5.0541688E-2,3.6807377E-2,2.4097295E-1,-2.4361302E-1,2.921498E-1,3.4134495E-1,-1.6158223E-1,-1.1082973E0,1.3948393E-1,6.379361E-1,7.3099667E-1,1.4579849E-1,-1.124214E-1,-1.2212057E-1,3.6045945E-1,1.8208504E-1,-1.0343714E-1,-3.3032048E-1,1.7155595E-1,1.16950415E-1,3.0662155E-1,5.9942868E-2,-1.2551378E-1,-9.170365E-2,-3.6975968E-1,6.273766E-2,-1.0416127E-2,3.167658E-1,-1.2318268E-1,8.05378E-3,6.4845465E-2,7.708448E-2,-7.2350614E-2,9.3092114E-2,-4.962044E-2,-1.514799E-1,-1.0105624E-2,-1.3478909E-2,6.970763E-2],"categories":[],"categories_nodes":[],"categories_segments":[],"categories_sizes":[],"default_left":[0,0,0,0,0,0,0,0,0,0,0,0,0,0,0,0,0,0,0,0,0,0,0,0,0,0,0,0,0,0,0,0,0,0,0,0,0,0,0,0,0,0,0,0,0,0,0,0,0,0,0,0,0,0,0,0,0,0,0,0,0,0,0],"id":14,"left_children":[1,3,5,7,9,11,13,15,17,-1,19,21,23,25,27,29,31,33,35,-1,37,-1,-1,-1,-1,39,-1,41,43,-1,45,47,49,51,-1,53,-1,55,-1,57,-1,59,-1,61,-1,-1,-1,-1,-1,-1,-1,-1,-1,-1,-1,-1,-1,-1,-1,-1,-1,-1,-1],"loss_changes":[1.1211535E0,5.192179E0,6.9592834E0,8.706144E0,8.769205E0,7.3937335E0,1.1625663E0,3.9044917E0,6.303005E0,0E0,5.750028E0,1.3555622E0,8.063212E-1,1.278805E0,1.9158907E0,4.422055E0,3.1149654E0,6.95706E0,3.8707322E-1,0E0,3.3474946E0,0E0,0E0,0E0,0E0,3.9540702E-1,0E0,1.3909137E0,1.2871692E0,0E0,8.2603073E-1,1.21807575E-1,5.5788405E-2,3.9394705E0,0E0,3.604059E-2,0E0,2.047575E0,0E0,2.7410227E-1,0E0,8.1173027E-1,0E0,1.9726297E-1,0E0,0E0,0E0,0E0,0E0,0E0,0E0,0E0,0E0,0E0,0E0,0E0,0E0,0E0,0E0,0E0,0E0,0E0,0E0],"parents":[2147483647,0,0,1,1,2,2,3,3,4,4,5,5,6,6,7,7,8,8,10,10,11,11,12,12,13,13,14,14,15,15,16,16,17,17,18,18,20,20,25,25,27,27,28,28,30,30,31,31,32,32,33,33,35,35,37,37,39,39,41,41,43,43],"right_children":[2,4,6,8,10,12,14,16,18,-1,20,22,24,26,28,30,32,34,36,-1,38,-1,-1,-1,-1,40,-1,42,44,-1,46,48,50,52,-1,54,-1,56,-1,58,-1,60,-1,62,-1,-1,-1,-1,-1,-1,-1,-1,-1,-1,-1,-1,-1,-1,-1,-1,-1,-1,-1],"split_conditions":[4E-1,2.3079347E2,6E-1,1.7653183E2,2.3909608E2,2.2612321E2,8.494166E0,1.5043593E2,1.3556668E1,-4.1103327E-1,2.4250787E2,1.8577497E1,1.6696253E1,4.9275002E0,1.51170845E1,2E0,1E-1,4E0,1.7423336E1,4.0917248E-1,2.856334E1,-5.877712E-1,-8.689628E-2,2.4026214E-1,-5.0541688E-2,2.636616E1,2.4097295E-1,3.25E1,1.0500001E1,3.4134495E-1,1.0948973E1,8.654986E0,1.8415E1,2.0880001E1,7.3099667E-1,1.6519167E1,-1.124214E-1,4.8087497E0,3.6045945E-1,4.5420833E0,-1.0343714E-1,1.30129175E1,1.7155595E-1,1.790875E1,3.0662155E-1,5.9942868E-2,-1.2551378E-1,-9.170365E-2,-3.6975968E-1,6.273766E-2,-1.0416127E-2,3.167658E-1,-1.2318268E-1,8.05378E-3,6.4845465E-2,7.708448E-2,-7.2350614E-2,9.3092114E-2,-4.962044E-2,-1.514799E-1,-1.0105624E-2,-1.3478909E-2,6.970763E-2],"split_indices":[1,3,1,3,3,3,0,3,0,0,3,0,0,0,0,4,1,4,0,0,2,0,0,0,0,2,0,1,1,0,2,2,0,2,0,0,0,0,0,0,0,0,0,0,0,0,0,0,0,0,0,0,0,0,0,0,0,0,0,0,0,0,0],"split_type":[0,0,0,0,0,0,0,0,0,0,0,0,0,0,0,0,0,0,0,0,0,0,0,0,0,0,0,0,0,0,0,0,0,0,0,0,0,0,0,0,0,0,0,0,0,0,0,0,0,0,0,0,0,0,0,0,0,0,0,0,0,0,0],"sum_hessian":[1.22E2,8.2E1,4E1,3.2E1,5E1,6E0,3.4E1,1.7E1,1.5E1,4E0,4.6E1,4E0,2E0,8E0,2.6E1,1E1,7E0,1E1,5E0,2E0,4.4E1,3E0,1E0,1E0,1E0,5E0,3E0,1.6E1,1E1,3E0,7E0,4E0,3E0,7E0,3E0,4E0,1E0,4.3E1,1E0,4E0,1E0,1.5E1,1E0,9E0,1E0,3E0,4E0,1E0,3E0,2E0,1E0,5E0,2E0,2E0,2E0,1E1,3.3E1,3E0,1E0,9E0,6E0,4E0,5E0],"tree_param":{"num_deleted":"0","num_feature":"5","num_nodes":"63","size_leaf_vector":"1"}},{"base_weights":[2.5162986E-2,1.9927892E-1,-1.0580681E-2,3.7304002E-1,-2.0153467E-1,-4.4281244E-1,3.3052616E-2,6.427913E-2,7.1672684E-1,-3.1186375E-1,6.906596E-2,7.6711886E-2,-2.4373798E-1,4.9839783E-1,-2.3584652E-1,9.977269E-2,3.3542103E-1,-1.0235916E-1,-2.4779463E-2,-1.4340006E-1,1.614945E-1,-5.6348205E-1,1.5650354E-1,1.7211476E-1,4.086657E-2,-6.305599E-2,-1.16285525E-1,3.559465E-3,-3.666869E-1,1.1125576E0,9.648225E-2,-7.9350665E-2,-1.0277758E0,7.486725E-3,1.7426889E-1,-2.367964E-2,-2.3141385E-3,-2.9513547E-1,4.3331746E-2,1.5651656E-2,4.3458864E-1,-7.020147E-2,4.7454614E-2,-9.5558174E-2,1.8022586E-2,-8.963585E-2,-3.513531E-1,1.3340236E-2,5.7400707E-2],"categories":[],"categories_nodes":[],"categories_segments":[],"categories_sizes":[],"default_left":[0,0,0,0,0,0,0,0,0,0,0,0,0,0,0,0,0,0,0,0,0,0,0,0,0,0,0,0,0,0,0,0,0,0,0,0,0,0,0,0,0,0,0,0,0,0,0,0,0],"id":15,"left_children":[1,3,5,7,9,-1,11,13,15,17,-1,19,21,23,25,-1,-1,-1,-1,27,29,31,33,-1,-1,35,-1,37,-1,39,41,43,45,-1,47,-1,-1,-1,-1,-1,-1,-1,-1,-1,-1,-1,-1,-1,-1],"loss_changes":[7.676042E-1,1.5377426E0,6.6349044E0,1.545685E0,4.052427E-1,0E0,1.2392298E0,1.2901567E0,7.0739245E-1,1.2168586E-2,0E0,1.6653847E0,1.8798349E0,3.0960917E-2,1.3290682E-1,0E0,0E0,0E0,0E0,3.9681785E0,3.849826E0,1.7166791E0,1.2009919E-2,0E0,0E0,2.9056128E-3,0E0,3.3413224E0,0E0,1.3498816E0,1.2808654E0,1.858727E-1,6.8220615E-2,0E0,4.7835708E-3,0E0,0E0,0E0,0E0,0E0,0E0,0E0,0E0,0E0,0E0,0E0,0E0,0E0,0E0],"parents":[2147483647,0,0,1,1,2,2,3,3,4,4,6,6,7,7,8,8,9,9,11,11,12,12,13,13,14,14,19,19,20,20,21,21,22,22,25,25,27,27,29,29,30,30,31,31,32,32,34,34],"right_children":[2,4,6,8,10,-1,12,14,16,18,-1,20,22,24,26,-1,-1,-1,-1,28,30,32,34,-1,-1,36,-1,38,-1,40,42,44,46,-1,48,-1,-1,-1,-1,-1,-1,-1,-1,-1,-1,-1,-1,-1,-1],"split_conditions":[1.1368535E1,2E-1,1.1885453E1,2.1756554E2,1.0661107E1,-4.4281244E-1,1.7523336E1,1.35999E2,3E0,1.4E0,6.906596E-2,6.3608336E0,6E-1,1.9308752E1,8.94625E0,9.977269E-2,3.3542103E-1,-1.0235916E-1,-2.4779463E-2,5.87125E0,7.1150002E0,4E0,1.790875E1,1.7211476E-1,4.086657E-2,7.737915E0,-1.16285525E-1,1.3830749E1,-3.666869E-1,6.83375E0,1E0,1.8265003E1,1.7746248E1,7.486725E-3,7.0000005E-1,-2.367964E-2,-2.3141385E-3,-2.9513547E-1,4.3331746E-2,1.5651656E-2,4.3458864E-1,-7.020147E-2,4.7454614E-2,-9.5558174E-2,1.8022586E-2,-8.963585E-2,-3.513531E-1,1.3340236E-2,5.7400707E-2],"split_indices":[2,1,2,3,2,0,0,3,4,1,0,0,1,0,0,0,0,0,0,0,0,4,0,0,0,0,0,2,0,0,4,0,0,0,1,0,0,0,0,0,0,0,0,0,0,0,0,0,0],"split_type":[0,0,0,0,0,0,0,0,0,0,0,0,0,0,0,0,0,0,0,0,0,0,0,0,0,0,0,0,0,0,0,0,0,0,0,0,0,0,0,0,0,0,0,0,0,0,0,0,0],"sum_hessian":[1.22E2,2E1,1.02E2,1.4E1,6E0,2E0,1E2,8E0,6E0,5E0,1E0,8.7E1,1.3E1,3E0,5E0,4E0,2E0,4E0,1E0,2.4E1,6.3E1,7E0,6E0,2E0,1E0,3E0,2E0,2.2E1,2E0,3E0,6E1,4E0,3E0,1E0,5E0,2E0,1E0,2E0,2E1,1E0,2E0,9E0,5.1E1,1E0,3E0,1E0,2E0,1E0,4E0],"tree_param":{"num_deleted":"0","num_feature":"5","num_nodes":"49","size_leaf_vector":"1"}},{"base_weights":[1.2522273E-2,9.922416E-2,-5.454093E-2,-1.750473E-2,6.145817E-1,-2.878207E-1,8.1454955E-2,-4.4940636E-1,1.1873592E-1,-1.3716476E-1,8.1966394E-1,1.4788151E-1,-4.561258E-1,4.2109224E-1,1.9504352E-2,-2.1472564E-1,-4.1943207E-1,2.0939393E-1,-1.2884851E-1,2.1337739E-1,-2.7510154E-1,3.7512943E-1,7.628858E-2,-2.5237438E-1,4.424509E-1,-1.0570695E0,-9.745407E-2,-3.43718E-1,1.0976815E-1,2.6728392E-2,-2.3610836E-1,9.044427E-2,5.9081876E-1,7.38636E-2,-1.9787878E-1,-9.600342E-2,3.1505904E-1,2.1566391E-2,-1.8744527E-1,-1.3128364E0,-2.7843508E-1,-2.5625384E-1,5.172965E-1,-2.2852352E-2,-2.9334956E-1,3.4767076E-1,1.3969E-2,-3.353472E-2,8.8452145E-2,-9.757223E-2,8.35203E-2,3.002789E-1,-4.5880582E-2,5.870619E-2,-8.146064E-2,1.1698237E-1,2.4794199E-2,-3.2463457E-2,4.3246653E-2,-8.122444E-2,-4.5170143E-1,-1.3090268E-1,5.6068897E-3,-6.806317E-3,-1.1594374E-1,3.567896E-2,1.9710447E-1,5.058701E-2,-1.0030833E-1,1.15612514E-1,-1.9006595E-2],"categories":[],"categories_nodes":[],"categories_segments":[],"categories_sizes":[],"default_left":[0,0,0,0,0,0,0,0,0,0,0,0,0,0,0,0,0,0,0,0,0,0,0,0,0,0,0,0,0,0,0,0,0,0,0,0,0,0,0,0,0,0,0,0,0,0,0,0,0,0,0,0,0,0,0,0,0,0,0,0,0,0,0,0,0,0,0,0,0,0,0],"id":16,"left_children":[1,3,5,7,9,11,13,15,17,19,21,23,25,-1,27,29,-1,31,33,-1,-1,-1,35,37,-1,39,41,43,45,47,-1,49,51,-1,53,-1,55,57,-1,59,61,63,65,67,-1,-1,69,-1,-1,-1,-1,-1,-1,-1,-1,-1,-1,-1,-1,-1,-1,-1,-1,-1,-1,-1,-1,-1,-1,-1,-1],"loss_changes":[7.20596E-1,3.259242E0,2.2442007E0,2.7012756E0,1.6541276E0,1.9740558E0,3.6585822E0,2.1488495E0,8.1257296E-1,2.6371298E0,2.466382E0,4.621183E0,3.9922736E0,0E0,1.4803059E0,1.4028826E0,0E0,1.126193E0,3.0762547E-1,0E0,0E0,0E0,4.7932136E-1,7.276666E-1,0E0,1.0285025E0,1.4016485E0,1.8088425E0,3.6020339E0,3.3004934E-1,0E0,1.7312942E0,1.9832067E0,0E0,3.1403494E-1,0E0,1.9982874E-2,9.5146075E-2,0E0,5.970974E-1,1.4890943E-1,3.2580984E-1,8.8838756E-2,4.7390556E-1,0E0,0E0,1.000852E0,0E0,0E0,0E0,0E0,0E0,0E0,0E0,0E0,0E0,0E0,0E0,0E0,0E0,0E0,0E0,0E0,0E0,0E0,0E0,0E0,0E0,0E0,0E0,0E0],"parents":[2147483647,0,0,1,1,2,2,3,3,4,4,5,5,6,6,7,7,8,8,9,9,10,10,11,11,12,12,14,14,15,15,17,17,18,18,22,22,23,23,25,25,26,26,27,27,28,28,29,29,31,31,32,32,34,34,36,36,37,37,39,39,40,40,41,41,42,42,43,43,46,46],"right_children":[2,4,6,8,10,12,14,16,18,20,22,24,26,-1,28,30,-1,32,34,-1,-1,-1,36,38,-1,40,42,44,46,48,-1,50,52,-1,54,-1,56,58,-1,60,62,64,66,68,-1,-1,70,-1,-1,-1,-1,-1,-1,-1,-1,-1,-1,-1,-1,-1,-1,-1,-1,-1,-1,-1,-1,-1,-1,-1,-1],"split_conditions":[1.61198E1,1.4428097E1,1.8466455E1,7.8025002E0,4.056667E0,1.8484518E2,1.8606289E1,7.737915E0,4E-1,7.541677E-2,1.6996248E1,1.8390105E2,2.3832178E2,4.2109224E-1,6.3608336E0,2.9360443E2,-4.1943207E-1,1.2906138E1,8.494166E0,2.1337739E-1,-2.7510154E-1,3.7512943E-1,1.7025417E1,5E0,4.424509E-1,5E0,1.757744E1,5.012917E0,7.1150002E0,2.5826144E2,-2.3610836E-1,1.3112918E1,1.6131666E1,7.38636E-2,3.40075E1,-9.600342E-2,1.7523336E1,1.7653183E2,-1.8744527E-1,1.6293728E1,9.631665E0,1.6954432E1,7.900417E0,6E0,-2.9334956E-1,3.4767076E-1,1.9211996E1,-3.353472E-2,8.8452145E-2,-9.757223E-2,8.35203E-2,3.002789E-1,-4.5880582E-2,5.870619E-2,-8.146064E-2,1.1698237E-1,2.4794199E-2,-3.2463457E-2,4.3246653E-2,-8.122444E-2,-4.5170143E-1,-1.3090268E-1,5.6068897E-3,-6.806317E-3,-1.1594374E-1,3.567896E-2,1.9710447E-1,5.058701E-2,-1.0030833E-1,1.15612514E-1,-1.9006595E-2],"split_indices":[2,2,2,0,0,3,2,0,1,0,0,3,3,0,0,3,0,2,0,0,0,0,0,1,0,4,2,0,0,3,0,0,0,0,3,0,0,3,0,2,0,2,0,4,0,0,2,0,0,0,0,0,0,0,0,0,0,0,0,0,0,0,0,0,0,0,0,0,0,0,0],"split_type":[0,0,0,0,0,0,0,0,0,0,0,0,0,0,0,0,0,0,0,0,0,0,0,0,0,0,0,0,0,0,0,0,0,0,0,0,0,0,0,0,0,0,0,0,0,0,0,0,0,0,0,0,0,0,0,0,0,0,0,0,0,0,0,0,0,0,0,0,0,0,0],"sum_hessian":[1.22E2,5.3E1,6.9E1,4.4E1,9E0,2.5E1,4.4E1,1E1,3.4E1,2E0,7E0,7E0,1.8E1,1E0,4.3E1,9E0,1E0,2.5E1,9E0,1E0,1E0,4E0,3E0,6E0,1E0,6E0,1.2E1,8E0,3.5E1,7E0,2E0,2E1,5E0,1E0,8E0,1E0,2E0,4E0,2E0,4E0,2E0,1E1,2E0,6E0,2E0,2E0,3.3E1,5E0,2E0,6E0,1.4E1,3E0,2E0,1E0,7E0,1E0,1E0,2E0,2E0,1E0,3E0,1E0,1E0,4E0,6E0,1E0,1E0,4E0,2E0,5E0,2.8E1],"tree_param":{"num_deleted":"0","num_feature":"5","num_nodes":"71","size_leaf_vector":"1"}},{"base_weights":[1.112261E-2,-8.788056E-2,4.9931467E-2,3.0811627E-3,-3.177498E-1,4.0427792E-1,1.4752161E-2,-7.53102E-2,4.571348E-1,-2.2070546E-1,6.7222756E-1,-4.781727E-1,5.2970305E-2,1.5605047E-3,-5.561422E-1,2.7813646E-1,-1.6523011E-1,1.6352196E-1,3.8879833E-1,-2.3004527E-1,-1.4214587E-1,6.8141365E-1,2.71263E-2,-5.408325E-2,2.0889817E-1,-2.3467965E-1,1.833415E-2,-7.1522E-2,-2.8315545E-3,-6.690846E-2,9.477497E-2,-5.2099515E-2,-7.1382527E-3,1.26688965E-2,2.9396725E-1,-3.3132035E-2,2.346625E-1,1.8137084E-1,-3.2015253E-2,2.1629836E-2,-8.920705E-2,2.1587496E-1,9.031083E-3],"categories":[],"categories_nodes":[],"categories_segments":[],"categories_sizes":[],"default_left":[0,0,0,0,0,0,0,0,0,0,0,0,0,0,0,0,0,0,0,0,0,0,0,0,0,0,0,0,0,0,0,0,0,0,0,0,0,0,0,0,0,0,0],"id":17,"left_children":[1,3,5,7,-1,9,11,13,15,-1,17,19,21,23,25,-1,27,29,-1,-1,31,33,35,37,-1,-1,-1,-1,-1,-1,-1,-1,-1,-1,-1,39,41,-1,-1,-1,-1,-1,-1],"loss_changes":[4.769786E-1,3.0955062E0,1.10348E0,1.209025E0,0E0,2.938169E0,1.5701001E0,1.0727628E0,1.6157044E0,0E0,2.009272E0,4.729545E-1,1.2321107E0,1.0428048E0,6.0611105E-1,0E0,3.1950668E-2,3.6499903E-1,0E0,0E0,1.0789178E-2,5.30965E-1,9.457089E-1,9.3121046E-1,0E0,0E0,0E0,0E0,0E0,0E0,0E0,0E0,0E0,0E0,0E0,1.6619208E0,1.66465E0,0E0,0E0,0E0,0E0,0E0,0E0],"parents":[2147483647,0,0,1,1,2,2,3,3,5,5,6,6,7,7,8,8,10,10,11,11,12,12,13,13,14,14,16,16,17,17,20,20,21,21,22,22,23,23,35,35,36,36],"right_children":[2,4,6,8,-1,10,12,14,16,-1,18,20,22,24,26,-1,28,30,-1,-1,32,34,36,38,-1,-1,-1,-1,-1,-1,-1,-1,-1,-1,-1,40,42,-1,-1,-1,-1,-1,-1],"split_conditions":[7.8025002E0,7.737915E0,8.494166E0,6.83375E0,-3.177498E-1,1E-1,8.867084E0,5.87125E0,7.1150002E0,-2.2070546E-1,1.8289274E1,1.8030575E1,9.052501E0,5.579584E0,6.3608336E0,2.7813646E-1,7.4774995E0,1.0009036E1,3.8879833E-1,-2.3004527E-1,2.8621512E2,8.94625E0,2.2545315E1,2.6718569E1,2.0889817E-1,-2.3467965E-1,1.833415E-2,-7.1522E-2,-2.8315545E-3,-6.690846E-2,9.477497E-2,-5.2099515E-2,-7.1382527E-3,1.26688965E-2,2.9396725E-1,5E0,1.2389999E1,1.8137084E-1,-3.2015253E-2,2.1629836E-2,-8.920705E-2,2.1587496E-1,9.031083E-3],"split_indices":[0,0,0,0,0,1,0,0,0,0,2,2,0,0,0,0,0,2,0,0,3,0,2,3,0,0,0,0,0,0,0,0,0,0,0,4,0,0,0,0,0,0,0],"split_type":[0,0,0,0,0,0,0,0,0,0,0,0,0,0,0,0,0,0,0,0,0,0,0,0,0,0,0,0,0,0,0,0,0,0,0,0,0,0,0,0,0,0,0],"sum_hessian":[1.22E2,3.4E1,8.8E1,3.2E1,2E0,7E0,8.1E1,2.8E1,4E0,1E0,6E0,5E0,7.6E1,2.5E1,3E0,2E0,2E0,4E0,2E0,2E0,3E0,2E0,7.4E1,2.4E1,1E0,2E0,1E0,1E0,1E0,1E0,3E0,2E0,1E0,1E0,1E0,5.8E1,1.6E1,1E0,2.3E1,4.2E1,1.6E1,4E0,1.2E1],"tree_param":{"num_deleted":"0","num_feature":"5","num_nodes":"43","size_leaf_vector":"1"}},{"base_weights":[1.1026185E-2,1.6236816E-1,-1.9936997E-2,2.602975E-1,-7.067592E-2,-2.9104683E-1,8.484727E-3,5.9943836E-2,4.8070976E-1,-1.6720419E-1,1.13763176E-1,3.684797E-2,-1.7040457E-1,3.509698E-1,-1.4406411E-1,2.6745683E-1,1.3808003E-1,-7.093716E-2,-4.221646E-2,4.665585E-2,4.5375824E-3,1.4521272E-1,-2.766783E-2,-3.9024496E-1,1.051851E-1,1.2774526E-1,1.8964006E-2,-3.9322376E-3,-8.486557E-2,1.5910506E-2,7.173901E-2,-1.6991043E-2,-2.006364E-3,7.7290547E-1,-2.2900688E-2,-3.7374032E-1,7.520967E-2,-5.264158E-2,-7.1468794E-1,5.97024E-3,1.1608235E-1,-8.751965E-3,1.0768604E-2,4.527533E-2,3.6050007E-1,-1.7406535E-1,3.904075E-2,-6.372899E-2,-2.5218946E-1,1.9792433E-1,7.86531E-5,-7.228525E-2,1.640203E-2,-2.434629E-1,-6.361842E-2,9.115648E-3,3.814339E-2],"categories":[],"categories_nodes":[],"categories_segments":[],"categories_sizes":[],"default_left":[0,0,0,0,0,0,0,0,0,0,0,0,0,0,0,0,0,0,0,0,0,0,0,0,0,0,0,0,0,0,0,0,0,0,0,0,0,0,0,0,0,0,0,0,0,0,0,0,0,0,0,0,0,0,0,0,0],"id":18,"left_children":[1,3,5,7,9,-1,11,13,15,17,19,21,23,25,27,-1,29,-1,31,-1,-1,33,35,37,39,-1,-1,41,-1,-1,-1,-1,-1,43,45,47,49,51,53,-1,55,-1,-1,-1,-1,-1,-1,-1,-1,-1,-1,-1,-1,-1,-1,-1,-1],"loss_changes":[5.7961875E-1,4.976558E-1,2.7899384E0,6.3359034E-1,1.436468E-1,0E0,5.18741E-1,5.849066E-1,8.6219573E-1,3.329648E-2,1.0003991E-2,6.192467E-1,8.892484E-1,5.923426E-2,1.15607224E-1,0E0,3.0286714E-2,0E0,1.158223E-3,0E0,0E0,3.499978E0,2.021881E0,8.38642E-1,4.1954145E-3,0E0,0E0,5.068331E-3,0E0,0E0,0E0,0E0,0E0,1.6854372E0,2.3783338E0,8.005115E-1,1.9274522E0,1.1421566E-1,2.263093E-2,0E0,1.8246621E-3,0E0,0E0,0E0,0E0,0E0,0E0,0E0,0E0,0E0,0E0,0E0,0E0,0E0,0E0,0E0,0E0],"parents":[2147483647,0,0,1,1,2,2,3,3,4,4,6,6,7,7,8,8,9,9,10,10,11,11,12,12,13,13,14,14,16,16,18,18,21,21,22,22,23,23,24,24,27,27,33,33,34,34,35,35,36,36,37,37,38,38,40,40],"right_children":[2,4,6,8,10,-1,12,14,16,18,20,22,24,26,28,-1,30,-1,32,-1,-1,34,36,38,40,-1,-1,42,-1,-1,-1,-1,-1,44,46,48,50,52,54,-1,56,-1,-1,-1,-1,-1,-1,-1,-1,-1,-1,-1,-1,-1,-1,-1,-1],"split_conditions":[1.1368535E1,2E-1,1.1885453E1,2.1756554E2,1.4E0,-2.9104683E-1,1.7523336E1,1.35999E2,1.3556668E1,5E-1,1.3129581E1,1.6928614E1,6E-1,1.9308752E1,8.94625E0,2.6745683E-1,1E-1,-7.093716E-2,4.9275002E0,4.665585E-2,4.5375824E-3,1.8484518E2,1.8089775E1,4E0,1.790875E1,1.2774526E-1,1.8964006E-2,7.737915E0,-8.486557E-2,1.5910506E-2,7.173901E-2,-1.6991043E-2,-2.006364E-3,1.4178927E1,2.3909608E2,1.7992796E1,1.8606289E1,1.8265003E1,1.8577497E1,5.97024E-3,7.0000005E-1,-8.751965E-3,1.0768604E-2,4.527533E-2,3.6050007E-1,-1.7406535E-1,3.904075E-2,-6.372899E-2,-2.5218946E-1,1.9792433E-1,7.86531E-5,-7.228525E-2,1.640203E-2,-2.434629E-1,-6.361842E-2,9.115648E-3,3.814339E-2],"split_indices":[2,1,2,3,1,0,0,3,0,1,0,2,1,0,0,0,1,0,0,0,0,3,2,4,0,0,0,0,0,0,0,0,0,2,3,2,2,0,0,0,1,0,0,0,0,0,0,0,0,0,0,0,0,0,0,0,0],"split_type":[0,0,0,0,0,0,0,0,0,0,0,0,0,0,0,0,0,0,0,0,0,0,0,0,0,0,0,0,0,0,0,0,0,0,0,0,0,0,0,0,0,0,0,0,0,0,0,0,0,0,0,0,0,0,0,0,0],"sum_hessian":[1.22E2,2E1,1.02E2,1.4E1,6E0,2E0,1E2,8E0,6E0,4E0,2E0,8.7E1,1.3E1,3E0,5E0,2E0,4E0,2E0,2E0,1E0,1E0,3.2E1,5.5E1,7E0,6E0,2E0,1E0,3E0,2E0,3E0,1E0,1E0,1E0,6E0,2.6E1,1.2E1,4.3E1,4E0,3E0,1E0,5E0,2E0,1E0,3E0,3E0,5E0,2.1E1,1E1,2E0,4E0,3.9E1,1E0,3E0,2E0,1E0,1E0,4E0],"tree_param":{"num_deleted":"0","num_feature":"5","num_nodes":"57","size_leaf_vector":"1"}},{"base_weights":[7.1679344E-3,1.9183384E-1,-1.0871826E-2,-4.6010155E-2,4.8644868E-1,-1.7999042E-2,1.1810646E-1,-8.5604094E-2,1.0594941E-2,-3.4524918E-2,2.5358182E-1,-1.4685775E-3,-4.6395445E-1,-1.1343336E-1,3.856945E-3,-1.4442445E-2,-1.0937691E-3,-1.6254432E-2,1.5791494E-1,-1.5883876E-1,-4.0114548E-2,-9.408474E-3,-3.910103E-2,-5.2002307E-2,1.095404E-1,-3.4641935E-3,-1.1635327E-1,-2.6350142E-2,9.427024E-2],"categories":[],"categories_nodes":[],"categories_segments":[],"categories_sizes":[],"default_left":[0,0,0,0,0,0,0,0,0,0,0,0,0,0,0,0,0,0,0,0,0,0,0,0,0,0,0,0,0],"id":19,"left_children":[1,3,5,7,9,11,-1,13,-1,15,-1,17,19,21,-1,-1,-1,23,-1,-1,-1,-1,-1,25,27,-1,-1,-1,-1],"loss_changes":[4.11839E-1,7.931776E-1,3.3290875E-1,2.5563525E-2,9.638722E-1,8.2496583E-1,0E0,1.5158784E-2,0E0,1.0858793E-3,0E0,8.5927254E-1,1.5736163E-2,1.4616027E-3,0E0,0E0,0E0,4.8686448E-1,0E0,0E0,0E0,0E0,0E0,1.1367861E0,9.972305E-1,0E0,0E0,0E0,0E0],"parents":[2147483647,0,0,1,1,2,2,3,3,4,4,5,5,7,7,9,9,11,11,12,12,13,13,17,17,23,23,24,24],"right_children":[2,4,6,8,10,12,-1,14,-1,16,-1,18,20,22,-1,-1,-1,24,-1,-1,-1,-1,-1,26,28,-1,-1,-1,-1],"split_conditions":[9.901636E0,9.511088E0,3.25E1,1.5375871E2,7.737915E0,1.79E1,1.1810646E-1,5E-1,1.0594941E-2,4.9275002E0,2.5358182E-1,8.5E0,1.2396251E1,5.4858327E0,3.856945E-3,-1.4442445E-2,-1.0937691E-3,2.8621512E2,1.5791494E-1,-1.5883876E-1,-4.0114548E-2,-9.408474E-3,-3.910103E-2,2.7138638E2,1.4277983E1,-3.4641935E-3,-1.1635327E-1,-2.6350142E-2,9.427024E-2],"split_indices":[2,2,1,3,0,1,0,1,0,0,0,1,0,0,0,0,0,3,0,0,0,0,0,3,2,0,0,0,0],"split_type":[0,0,0,0,0,0,0,0,0,0,0,0,0,0,0,0,0,0,0,0,0,0,0,0,0,0,0,0,0],"sum_hessian":[1.22E2,1E1,1.12E2,6E0,4E0,1.11E2,1E0,4E0,2E0,2E0,2E0,1.08E2,3E0,3E0,1E0,1E0,1E0,1.06E2,2E0,2E0,1E0,1E0,2E0,8.3E1,2.3E1,7.5E1,8E0,1.2E1,1.1E1],"tree_param":{"num_deleted":"0","num_feature":"5","num_nodes":"29","size_leaf_vector":"1"}},{"base_weights":[6.880293E-3,4.737029E-2,-7.5255066E-2,-7.6280674E-3,2.6134202E-1,-3.9802128E-1,1.5052536E-2,-1.5196182E-1,9.989262E-2,4.458537E-1,-6.593949E-2,-6.6832644E-1,1.0694182E-1,1.7696927E-1,-6.304036E-2,1.8515984E-3,-7.418885E-1,-2.4845634E-1,2.6391646E-1,-3.7295103E-2,8.546936E-1,2.3406665E-1,-2.3275527E-1,-4.2292308E-2,-2.6902768E-1,1.3512526E-1,-1.5768926E-1,1.0705267E-2,3.74345E-1,-3.0508757E-1,6.1923265E-2,8.612072E-2,-1.8502173E-1,-1.6594727E-1,-2.965117E-1,-1.08793795E-1,-2.8866106E-1,3.192833E-1,1.921996E-1,-2.252208E-1,6.7711264E-2,1.3983014E-1,3.2637596E-1,2.2097398E-2,8.32326E-2,-2.7115583E-1,-1.1872959E-2,-7.320729E-2,2.247119E-3,4.9588967E-2,-1.7300798E-2,1.7492773E-1,4.081599E-2,-1.5170161E-1,-1.5304908E-1,2.5562572E-1,-1.6373241E-1,-3.418658E-3,2.1225664E-1,-7.193714E-2,-2.7391436E-3,-3.6349853E-3,-8.97357E-2,-1.5053038E-1,8.128117E-2,-7.997132E-3,-8.47569E-2,-9.404698E-2,-2.162304E-2,-1.2276078E-2,2.4733903E-2,-4.6420097E-3,2.3009205E-2,-2.7694704E-4,-6.8058014E-2,-3.0345917E-2,1.11603886E-1,-9.2303924E-2,1.7140461E-2],"categories":[],"categories_nodes":[],"categories_segments":[],"categories_sizes":[],"default_left":[0,0,0,0,0,0,0,0,0,0,0,0,0,0,0,0,0,0,0,0,0,0,0,0,0,0,0,0,0,0,0,0,0,0,0,0,0,0,0,0,0,0,0,0,0,0,0,0,0,0,0,0,0,0,0,0,0,0,0,0,0,0,0,0,0,0,0,0,0,0,0,0,0,0,0,0,0,0,0],"id":20,"left_children":[1,3,5,7,9,11,13,15,17,19,21,23,25,27,29,31,33,35,37,39,41,43,45,-1,-1,-1,47,49,51,53,55,57,-1,59,-1,61,-1,-1,63,65,-1,-1,-1,-1,-1,67,-1,-1,-1,69,-1,-1,71,73,-1,75,77,-1,-1,-1,-1,-1,-1,-1,-1,-1,-1,-1,-1,-1,-1,-1,-1,-1,-1,-1,-1,-1,-1],"loss_changes":[4.1262108E-1,9.787452E-1,1.2010691E0,1.0549439E0,1.0559827E0,1.2999194E0,4.2842627E-1,2.6327941E0,2.2939358E0,2.2047114E0,4.0480056E-1,5.9636617E-1,4.346034E-1,3.5697383E-1,7.145752E-1,1.3041884E0,6.8774366E-1,1.191207E0,1.3452303E0,3.4737924E-1,3.6700726E-2,4.37513E-4,2.6359469E-2,0E0,0E0,0E0,4.461021E-2,2.147036E-2,3.2431698E-1,1.742537E-1,7.4121517E-1,1.3411905E0,0E0,3.2550134E-2,0E0,2.1717693E-1,0E0,0E0,1.556623E0,3.7981287E-2,0E0,0E0,0E0,0E0,0E0,1.1115968E-2,0E0,0E0,0E0,1.8243201E-2,0E0,0E0,7.2459816E-3,6.778422E-2,0E0,4.113506E-1,2.7192527E-1,0E0,0E0,0E0,0E0,0E0,0E0,0E0,0E0,0E0,0E0,0E0,0E0,0E0,0E0,0E0,0E0,0E0,0E0,0E0,0E0,0E0,0E0],"parents":[2147483647,0,0,1,1,2,2,3,3,4,4,5,5,6,6,7,7,8,8,9,9,10,10,11,11,12,12,13,13,14,14,15,15,16,16,17,17,18,18,19,19,20,20,21,21,22,22,26,26,27,27,28,28,29,29,30,30,31,31,33,33,35,35,38,38,39,39,45,45,49,49,52,52,53,53,55,55,56,56],"right_children":[2,4,6,8,10,12,14,16,18,20,22,24,26,28,30,32,34,36,38,40,42,44,46,-1,-1,-1,48,50,52,54,56,58,-1,60,-1,62,-1,-1,64,66,-1,-1,-1,-1,-1,68,-1,-1,-1,70,-1,-1,72,74,-1,76,78,-1,-1,-1,-1,-1,-1,-1,-1,-1,-1,-1,-1,-1,-1,-1,-1,-1,-1,-1,-1,-1,-1],"split_conditions":[4E-1,1E-1,7E-1,8.867084E0,1.3787918E1,2.2612321E2,2.4999998E0,7.737915E0,1.8390105E2,1.2397806E1,1.5718459E2,1.2641076E1,2.4008496E2,1.8913708E1,1.1123332E1,2.9973953E2,3E0,1.8116623E1,1.8484518E2,8.73375E0,7.967083E0,1.8415E1,1.7496252E1,-4.2292308E-2,-2.6902768E-1,1.3512526E-1,1.51170845E1,1.6595179E1,2.2415602E1,1.0077499E1,3E0,2.965194E2,-1.8502173E-1,7.7754173E0,-2.965117E-1,1.5375871E2,-2.8866106E-1,3.192833E-1,2.0672937E2,5.4858327E0,6.7711264E-2,1.3983014E-1,3.2637596E-1,2.2097398E-2,8.32326E-2,2E-1,-1.1872959E-2,-7.320729E-2,2.247119E-3,4.9275002E0,-1.7300798E-2,1.7492773E-1,-9.141666E-1,2.4162947E1,-1.5304908E-1,3.7E0,1.728375E1,-3.418658E-3,2.1225664E-1,-7.193714E-2,-2.7391436E-3,-3.6349853E-3,-8.97357E-2,-1.5053038E-1,8.128117E-2,-7.997132E-3,-8.47569E-2,-9.404698E-2,-2.162304E-2,-1.2276078E-2,2.4733903E-2,-4.6420097E-3,2.3009205E-2,-2.7694704E-4,-6.8058014E-2,-3.0345917E-2,1.11603886E-1,-9.2303924E-2,1.7140461E-2],"split_indices":[1,1,1,0,0,3,1,0,3,2,3,2,3,2,0,3,4,2,3,0,0,0,0,0,0,0,0,2,2,0,4,3,0,0,0,3,0,0,3,0,0,0,0,0,0,1,0,0,0,0,0,0,0,2,0,1,0,0,0,0,0,0,0,0,0,0,0,0,0,0,0,0,0,0,0,0,0,0,0],"split_type":[0,0,0,0,0,0,0,0,0,0,0,0,0,0,0,0,0,0,0,0,0,0,0,0,0,0,0,0,0,0,0,0,0,0,0,0,0,0,0,0,0,0,0,0,0,0,0,0,0,0,0,0,0,0,0,0,0,0,0,0,0,0,0,0,0,0,0,0,0,0,0,0,0,0,0,0,0,0,0],"sum_hessian":[1.22E2,8.2E1,4E1,6.6E1,1.6E1,8E0,3.2E1,2.8E1,3.8E1,1E1,6E0,5E0,3E0,1E1,2.2E1,2.3E1,5E0,1.2E1,2.6E1,5E0,5E0,2E0,4E0,2E0,3E0,1E0,2E0,6E0,4E0,7E0,1.5E1,2.1E1,2E0,2E0,3E0,1.1E1,1E0,1E0,2.5E1,3E0,2E0,3E0,2E0,1E0,1E0,3E0,1E0,1E0,1E0,4E0,2E0,2E0,2E0,5E0,2E0,8E0,7E0,1.9E1,2E0,1E0,1E0,8E0,3E0,2E0,2.3E1,1E0,2E0,2E0,1E0,1E0,3E0,1E0,1E0,2E0,3E0,2E0,6E0,4E0,3E0],"tree_param":{"num_deleted":"0","num_feature":"5","num_nodes":"79","size_leaf_vector":"1"}},{"base_weights":[2.0973915E-3,4.493116E-2,-4.2175144E-2,1.233025E-2,5.22712E-1,-2.1605721E-1,2.4450865E-2,3.803896E-2,-3.5710144E-1,2.8157521E-2,2.7139091E-1,-1.4796159E-1,-1.9583811E-1,2.2148325E-1,-8.5515E-3,1.129935E-1,-5.567582E-2,-1.4587918E-1,4.557896E-3,-2.6388562E-1,1.598484E-1,-1.3928212E-1,8.731132E-2,3.0508066E-2,2.7005503E-1,2.6127163E-1,-1.43581E-1,4.488888E-2,-3.150806E-1,8.383274E-3,1.1485634E-1,-4.8161554E-1,1.0054699E-1,3.9191055E-1,-2.3663973E-2,2.3391595E-2,-2.0189181E-1,-4.615412E-2,1.5218782E-1,-1.5948321E-1,-6.3026063E-3,-1.2389801E-1,-4.939633E-2,1.6033746E-2,-7.3358538E-3,-2.3672011E-1,-4.1799378E-2,1.6921178E-1,-1.4566612E-2,1.7634745E-1,2.9405596E-2,-1.4261514E-1,7.5392853E-3],"categories":[],"categories_nodes":[],"categories_segments":[],"categories_sizes":[],"default_left":[0,0,0,0,0,0,0,0,0,0,0,0,0,0,0,0,0,0,0,0,0,0,0,0,0,0,0,0,0,0,0,0,0,0,0,0,0,0,0,0,0,0,0,0,0,0,0,0,0,0,0,0,0],"id":21,"left_children":[1,3,5,7,9,11,13,15,17,-1,-1,19,-1,-1,21,23,25,-1,-1,27,29,31,33,35,-1,37,39,-1,41,43,-1,45,47,49,51,-1,-1,-1,-1,-1,-1,-1,-1,-1,-1,-1,-1,-1,-1,-1,-1,-1,-1],"loss_changes":[2.351472E-1,9.748485E-1,7.11972E-1,5.8344054E-1,5.7025087E-1,4.089889E-1,1.0664219E0,4.0667886E-1,1.9973361E-1,0E0,0E0,6.131028E-1,0E0,0E0,5.63578E-1,2.0503514E0,7.619081E-1,0E0,0E0,3.0118424E-1,1.6567864E-1,1.608354E0,8.8815194E-1,1.0541714E0,0E0,6.908133E-1,9.8762715E-1,0E0,9.401393E-2,7.2256187E-3,0E0,7.319448E-1,8.5668063E-1,3.454255E-1,4.5277947E-1,0E0,0E0,0E0,0E0,0E0,0E0,0E0,0E0,0E0,0E0,0E0,0E0,0E0,0E0,0E0,0E0,0E0,0E0],"parents":[2147483647,0,0,1,1,2,2,3,3,4,4,5,5,6,6,7,7,8,8,11,11,14,14,15,15,16,16,19,19,20,20,21,21,22,22,23,23,25,25,26,26,28,28,29,29,31,31,32,32,33,33,34,34],"right_children":[2,4,6,8,10,12,14,16,18,-1,-1,20,-1,-1,22,24,26,-1,-1,28,30,32,34,36,-1,38,40,-1,42,44,-1,46,48,50,52,-1,-1,-1,-1,-1,-1,-1,-1,-1,-1,-1,-1,-1,-1,-1,-1,-1,-1],"split_conditions":[1.6954432E1,1.6801823E1,1.8466455E1,1.642346E1,5.148333E0,1.839878E1,1.8606289E1,2.5765036E2,1.2848332E1,2.8157521E-2,2.7139091E-1,1.6465002E1,-1.9583811E-1,2.2148325E-1,2.1770541E2,2.3909608E2,4.8087497E0,-1.4587918E-1,4.557896E-3,-4.418333E0,2E-1,1.14775E1,2.4070164E2,2.379468E2,2.7005503E-1,3.031667E0,7.8025002E0,4.488888E-2,1E-1,1.6519167E1,1.1485634E-1,6E-1,1.2389999E1,1.0825417E1,2.4953912E2,2.3391595E-2,-2.0189181E-1,-4.615412E-2,1.5218782E-1,-1.5948321E-1,-6.3026063E-3,-1.2389801E-1,-4.939633E-2,1.6033746E-2,-7.3358538E-3,-2.3672011E-1,-4.1799378E-2,1.6921178E-1,-1.4566612E-2,1.7634745E-1,2.9405596E-2,-1.4261514E-1,7.5392853E-3],"split_indices":[2,2,2,2,0,2,2,3,0,0,0,0,0,0,3,3,0,0,0,0,1,0,3,3,0,0,0,0,1,0,0,1,0,0,3,0,0,0,0,0,0,0,0,0,0,0,0,0,0,0,0,0,0],"split_type":[0,0,0,0,0,0,0,0,0,0,0,0,0,0,0,0,0,0,0,0,0,0,0,0,0,0,0,0,0,0,0,0,0,0,0,0,0,0,0,0,0,0,0,0,0,0,0,0,0,0,0,0,0],"sum_hessian":[1.22E2,6.2E1,6E1,5.9E1,3E0,1.6E1,4.4E1,5.6E1,3E0,2E0,1E0,1.5E1,1E0,1E0,4.3E1,3.1E1,2.5E1,2E0,1E0,1.1E1,4E0,1.8E1,2.5E1,2.9E1,2E0,5E0,2E1,1E0,1E1,3E0,1E0,7E0,1.1E1,6E0,1.9E1,2.8E1,1E0,2E0,3E0,4E0,1.6E1,5E0,5E0,1E0,2E0,3E0,4E0,2E0,9E0,3E0,3E0,1E0,1.8E1],"tree_param":{"num_deleted":"0","num_feature":"5","num_nodes":"53","size_leaf_vector":"1"}},{"base_weights":[2.7495595E-3,2.4272442E-2,-6.7851245E-2,5.0637346E-2,-8.385229E-2,-1.0499993E-1,1.9057798E-1,1.8875219E-2,2.885206E-1,-1.6232166E-1,1.7660646E-3,8.611218E-2,-1.5460339E-1,7.4327566E-2,2.855444E-3,5.0377615E-2,-5.056331E-1,1.11720085E-1,4.8159122E-1,-1.16732836E-1,1.4966893E-1,1.8415833E-1,-7.332007E-2,-2.4346192E-1,2.0224452E-2,9.745532E-3,3.066313E-1,-1.8214065E-1,-3.0168915E-2,4.5165315E-1,-1.7115974E-1,1.7332116E-1,2.8973008E-2,-2.2713834E-1,2.1659279E-1,2.727379E-1,-4.158449E-2,6.45464E-2,1.3675404E-2,-2.8013708E-3,-3.0192662E-2,-3.2861105E-1,-2.4471283E-2,-4.4939805E-2,6.5913476E-2,1.878781E-2,-4.8277088E-2,-7.503634E-2,1.504305E-1,4.224272E-2,1.610012E-1,2.7261735E-3,-1.0678511E-1,-9.618591E-2,-1.6050626E-2,-2.7420046E-3,1.0020877E-1,5.980969E-3,9.928623E-2,-5.228663E-2,1.8223954E-2,-4.7064174E-2,-1.2508538E-1,3.027897E-2,-4.251461E-2,3.8742544E-3,2.1778297E-2],"categories":[],"categories_nodes":[],"categories_segments":[],"categories_sizes":[],"default_left":[0,0,0,0,0,0,0,0,0,0,0,0,0,0,0,0,0,0,0,0,0,0,0,0,0,0,0,0,0,0,0,0,0,0,0,0,0,0,0,0,0,0,0,0,0,0,0,0,0,0,0,0,0,0,0,0,0,0,0,0,0,0,0,0,0,0,0],"id":22,"left_children":[1,3,5,7,9,11,13,15,17,-1,19,21,23,-1,-1,25,27,29,31,33,35,37,39,41,43,45,47,-1,-1,49,51,-1,-1,53,55,57,59,-1,-1,-1,-1,61,63,-1,65,-1,-1,-1,-1,-1,-1,-1,-1,-1,-1,-1,-1,-1,-1,-1,-1,-1,-1,-1,-1,-1,-1],"loss_changes":[1.8854946E-1,2.7506238E-1,2.984195E-1,5.7634133E-1,7.447375E-1,2.5978854E-1,3.9054215E-2,1.1655782E0,2.534114E-1,0E0,3.1541884E-1,1.07292816E-1,3.311578E-1,0E0,0E0,6.8421173E-1,1.0340679E-1,6.5426606E-1,9.227443E-2,4.1720638E-1,1.9964054E-1,7.373333E-3,4.304599E-3,2.530145E-1,7.201956E-2,5.335321E-1,1.1015363E0,0E0,0E0,3.7134886E-3,1.3646641E-1,0E0,0E0,1.12700135E-1,8.258079E-2,6.6987574E-2,6.490647E-2,0E0,0E0,0E0,0E0,8.6295485E-2,8.781605E-2,0E0,1.541065E-3,0E0,0E0,0E0,0E0,0E0,0E0,0E0,0E0,0E0,0E0,0E0,0E0,0E0,0E0,0E0,0E0,0E0,0E0,0E0,0E0,0E0,0E0],"parents":[2147483647,0,0,1,1,2,2,3,3,4,4,5,5,6,6,7,7,8,8,10,10,11,11,12,12,15,15,16,16,17,17,18,18,19,19,20,20,21,21,22,22,23,23,24,24,25,25,26,26,29,29,30,30,33,33,34,34,35,35,36,36,41,41,42,42,44,44],"right_children":[2,4,6,8,10,12,14,16,18,-1,20,22,24,-1,-1,26,28,30,32,34,36,38,40,42,44,46,48,-1,-1,50,52,-1,-1,54,56,58,60,-1,-1,-1,-1,62,64,-1,66,-1,-1,-1,-1,-1,-1,-1,-1,-1,-1,-1,-1,-1,-1,-1,-1,-1,-1,-1,-1,-1,-1],"split_conditions":[1.702125E1,2.3569693E1,2.7761517E2,1.992235E1,2.4149532E1,1.0948973E1,1.7523336E1,1.9211996E1,1.0483749E1,-1.6232166E-1,8.704581E0,2E-1,6E-1,7.4327566E-2,2.855444E-3,1.8289274E1,1.51170845E1,6.8587494E0,1.2389999E1,2.965194E2,1.3721252E1,1.9308752E1,1.769E1,1.8466455E1,1.728375E1,1.6954432E1,7.7754173E0,-1.8214065E-1,-3.0168915E-2,4.5420833E0,1.0077499E1,1.7332116E-1,2.8973008E-2,2.5675027E2,1.0545832E0,1E0,1.50650015E1,6.45464E-2,1.3675404E-2,-2.8013708E-3,-3.0192662E-2,1.3339445E1,2.282045E2,-4.4939805E-2,7.0000005E-1,1.878781E-2,-4.8277088E-2,-7.503634E-2,1.504305E-1,4.224272E-2,1.610012E-1,2.7261735E-3,-1.0678511E-1,-9.618591E-2,-1.6050626E-2,-2.7420046E-3,1.0020877E-1,5.980969E-3,9.928623E-2,-5.228663E-2,1.8223954E-2,-4.7064174E-2,-1.2508538E-1,3.027897E-2,-4.251461E-2,3.8742544E-3,2.1778297E-2],"split_indices":[0,2,3,2,2,2,0,2,0,0,0,1,1,0,0,2,0,0,0,3,0,0,0,2,0,2,0,0,0,0,0,0,0,3,0,4,0,0,0,0,0,2,3,0,1,0,0,0,0,0,0,0,0,0,0,0,0,0,0,0,0,0,0,0,0,0,0],"split_type":[0,0,0,0,0,0,0,0,0,0,0,0,0,0,0,0,0,0,0,0,0,0,0,0,0,0,0,0,0,0,0,0,0,0,0,0,0,0,0,0,0,0,0,0,0,0,0,0,0,0,0,0,0,0,0,0,0,0,0,0,0,0,0,0,0,0,0],"sum_hessian":[1.22E2,9.4E1,2.8E1,7.6E1,1.8E1,2.5E1,3E0,6.8E1,8E0,2E0,1.6E1,5E0,2E1,2E0,1E0,6.5E1,3E0,5E0,3E0,9E0,7E0,3E0,2E0,1.3E1,7E0,5.7E1,8E0,2E0,1E0,2E0,3E0,2E0,1E0,7E0,2E0,4E0,3E0,2E0,1E0,1E0,1E0,9E0,4E0,1E0,6E0,4.4E1,1.3E1,2E0,6E0,1E0,1E0,2E0,1E0,4E0,3E0,1E0,1E0,1E0,3E0,1E0,2E0,4E0,5E0,2E0,2E0,1E0,5E0],"tree_param":{"num_deleted":"0","num_feature":"5","num_nodes":"67","size_leaf_vector":"1"}},{"base_weights":[1.5013857E-3,2.8218718E-2,-5.262154E-2,1.3648415E-1,-4.2388692E-2,-2.3528174E-1,-1.2105306E-3,3.0775389E-2,5.247202E-1,-4.8802796E-1,5.9216274E-3,-3.98983E-1,6.9090605E-2,-1.5687656E-1,2.5670184E-2,-5.6038603E-2,1.621447E-1,7.01285E-1,5.5538815E-2,-1.6334768E-1,-3.932562E-2,1.6281204E-1,-2.9995643E-2,-4.7539547E-2,-1.7600375E-1,7.506323E-2,-7.468637E-2,-2.941904E-1,3.2729466E-2,2.4307394E-1,-8.763864E-3,1.6514331E-2,-1.8253285E-1,-5.8602493E-2,2.3110142E-1,2.525468E-1,2.0870162E-2,5.083752E-3,1.9908715E-2,-1.1353666E-1,7.0886314E-2,-3.6036015E-2,2.4271489E-3,-2.659278E-2,-1.0579291E-1,1.710949E-2,-2.3812295E-3,8.591309E-2,1.6974736E-2,2.637887E-2,-8.609533E-2,3.5361946E-2,-3.919295E-2,4.263231E-3,-6.268979E-2,2.426601E-2,-6.838657E-2,-2.4739124E-2,6.533765E-2,3.5698272E-2,-1.113699E-2],"categories":[],"categories_nodes":[],"categories_segments":[],"categories_sizes":[],"default_left":[0,0,0,0,0,0,0,0,0,0,0,0,0,0,0,0,0,0,0,0,0,0,0,0,0,0,0,0,0,0,0,0,0,0,0,0,0,0,0,0,0,0,0,0,0,0,0,0,0,0,0,0,0,0,0,0,0,0,0,0,0],"id":23,"left_children":[1,3,5,7,9,11,13,15,17,19,21,23,25,27,29,31,33,35,37,-1,-1,-1,39,-1,-1,-1,41,43,45,47,49,51,-1,53,-1,-1,-1,-1,-1,55,57,-1,-1,-1,-1,-1,-1,-1,-1,59,-1,-1,-1,-1,-1,-1,-1,-1,-1,-1,-1],"loss_changes":[1.7934538E-1,6.4026576E-1,3.8473573E-1,1.3381699E0,1.1008676E0,4.7600123E-1,1.4211272E-1,3.170131E-1,5.409378E-1,2.9397488E-2,9.2243224E-1,1.7789745E-1,1.22850955E-1,1.3980636E-1,2.1922691E-1,6.9138336E-1,1.5219704E0,3.8533735E-1,1.2857467E-4,0E0,0E0,0E0,3.8729835E-1,0E0,0E0,0E0,1.2254404E-2,4.78521E-3,3.4175657E-3,1.6098663E-2,2.6178354E-1,2.5405067E-1,0E0,1.0150565E-1,0E0,0E0,0E0,0E0,0E0,5.745796E-1,4.9104834E-1,0E0,0E0,0E0,0E0,0E0,0E0,0E0,0E0,1.455681E-1,0E0,0E0,0E0,0E0,0E0,0E0,0E0,0E0,0E0,0E0,0E0],"parents":[2147483647,0,0,1,1,2,2,3,3,4,4,5,5,6,6,7,7,8,8,9,9,10,10,11,11,12,12,13,13,14,14,15,15,16,16,17,17,18,18,22,22,26,26,27,27,28,28,29,29,30,30,31,31,33,33,39,39,40,40,49,49],"right_children":[2,4,6,8,10,12,14,16,18,20,22,24,26,28,30,32,34,36,38,-1,-1,-1,40,-1,-1,-1,42,44,46,48,50,52,-1,54,-1,-1,-1,-1,-1,56,58,-1,-1,-1,-1,-1,-1,-1,-1,60,-1,-1,-1,-1,-1,-1,-1,-1,-1,-1,-1],"split_conditions":[4E-1,2.3079347E2,7E-1,2.1987863E2,2.3909608E2,2.2612321E2,1.4002582E2,1.7543109E2,2.0880001E1,1E-1,2.4250787E2,2E0,2.4008496E2,1.0964999E1,1.7005841E2,1.7255685E2,4E0,1.3556668E1,1.3177501E1,-1.6334768E-1,-3.932562E-2,1.6281204E-1,2.7959967E2,-4.7539547E-2,-1.7600375E-1,7.506323E-2,1.51170845E1,9.733748E0,1.3129581E1,1.6996248E1,1.8000002E1,1.4518013E2,-1.8253285E-1,1.839878E1,2.3110142E-1,2.525468E-1,2.0870162E-2,5.083752E-3,1.9908715E-2,5.87125E0,1.3830749E1,-3.6036015E-2,2.4271489E-3,-2.659278E-2,-1.0579291E-1,1.710949E-2,-2.3812295E-3,8.591309E-2,1.6974736E-2,2.4999998E0,-8.609533E-2,3.5361946E-2,-3.919295E-2,4.263231E-3,-6.268979E-2,2.426601E-2,-6.838657E-2,-2.4739124E-2,6.533765E-2,3.5698272E-2,-1.113699E-2],"split_indices":[1,3,1,3,3,3,3,3,2,1,3,4,3,0,3,3,4,0,0,0,0,0,3,0,0,0,0,0,0,0,1,3,0,2,0,0,0,0,0,0,2,0,0,0,0,0,0,0,0,1,0,0,0,0,0,0,0,0,0,0,0],"split_type":[0,0,0,0,0,0,0,0,0,0,0,0,0,0,0,0,0,0,0,0,0,0,0,0,0,0,0,0,0,0,0,0,0,0,0,0,0,0,0,0,0,0,0,0,0,0,0,0,0,0,0,0,0,0,0,0,0,0,0,0,0],"sum_hessian":[1.22E2,8.2E1,4E1,3.2E1,5E1,8E0,3.2E1,2.6E1,6E0,4E0,4.6E1,5E0,3E0,4E0,2.8E1,1.6E1,1E1,4E0,2E0,3E0,1E0,2E0,4.4E1,3E0,2E0,1E0,2E0,2E0,2E0,3E0,2.5E1,1.5E1,1E0,8E0,2E0,3E0,1E0,1E0,1E0,2.4E1,2E1,1E0,1E0,1E0,1E0,1E0,1E0,2E0,1E0,2.3E1,2E0,9E0,6E0,6E0,2E0,9E0,1.5E1,1E1,1E1,9E0,1.4E1],"tree_param":{"num_deleted":"0","num_feature":"5","num_nodes":"61","size_leaf_vector":"1"}},{"base_weights":[9.1236975E-4,2.2660833E-2,-4.313726E-2,-1.1301507E-2,1.5517941E-1,-1.8492937E-1,-3.1594941E-3,-9.772967E-2,5.722866E-2,2.3474954E-1,7.972172E-3,-3.1654525E-1,5.8726788E-2,-1.3334484E-1,1.9395204E-2,2.3039007E-1,-1.7256922E-1,-1.7267698E-1,1.5728937E-1,-2.7666727E-2,1.3741226E-1,-1.2553072E-1,1.3948202E-1,-3.684311E-2,-1.4080301E-1,6.380367E-2,-6.348356E-2,-2.5006166E-1,2.7820269E-2,1.9587374E-1,-8.50131E-3,1.1211005E-1,-1.1246014E-2,-3.5196367E-1,-6.476164E-3,-1.9606723E-2,-1.4217475E-1,2.9616576E-1,2.6443863E-2,-1.7923927E-1,5.5095673E-2,-4.8295405E-2,-2.875328E-3,4.9704935E-2,9.131813E-3,-3.0630685E-2,2.0630837E-3,-2.2603799E-2,-8.9923956E-2,1.4543152E-2,-2.0240308E-3,8.027945E-2,2.4829865E-2,1.9488692E-2,-6.887627E-2,-4.0135313E-2,-1.6435368E-1,2.929919E-2,-1.2626338E-1,2.8770389E-2,-3.935802E-2,1.2018051E-1,-1.168964E-2,-6.405163E-3,4.8964836E-2,-7.2453977E-3,-6.686545E-2,1.6190132E-2,-2.1586256E-2],"categories":[],"categories_nodes":[],"categories_segments":[],"categories_sizes":[],"default_left":[0,0,0,0,0,0,0,0,0,0,0,0,0,0,0,0,0,0,0,0,0,0,0,0,0,0,0,0,0,0,0,0,0,0,0,0,0,0,0,0,0,0,0,0,0,0,0,0,0,0,0,0,0,0,0,0,0,0,0,0,0,0,0,0,0,0,0,0,0],"id":24,"left_children":[1,3,5,7,9,11,13,15,17,19,21,23,25,27,29,31,33,35,37,39,-1,41,43,-1,-1,-1,45,47,49,51,53,-1,-1,55,57,59,-1,61,63,65,-1,-1,-1,-1,-1,-1,-1,-1,-1,-1,-1,-1,-1,67,-1,-1,-1,-1,-1,-1,-1,-1,-1,-1,-1,-1,-1,-1,-1],"loss_changes":[1.1881296E-1,3.7530696E-1,2.3182553E-1,4.0242964E-1,1.972546E-1,3.072108E-1,9.9483855E-2,7.7644825E-1,9.013321E-1,6.572205E-1,1.4040789E-1,1.1997372E-1,8.875978E-2,1.0101019E-1,1.4443612E-1,2.4434543E-1,7.42625E-1,5.440365E-1,4.8279476E-1,2.2509861E-1,0E0,1.4900081E-2,6.3848495E-3,0E0,0E0,0E0,8.853851E-3,3.4574717E-3,2.469208E-3,1.0302201E-2,1.6536766E-1,0E0,0E0,4.395554E-1,6.452865E-1,1.2858403E-1,0E0,4.706062E-1,1.01538986E-1,2.1692619E-2,0E0,0E0,0E0,0E0,0E0,0E0,0E0,0E0,0E0,0E0,0E0,0E0,0E0,7.955048E-2,0E0,0E0,0E0,0E0,0E0,0E0,0E0,0E0,0E0,0E0,0E0,0E0,0E0,0E0,0E0],"parents":[2147483647,0,0,1,1,2,2,3,3,4,4,5,5,6,6,7,7,8,8,9,9,10,10,11,11,12,12,13,13,14,14,15,15,16,16,17,17,18,18,19,19,21,21,22,22,26,26,27,27,28,28,29,29,30,30,33,33,34,34,35,35,37,37,38,38,39,39,53,53],"right_children":[2,4,6,8,10,12,14,16,18,20,22,24,26,28,30,32,34,36,38,40,-1,42,44,-1,-1,-1,46,48,50,52,54,-1,-1,56,58,60,-1,62,64,66,-1,-1,-1,-1,-1,-1,-1,-1,-1,-1,-1,-1,-1,68,-1,-1,-1,-1,-1,-1,-1,-1,-1,-1,-1,-1,-1,-1,-1],"split_conditions":[4E-1,1E-1,7E-1,8.94625E0,1.3787918E1,2.2612321E2,1.4002582E2,2.3079347E2,1.7543109E2,1.2397806E1,1.7496252E1,2E0,2.4008496E2,1.0964999E1,1.7005841E2,6.8587494E0,2.7515625E2,1.5375871E2,1.3556668E1,8.73375E0,1.3741226E-1,2E-1,1.9308752E1,-3.684311E-2,-1.4080301E-1,6.380367E-2,1.51170845E1,9.733748E0,1.3129581E1,1.61198E1,1.8000002E1,1.1211005E-1,-1.1246014E-2,5.87125E0,2.9973953E2,4E0,-1.4217475E-1,2.6263257E2,2.9852692E2,5.4858327E0,5.5095673E-2,-4.8295405E-2,-2.875328E-3,4.9704935E-2,9.131813E-3,-3.0630685E-2,2.0630837E-3,-2.2603799E-2,-8.9923956E-2,1.4543152E-2,-2.0240308E-3,8.027945E-2,2.4829865E-2,2.6109928E1,-6.887627E-2,-4.0135313E-2,-1.6435368E-1,2.929919E-2,-1.2626338E-1,2.8770389E-2,-3.935802E-2,1.2018051E-1,-1.168964E-2,-6.405163E-3,4.8964836E-2,-7.2453977E-3,-6.686545E-2,1.6190132E-2,-2.1586256E-2],"split_indices":[1,1,1,0,0,3,3,3,3,2,0,4,3,0,3,0,3,3,0,0,0,1,0,0,0,0,0,0,0,2,1,0,0,0,3,4,0,3,3,0,0,0,0,0,0,0,0,0,0,0,0,0,0,2,0,0,0,0,0,0,0,0,0,0,0,0,0,0,0],"split_type":[0,0,0,0,0,0,0,0,0,0,0,0,0,0,0,0,0,0,0,0,0,0,0,0,0,0,0,0,0,0,0,0,0,0,0,0,0,0,0,0,0,0,0,0,0,0,0,0,0,0,0,0,0,0,0,0,0,0,0,0,0,0,0,0,0,0,0,0,0],"sum_hessian":[1.22E2,8.2E1,4E1,6.6E1,1.6E1,8E0,3.2E1,2.9E1,3.7E1,1E1,6E0,5E0,3E0,4E0,2.8E1,5E0,2.4E1,1.1E1,2.6E1,5E0,5E0,3E0,3E0,3E0,2E0,1E0,2E0,2E0,2E0,3E0,2.5E1,3E0,2E0,1.1E1,1.3E1,8E0,3E0,1.2E1,1.4E1,3E0,2E0,2E0,1E0,2E0,1E0,1E0,1E0,1E0,1E0,1E0,1E0,1E0,2E0,2.3E1,2E0,6E0,5E0,1.1E1,2E0,4E0,4E0,9E0,3E0,1.1E1,3E0,1E0,2E0,1.7E1,6E0],"tree_param":{"num_deleted":"0","num_feature":"5","num_nodes":"69","size_leaf_vector":"1"}},{"base_weights":[-1.7013472E-3,6.5274805E-2,-1.53401615E-2,1.12964E-1,-4.6241283E-2,-1.3096848E-1,-2.6767515E-3,1.7841128E-3,2.3977184E-1,-8.355808E-2,3.136714E-2,-9.494805E-2,9.65583E-3,1.12164974E-1,-7.210048E-2,7.5700566E-2,1.2999001E-1,-3.0474044E-2,-1.7204762E-3,1.2361622E-2,1.7535925E-3,8.126055E-2,-2.8470007E-1,-1.6518301E-1,2.6391432E-2,4.3529894E-2,2.0041466E-3,-1.1018544E-2,-3.7344076E-2,1.0544459E-3,3.7533954E-2,1.9519155E-1,-9.034882E-2,-1.4976844E-1,-1.4390373E-1,-9.40299E-2,-7.572846E-2,9.154621E-2,-2.8005807E-2,6.174517E-3,-5.7000164E-3,9.177339E-2,-5.2495957E-3,-5.3069117E-3,-5.3509716E-2,-3.834423E-2,1.1233664E-2,1.4734054E-2,1.7106695E-1,-1.1711236E-1,-7.987066E-4],"categories":[],"categories_nodes":[],"categories_segments":[],"categories_sizes":[],"default_left":[0,0,0,0,0,0,0,0,0,0,0,0,0,0,0,0,0,0,0,0,0,0,0,0,0,0,0,0,0,0,0,0,0,0,0,0,0,0,0,0,0,0,0,0,0,0,0,0,0,0,0],"id":25,"left_children":[1,3,5,7,9,-1,11,13,15,17,19,21,23,25,27,29,-1,-1,-1,-1,-1,31,33,35,37,-1,-1,-1,-1,39,-1,41,-1,43,-1,45,-1,47,49,-1,-1,-1,-1,-1,-1,-1,-1,-1,-1,-1,-1],"loss_changes":[1.13358796E-1,1.16903946E-1,5.482437E-1,2.1104947E-1,2.2893665E-2,0E0,1.15849085E-1,8.148615E-2,1.8946585E-1,6.430112E-3,5.124132E-4,4.2436612E-1,2.677024E-1,1.2927048E-2,6.544696E-3,1.8310372E-2,0E0,0E0,0E0,0E0,0E0,3.6377347E-1,8.6012244E-2,2.5926337E-2,2.9673573E-1,0E0,0E0,0E0,0E0,1.5658832E-3,0E0,1.4664708E-1,0E0,1.5730217E-2,0E0,3.143682E-2,0E0,7.438334E-1,4.214097E-1,0E0,0E0,0E0,0E0,0E0,0E0,0E0,0E0,0E0,0E0,0E0,0E0],"parents":[2147483647,0,0,1,1,2,2,3,3,4,4,6,6,7,7,8,8,9,9,10,10,11,11,12,12,13,13,14,14,15,15,21,21,22,22,23,23,24,24,29,29,31,31,33,33,35,35,37,37,38,38],"right_children":[2,4,6,8,10,-1,12,14,16,18,20,22,24,26,28,30,-1,-1,-1,-1,-1,32,34,36,38,-1,-1,-1,-1,40,-1,42,-1,44,-1,46,-1,48,50,-1,-1,-1,-1,-1,-1,-1,-1,-1,-1,-1,-1],"split_conditions":[1.1368535E1,2E-1,1.1885453E1,2.1756554E2,1.0009036E1,-1.3096848E-1,4.056667E0,1.35999E2,3E0,1.4E0,1.3129581E1,1.0545832E0,1.4454231E2,1.9308752E1,1.2583749E1,9.292255E0,1.2999001E-1,-3.0474044E-2,-1.7204762E-3,1.2361622E-2,1.7535925E-3,5E0,3.4337494E0,1.27781044E2,1.1081664E1,4.3529894E-2,2.0041466E-3,-1.1018544E-2,-3.7344076E-2,1.3560834E1,3.7533954E-2,2E-1,-9.034882E-2,1E0,-1.4390373E-1,1.7746248E1,-7.572846E-2,1.0825417E1,1.14775E1,6.174517E-3,-5.7000164E-3,9.177339E-2,-5.2495957E-3,-5.3069117E-3,-5.3509716E-2,-3.834423E-2,1.1233664E-2,1.4734054E-2,1.7106695E-1,-1.1711236E-1,-7.987066E-4],"split_indices":[2,1,2,3,2,0,0,3,4,1,0,0,3,0,0,2,0,0,0,0,0,4,0,3,0,0,0,0,0,0,0,1,0,4,0,0,0,0,0,0,0,0,0,0,0,0,0,0,0,0,0],"split_type":[0,0,0,0,0,0,0,0,0,0,0,0,0,0,0,0,0,0,0,0,0,0,0,0,0,0,0,0,0,0,0,0,0,0,0,0,0,0,0,0,0,0,0,0,0,0,0,0,0,0,0],"sum_hessian":[1.22E2,2E1,1.02E2,1.4E1,6E0,2E0,1E2,8E0,6E0,4E0,2E0,1.1E1,8.9E1,3E0,5E0,4E0,2E0,3E0,1E0,1E0,1E0,6E0,5E0,7E0,8.2E1,2E0,1E0,4E0,1E0,2E0,2E0,5E0,1E0,4E0,1E0,5E0,2E0,3.7E1,4.5E1,1E0,1E0,3E0,2E0,1E0,3E0,4E0,1E0,3.5E1,2E0,2E0,4.3E1],"tree_param":{"num_deleted":"0","num_feature":"5","num_nodes":"51","size_leaf_vector":"1"}},{"base_weights":[-3.0231243E-3,5.269675E-2,-1.4354137E-2,9.00863E-2,-3.4951825E-2,-3.4924936E-1,-4.264633E-3,9.3470677E-4,1.918403E-1,-6.492977E-2,2.6662031E-2,-1.2760729E-1,-2.955494E-2,4.2299937E-2,-2.3607306E-2,8.989906E-2,-5.8530647E-2,1.0765973E-1,5.325699E-2,-2.361746E-2,-1.462412E-3,1.0507394E-2,1.4905215E-3,4.7917026E-3,1.1348305E-1,-1.02865845E-1,-9.451331E-4,3.482399E-2,1.7034531E-3,-8.374043E-3,-3.174248E-2,8.9645386E-4,2.635956E-2,-3.1390554E-1,7.098731E-2,-2.7991844E-2,-3.2048988E-1,2.601479E-1,-3.1053076E-2,5.2484036E-3,-4.8449994E-3,-1.3400896E-1,3.258877E-2,-2.4825865E-2,4.1747972E-2,1.6967906E-2,-4.0818572E-2,-1.0914641E-1,-2.8574325E-2,-1.4740277E-2,1.2812176E-1,1.837657E-2,-2.2134157E-2],"categories":[],"categories_nodes":[],"categories_segments":[],"categories_sizes":[],"default_left":[0,0,0,0,0,0,0,0,0,0,0,0,0,0,0,0,0,0,0,0,0,0,0,0,0,0,0,0,0,0,0,0,0,0,0,0,0,0,0,0,0,0,0,0,0,0,0,0,0,0,0,0,0],"id":26,"left_children":[1,3,5,7,9,11,13,15,17,19,21,-1,-1,23,25,27,29,-1,31,-1,-1,-1,-1,33,-1,35,37,-1,-1,-1,-1,39,-1,41,43,45,47,49,51,-1,-1,-1,-1,-1,-1,-1,-1,-1,-1,-1,-1,-1,-1],"loss_changes":[7.8414015E-2,7.196864E-2,3.4654E-1,1.3589367E-1,1.4660558E-2,1.5343785E-2,9.1967605E-2,5.2874524E-2,1.4291644E-1,3.7585646E-3,3.702296E-4,0E0,0E0,3.7624443E-1,1.2922707E-1,8.160796E-3,5.731564E-3,0E0,8.981753E-3,0E0,0E0,0E0,0E0,6.1298126E-1,0E0,2.5173903E-1,4.561539E-1,0E0,0E0,0E0,0E0,1.1313615E-3,0E0,3.2906836E-1,2.6305673E-1,1.2648296E-1,4.3871403E-3,3.3074474E-1,2.0961256E-1,0E0,0E0,0E0,0E0,0E0,0E0,0E0,0E0,0E0,0E0,0E0,0E0,0E0,0E0],"parents":[2147483647,0,0,1,1,2,2,3,3,4,4,5,5,6,6,7,7,8,8,9,9,10,10,13,13,14,14,15,15,16,16,18,18,23,23,25,25,26,26,31,31,33,33,34,34,35,35,36,36,37,37,38,38],"right_children":[2,4,6,8,10,12,14,16,18,20,22,-1,-1,24,26,28,30,-1,32,-1,-1,-1,-1,34,-1,36,38,-1,-1,-1,-1,40,-1,42,44,46,48,50,52,-1,-1,-1,-1,-1,-1,-1,-1,-1,-1,-1,-1,-1,-1],"split_conditions":[1.1368535E1,2E-1,1.1885453E1,2.1756554E2,1.0009036E1,7.8025002E0,1.54800005E1,1.35999E2,1.3556668E1,1.4E0,1.3129581E1,-1.2760729E-1,-2.955494E-2,1.5275627E1,6.3608336E0,1.9308752E1,1.2583749E1,1.0765973E-1,9.292255E0,-2.361746E-2,-1.462412E-3,1.0507394E-2,1.4905215E-3,4.8691664E0,1.1348305E-1,5.148333E0,7.8670826E0,3.482399E-2,1.7034531E-3,-8.374043E-3,-3.174248E-2,1.3560834E1,2.635956E-2,1E-1,1.2641076E1,5E0,1E-1,1.864369E1,1.8596217E2,5.2484036E-3,-4.8449994E-3,-1.3400896E-1,3.258877E-2,-2.4825865E-2,4.1747972E-2,1.6967906E-2,-4.0818572E-2,-1.0914641E-1,-2.8574325E-2,-1.4740277E-2,1.2812176E-1,1.837657E-2,-2.2134157E-2],"split_indices":[2,1,2,3,2,0,2,3,0,1,0,0,0,2,0,0,0,0,2,0,0,0,0,0,0,0,0,0,0,0,0,0,0,1,2,4,1,2,3,0,0,0,0,0,0,0,0,0,0,0,0,0,0],"split_type":[0,0,0,0,0,0,0,0,0,0,0,0,0,0,0,0,0,0,0,0,0,0,0,0,0,0,0,0,0,0,0,0,0,0,0,0,0,0,0,0,0,0,0,0,0,0,0,0,0,0,0,0,0],"sum_hessian":[1.22E2,2E1,1.02E2,1.4E1,6E0,2E0,1E2,8E0,6E0,4E0,2E0,1E0,1E0,2.9E1,7.1E1,3E0,5E0,2E0,4E0,3E0,1E0,1E0,1E0,2.7E1,2E0,1.5E1,5.6E1,2E0,1E0,4E0,1E0,2E0,2E0,4E0,2.3E1,1.2E1,3E0,5E0,5.1E1,1E0,1E0,3E0,1E0,7E0,1.6E1,7E0,5E0,2E0,1E0,2E0,3E0,1.6E1,3.5E1],"tree_param":{"num_deleted":"0","num_feature":"5","num_nodes":"53","size_leaf_vector":"1"}},{"base_weights":[-2.6232828E-3,8.0803275E-2,-8.354224E-3,-1.3358116E-2,1.1098996E-1,-1.3141602E-2,1.0055389E-1,4.4611935E-3,-2.054135E-2,-5.8748396E-3,-6.236265E-2,5.5358507E-2,-5.0815586E-3,-6.8976404E-3,-1.2431145E-3,1.40585555E-2,-3.9277997E-2,-2.2455828E-2,1.591119E-1,-2.4210444E-1,-1.080745E-2,1.5577037E-3,-7.61168E-2,1.742777E-1,1.2119747E-2,-9.415731E-2,6.736279E-3,6.938632E-2,-1.1691411E-2],"categories":[],"categories_nodes":[],"categories_segments":[],"categories_sizes":[],"default_left":[0,0,0,0,0,0,0,0,0,0,0,0,0,0,0,0,0,0,0,0,0,0,0,0,0,0,0,0,0],"id":27,"left_children":[1,3,5,7,-1,9,11,-1,13,15,-1,-1,-1,-1,-1,17,19,21,23,25,27,-1,-1,-1,-1,-1,-1,-1,-1],"loss_changes":[5.948291E-2,2.2276615E-1,6.1802022E-2,1.7248795E-3,0E0,1.5726829E-1,5.2457456E-2,0E0,1.458493E-4,7.3128566E-2,0E0,0E0,0E0,0E0,0E0,3.690338E-1,2.3414123E-1,3.5938737E-1,6.7757654E-1,1.0196215E-1,2.6129252E-1,0E0,0E0,0E0,0E0,0E0,0E0,0E0,0E0],"parents":[2147483647,0,0,1,1,2,2,3,3,5,5,6,6,8,8,9,9,15,15,16,16,17,17,18,18,19,19,20,20],"right_children":[2,4,6,8,-1,10,12,-1,14,16,-1,-1,-1,-1,-1,18,20,22,24,26,28,-1,-1,-1,-1,-1,-1,-1,-1],"split_conditions":[9.600937E0,9.511088E0,2.858545E1,7.208994E0,1.1098996E-1,2.7295977E1,2.9758307E1,4.4611935E-3,5E-1,2.5765036E2,-6.236265E-2,5.5358507E-2,-5.0815586E-3,-6.8976404E-3,-1.2431145E-3,2.3909608E2,2.6092667E2,2.3079347E2,1.4494192E1,1.7025417E1,2.6263257E2,1.5577037E-3,-7.61168E-2,1.742777E-1,1.2119747E-2,-9.415731E-2,6.736279E-3,6.938632E-2,-1.1691411E-2],"split_indices":[2,2,2,2,0,2,2,0,1,3,0,0,0,0,0,3,3,3,2,0,3,0,0,0,0,0,0,0,0],"split_type":[0,0,0,0,0,0,0,0,0,0,0,0,0,0,0,0,0,0,0,0,0,0,0,0,0,0,0,0,0],"sum_hessian":[1.22E2,7E0,1.15E2,6E0,1E0,1.11E2,4E0,1E0,5E0,1.08E2,3E0,2E0,2E0,4E0,1E0,6.8E1,4E1,5.5E1,1.3E1,4E0,3.6E1,5E1,5E0,2E0,1.1E1,3E0,1E0,3E0,3.3E1],"tree_param":{"num_deleted":"0","num_feature":"5","num_nodes":"29","size_leaf_vector":"1"}},{"base_weights":[-3.9458662E-4,4.6449523E-2,-9.941497E-3,2.6638508E-3,9.434738E-2,-2.9348373E-1,-1.4210196E-3,4.411275E-2,-4.6137173E-2,9.4341375E-2,3.4947924E-2,-1.0671244E-1,-2.5355244E-2,-9.445103E-2,7.5971643E-3,6.662941E-3,9.182485E-2,-5.7234764E-3,-2.7214767E-2,-5.7226815E-3,8.7216854E-2,4.1652203E-2,-1.4096758E-1,9.7709656E-2,-1.2396466E-2,8.69751E-3,-6.1671734E-3,8.511257E-3,3.2809928E-2,-5.9196474E-3,6.2150955E-3,3.1069566E-2,5.7257656E-3,-7.644558E-2,-6.690672E-2,3.2159042E-1,-2.23732E-2,-1.6378413E-1,7.5294105E-3,-3.2763483E-3,1.2142182E-3,-3.0836107E-3,4.541779E-3,-5.6814197E-3,-3.8292125E-2,1.107993E-1,1.2433148E-2,-8.933087E-2,1.8744908E-2,-7.953348E-2,8.745933E-3,-1.7553676E-2,1.2546674E-2],"categories":[],"categories_nodes":[],"categories_segments":[],"categories_sizes":[],"default_left":[0,0,0,0,0,0,0,0,0,0,0,0,0,0,0,0,0,0,0,0,0,0,0,0,0,0,0,0,0,0,0,0,0,0,0,0,0,0,0,0,0,0,0,0,0,0,0,0,0,0,0,0,0],"id":28,"left_children":[1,3,5,7,9,11,13,15,17,-1,19,-1,-1,21,23,25,27,-1,-1,29,31,-1,33,35,37,-1,39,-1,-1,-1,41,-1,-1,43,-1,45,47,49,51,-1,-1,-1,-1,-1,-1,-1,-1,-1,-1,-1,-1,-1,-1],"loss_changes":[5.5469412E-2,4.379071E-2,2.4842222E-1,2.6308224E-2,1.19762264E-1,8.944809E-3,8.54527E-2,1.1895838E-2,5.5068107E-3,0E0,1.9631395E-2,0E0,0E0,1.17239356E-1,1.6876711E-1,1.6111995E-3,2.3642927E-4,0E0,0E0,1.1260892E-3,2.4786834E-3,0E0,2.5305644E-2,4.6422714E-1,2.3350616E-1,0E0,2.3844189E-4,0E0,0E0,0E0,7.443855E-4,0E0,0E0,1.5247263E-2,0E0,6.493962E-2,2.9903468E-1,1.836774E-1,1.5871528E-1,0E0,0E0,0E0,0E0,0E0,0E0,0E0,0E0,0E0,0E0,0E0,0E0,0E0,0E0],"parents":[2147483647,0,0,1,1,2,2,3,3,4,4,5,5,6,6,7,7,8,8,10,10,13,13,14,14,15,15,16,16,19,19,20,20,22,22,23,23,24,24,26,26,30,30,33,33,35,35,36,36,37,37,38,38],"right_children":[2,4,6,8,10,12,14,16,18,-1,20,-1,-1,22,24,26,28,-1,-1,30,32,-1,34,36,38,-1,40,-1,-1,-1,42,-1,-1,44,-1,46,48,50,52,-1,-1,-1,-1,-1,-1,-1,-1,-1,-1,-1,-1,-1,-1],"split_conditions":[1.1368535E1,2.1756554E2,1.1885453E1,1.35999E2,2.1998477E2,7.8025002E0,1.4454231E2,1.2276044E2,1.2583749E1,9.4341375E-2,1.0661107E1,-1.0671244E-1,-2.5355244E-2,7.541677E-2,1.8596217E2,1.3129581E1,1.8537918E1,-5.7234764E-3,-2.7214767E-2,8.106666E0,1.3569167E1,4.1652203E-2,1.27781044E2,1.6862455E1,2.0613145E2,8.69751E-3,1.8692083E1,8.511257E-3,3.2809928E-2,-5.9196474E-3,2E0,3.1069566E-2,5.7257656E-3,3E0,-6.690672E-2,1.6996248E1,1.14775E1,3.6999998E0,3E0,-3.2763483E-3,1.2142182E-3,-3.0836107E-3,4.541779E-3,-5.6814197E-3,-3.8292125E-2,1.107993E-1,1.2433148E-2,-8.933087E-2,1.8744908E-2,-7.953348E-2,8.745933E-3,-1.7553676E-2,1.2546674E-2],"split_indices":[2,3,2,3,3,0,3,3,0,0,2,0,0,0,3,0,0,0,0,0,0,0,3,2,3,0,0,0,0,0,4,0,0,4,0,0,0,1,4,0,0,0,0,0,0,0,0,0,0,0,0,0,0],"split_type":[0,0,0,0,0,0,0,0,0,0,0,0,0,0,0,0,0,0,0,0,0,0,0,0,0,0,0,0,0,0,0,0,0,0,0,0,0,0,0,0,0,0,0,0,0,0,0,0,0,0,0,0,0],"sum_hessian":[1.22E2,2E1,1.02E2,1.1E1,9E0,2E0,1E2,6E0,5E0,1E0,8E0,1E0,1E0,8E0,9.2E1,4E0,2E0,4E0,1E0,5E0,3E0,1E0,7E0,1.6E1,7.6E1,1E0,3E0,1E0,1E0,2E0,3E0,2E0,1E0,5E0,2E0,5E0,1.1E1,8E0,6.8E1,2E0,1E0,1E0,2E0,3E0,2E0,4E0,1E0,2E0,9E0,5E0,3E0,2.3E1,4.5E1],"tree_param":{"num_deleted":"0","num_feature":"5","num_nodes":"53","size_leaf_vector":"1"}},{"base_weights":[-9.4902614E-4,3.264888E-3,-1.0105038E-1,-1.586535E-3,5.7414632E-2,-1.4866233E-1,1.34096155E-2,-4.6929795E-2,1.0007346E-2,-5.1437855E-2,-1.2040616E-2,-1.8288985E-2,-1.0585027E-1,1.9152437E-1,-4.545228E-3,-1.4291491E-3,-1.3021152E-1,7.910999E-2,1.299016E-1,-1.1170502E-1,9.0768365E-3,1.5003319E-2,-1.32530695E-2,-5.8030132E-2,-5.6505203E-4,3.5238363E-2,4.815102E-4,-6.195059E-2,7.3176958E-3,5.4142904E-3,-4.9091257E-2],"categories":[],"categories_nodes":[],"categories_segments":[],"categories_sizes":[],"default_left":[0,0,0,0,0,0,0,0,0,0,0,0,0,0,0,0,0,0,0,0,0,0,0,0,0,0,0,0,0,0,0],"id":29,"left_children":[1,3,5,7,-1,9,-1,11,13,-1,-1,15,-1,17,19,21,23,25,-1,27,29,-1,-1,-1,-1,-1,-1,-1,-1,-1,-1],"loss_changes":[5.2213598E-2,1.08907335E-1,4.1342E-2,6.197706E-2,0E0,3.0148402E-3,0E0,2.0381944E-1,2.4917528E-1,0E0,0E0,4.3214805E-2,0E0,1.5576649E-1,1.2947083E-1,4.838735E-2,2.3975216E-2,1.7645925E-2,0E0,1.3405319E-1,1.2535472E-1,0E0,0E0,0E0,0E0,0E0,0E0,0E0,0E0,0E0,0E0],"parents":[2147483647,0,0,1,1,2,2,3,3,5,5,7,7,8,8,11,11,13,13,14,14,15,15,16,16,17,17,19,19,20,20],"right_children":[2,4,6,8,-1,10,-1,12,14,-1,-1,16,-1,18,20,22,24,26,-1,28,30,-1,-1,-1,-1,-1,-1,-1,-1,-1,-1],"split_conditions":[1.79E1,1.0500001E1,3.25E1,1.7543109E2,5.7414632E-2,1.2396251E1,1.34096155E-2,1.7255685E2,1.8484518E2,-5.1437855E-2,-1.2040616E-2,3.8E0,-1.0585027E-1,1.8390105E2,2.0613145E2,2E0,1.0964999E1,1.8343777E2,1.299016E-1,1.50650015E1,1.8392084E1,1.5003319E-2,-1.32530695E-2,-5.8030132E-2,-5.6505203E-4,3.5238363E-2,4.815102E-4,-6.195059E-2,7.3176958E-3,5.4142904E-3,-4.9091257E-2],"split_indices":[1,1,1,3,0,0,0,3,3,0,0,1,0,3,3,4,0,3,0,0,0,0,0,0,0,0,0,0,0,0,0],"split_type":[0,0,0,0,0,0,0,0,0,0,0,0,0,0,0,0,0,0,0,0,0,0,0,0,0,0,0,0,0,0,0],"sum_hessian":[1.22E2,1.18E2,4E0,1.16E2,2E0,3E0,1E0,2.3E1,9.3E1,2E0,1E0,2.2E1,1E0,6E0,8.7E1,2E1,2E0,5E0,1E0,9E0,7.8E1,9E0,1.1E1,1E0,1E0,3E0,2E0,5E0,4E0,7.5E1,3E0],"tree_param":{"num_deleted":"0","num_feature":"5","num_nodes":"31","size_leaf_vector":"1"}},{"base_weights":[-1.3802013E-3,-1.2626965E-1,1.7276382E-3,1.8364334E-2,-7.518569E-2,1.8503021E-2,-2.8049804E-2,9.572904E-2,-1.354522E-2,-1.2696116E-1,8.767951E-3,1.4674222E-1,-1.1726685E-1,-1.3571303E-1,3.8291789E-3,2.5173903E-2,-1.8046993E-1,1.1815013E-1,-6.8237975E-2,-9.358788E-3,2.88169E-1,-5.6138515E-2,-2.4949075E-3,-2.1408367E-1,-2.3414135E-2,2.7618217E-1,-1.3272658E-2,-3.4332278E-3,1.23583805E-2,-9.6384615E-2,-5.6516886E-2,-3.7778735E-2,1.6411062E-1,-2.4465981E-1,-8.841276E-3,2.0484282E-2,-6.398354E-2,-2.1056177E-3,1.0885299E-1,-3.081322E-3,-8.357926E-2,-1.2408257E-2,4.563904E-3,1.3865662E-2,1.1041632E-1,-9.2865564E-2,