{"learner":{"attributes":{"scikit_learn":"{\"_estimator_type\": \"regressor\"}"},"feature_names":["temperature_2m_mean","precipitation_sum","wind_speed_10m_max","wind_direction_10m_dominant","day_of_week"],"feature_types":["float","float","float","float","int"],"gradient_booster":{"model":{"gbtree_model_param":{"num_parallel_tree":"1","num_trees":"100"},"iteration_indptr":[0,1,2,3,4,5,6,7,8,9,10,11,12,13,14,15,16,17,18,19,20,21,22,23,24,25,26,27,28,29,30,31,32,33,34,35,36,37,38,39,40,41,42,43,44,45,46,47,48,49,50,51,52,53,54,55,56,57,58,59,60,61,62,63,64,65,66,67,68,69,70,71,72,73,74,75,76,77,78,79,80,81,82,83,84,85,86,87,88,89,90,91,92,93,94,95,96,97,98,99,100],"tree_info":[0,0,0,0,0,0,0,0,0,0,0,0,0,0,0,0,0,0,0,0,0,0,0,0,0,0,0,0,0,0,0,0,0,0,0,0,0,0,0,0,0,0,0,0,0,0,0,0,0,0,0,0,0,0,0,0,0,0,0,0,0,0,0,0,0,0,0,0,0,0,0,0,0,0,0,0,0,0,0,0,0,0,0,0,0,0,0,0,0,0,0,0,0,0,0,0,0,0,0,0],"trees":[{"base_weights":[4.6520697E-8,3.3620223E-1,-3.151895E-1,-9.7892225E-2,9.076293E-1,-4.5061478E-1,-2.321956E-1,3.3071995E-1,-8.4867585E-1,3.7243855E-1,1.6035768E0,-5.2319456E-2,-7.8032786E-1,6.307378E-1,-3.756148E-1,-4.1905734E-1,-1.2800546E0,8.586066E-1,-8.6885244E-1,2.3866122E0,5.5327874E-1,-6.2756145E-1,2.3693651E-1,-9.5491797E-1,2.4959017E-1,1.5300551E-1,1.7199454E0,-7.166276E-1,2.4959017E-1,-4.5061478E-1,-5.5737704E-1,1.097541E0,-6.721311E-2,-3.6721313E-1,-6.721311E-2,8.793443E-1,-5.040983E-2,-6.721311E-2,2.9938528E-1,-2.0245898E-1,-3.4355974E-1,6.327869E-1,4.180332E-2,-2.688524E-1,-1.202459E0,1.3258198E-1,-2.2561476E-1,7.4938536E-1,3.2786895E-2,-2.6065573E-1,-6.721311E-2,-2.0040984E-1,-5.040983E-2,9.9344276E-2,4.6598363E-1,-1.7213115E-1,1.4938526E-1,3.617828E-1,-1.0947967E-1,-1.6721311E-1,3.2786895E-2,-4.2571723E-1,-6.721311E-2],"categories":[],"categories_nodes":[],"categories_segments":[],"categories_sizes":[],"default_left":[0,0,0,0,0,0,0,0,0,0,0,0,0,0,0,0,0,0,0,0,0,0,0,0,0,0,0,0,0,0,0,0,0,0,0,0,0,0,0,0,0,0,0,0,0,0,0,0,0,0,0,0,0,0,0,0,0,0,0,0,0,0,0],"id":0,"left_children":[1,3,5,7,9,-1,11,13,15,17,19,21,23,25,-1,27,29,31,33,35,37,39,41,43,-1,45,47,49,-1,-1,51,53,-1,-1,-1,-1,-1,-1,-1,55,-1,-1,57,59,61,-1,-1,-1,-1,-1,-1,-1,-1,-1,-1,-1,-1,-1,-1,-1,-1,-1,-1],"loss_changes":[1.3139959E1,1.4972051E1,5.9553666E0,1.1543499E1,9.086845E0,0E0,5.9735246E0,1.1711471E1,1.8728514E0,1.0401618E1,7.726164E0,7.969125E0,5.016824E0,1.0143831E1,0E0,3.5743523E0,1.2537575E-1,3.3500872E0,8.7091255E-1,8.8391E0,2.2975059E0,3.2889276E0,1.1603289E1,2.054327E0,0E0,4.2548823E0,7.245596E0,3.302238E-1,0E0,0E0,1.6998231E-2,2.9783783E0,0E0,0E0,0E0,0E0,0E0,0E0,0E0,2.8864117E0,0E0,0E0,1.4644993E1,6.0643196E-1,1.801302E0,0E0,0E0,0E0,0E0,0E0,0E0,0E0,0E0,0E0,0E0,0E0,0E0,0E0,0E0,0E0,0E0,0E0,0E0],"parents":[2147483647,0,0,1,1,2,2,3,3,4,4,6,6,7,7,8,8,9,9,10,10,11,11,12,12,13,13,15,15,16,16,17,17,18,18,19,19,20,20,21,21,22,22,23,23,25,25,26,26,27,27,30,30,31,31,39,39,42,42,43,43,44,44],"right_children":[2,4,6,8,10,-1,12,14,16,18,20,22,24,26,-1,28,30,32,34,36,38,40,42,44,-1,46,48,50,-1,-1,52,54,-1,-1,-1,-1,-1,-1,-1,56,-1,-1,58,60,62,-1,-1,-1,-1,-1,-1,-1,-1,-1,-1,-1,-1,-1,-1,-1,-1,-1,-1],"split_conditions":[2.3079347E2,1.8536723E2,2.379468E2,5E-1,1E0,-4.5061478E-1,1.4717083E1,1.9427502E1,1.6739268E2,2E-1,2.3569693E1,5.012917E0,2.2725668E1,1.8415E1,-3.756148E-1,1.0500001E1,1.9211996E1,1.6519167E1,1.8466455E1,7.4E0,3.6999998E0,3.4337494E0,5.2295833E0,2E0,2.4959017E-1,1.6131666E1,1.0948973E1,1.27781044E2,2.4959017E-1,-4.5061478E-1,1.3275E0,2.1987863E2,-6.721311E-2,-3.6721313E-1,-6.721311E-2,8.793443E-1,-5.040983E-2,-6.721311E-2,2.9938528E-1,1.6170831E0,-3.4355974E-1,6.327869E-1,2.5765036E2,1.6696253E1,6E-1,1.3258198E-1,-2.2561476E-1,7.4938536E-1,3.2786895E-2,-2.6065573E-1,-6.721311E-2,-2.0040984E-1,-5.040983E-2,9.9344276E-2,4.6598363E-1,-1.7213115E-1,1.4938526E-1,3.617828E-1,-1.0947967E-1,-1.6721311E-1,3.2786895E-2,-4.2571723E-1,-6.721311E-2],"split_indices":[3,3,3,1,1,0,0,0,3,1,2,0,2,0,0,1,2,0,2,1,1,0,0,4,0,0,2,3,0,0,0,3,0,0,0,0,0,0,0,0,0,0,3,0,1,0,0,0,0,0,0,0,0,0,0,0,0,0,0,0,0,0,0],"split_type":[0,0,0,0,0,0,0,0,0,0,0,0,0,0,0,0,0,0,0,0,0,0,0,0,0,0,0,0,0,0,0,0,0,0,0,0,0,0,0,0,0,0,0,0,0,0,0,0,0,0,0,0,0,0,0,0,0,0,0,0,0,0,0],"sum_hessian":[1.22E2,5.9E1,6.3E1,3.4E1,2.5E1,3E0,6E1,2.2E1,1.2E1,1.5E1,1E1,4.6E1,1.4E1,1.9E1,3E0,7E0,5E0,1.1E1,4E0,5E0,5E0,1.5E1,3.1E1,1.3E1,1E0,1.4E1,5E0,6E0,1E0,3E0,2E0,9E0,2E0,2E0,2E0,4E0,1E0,2E0,3E0,9E0,6E0,2E0,2.9E1,4E0,9E0,1.1E1,3E0,3E0,2E0,4E0,2E0,1E0,1E0,4E0,5E0,6E0,3E0,7E0,2.2E1,2E0,2E0,7E0,2E0],"tree_param":{"num_deleted":"0","num_feature":"5","num_nodes":"63","size_leaf_vector":"1"}},{"base_weights":[2.8375087E-3,2.4631833E-1,-2.254701E-1,-8.184423E-2,6.7860186E-1,-2.7307144E-1,4.1601214E-1,2.4513546E-1,-6.5405107E-1,2.6468754E-1,1.218968E0,-1.2972979E-1,-8.144063E-1,4.759734E-1,-2.9110146E-1,-3.0312502E-1,-3.038832E-1,6.425342E-1,-6.9508195E-1,1.8087842E0,4.2599043E-1,-3.4922642E-1,-4.0830564E-2,2.876886E-1,-1.0409406E0,2.2076507E-1,1.8485655E0,-5.4847777E-1,2.1215166E-1,8.944627E-1,-8.4938526E-2,-2.937705E-1,-5.3770497E-2,6.6830164E-1,-4.2848364E-2,2.7290985E-1,-4.3288946E-2,3.0688202E-1,-3.226397E-1,2.6601213E-1,-1.3655224E-1,1.2540984E-1,-1.2286413E0,-6.782972E-2,2.422823E-1,7.371824E-1,9.467215E-2,-3.442624E-2,-2.0970495E-1,1.0448363E-1,4.4703692E-1,2.9692627E-2,-5.3770497E-2,5.4682378E-2,-5.3770497E-2,5.260965E-3,3.2266417E-1,-3.2286546E-1,-3.0735856E-2,-2.4028522E-1,-5.0098187E-1],"categories":[],"categories_nodes":[],"categories_segments":[],"categories_sizes":[],"default_left":[0,0,0,0,0,0,0,0,0,0,0,0,0,0,0,0,0,0,0,0,0,0,0,0,0,0,0,0,0,0,0,0,0,0,0,0,0,0,0,0,0,0,0,0,0,0,0,0,0,0,0,0,0,0,0,0,0,0,0,0,0],"id":1,"left_children":[1,3,5,7,9,11,-1,13,15,17,19,21,23,25,-1,27,-1,29,31,33,35,-1,37,39,41,43,45,47,-1,49,51,-1,-1,-1,-1,-1,53,55,57,-1,-1,-1,59,-1,-1,-1,-1,-1,-1,-1,-1,-1,-1,-1,-1,-1,-1,-1,-1,-1,-1],"loss_changes":[6.8929257E0,8.567095E0,5.2901444E0,6.7088313E0,5.492654E0,4.7828846E0,0E0,6.9151354E0,1.330235E0,6.248945E0,4.3742943E0,4.6421056E0,3.5450773E0,6.5978394E0,0E0,2.3709016E0,0E0,2.2752275E0,5.57384E-1,5.223217E0,1.4013478E0,0E0,4.802464E0,1.7385715E0,3.5259647E0,4.9028997E0,2.0239859E0,3.768301E-1,0E0,2.409082E0,8.710959E-2,0E0,0E0,0E0,0E0,0E0,1.5532786E-1,4.8741546E0,4.369796E0,0E0,0E0,0E0,5.498514E-1,0E0,0E0,0E0,0E0,0E0,0E0,0E0,0E0,0E0,0E0,0E0,0E0,0E0,0E0,0E0,0E0,0E0,0E0],"parents":[2147483647,0,0,1,1,2,2,3,3,4,4,5,5,7,7,8,8,9,9,10,10,11,11,12,12,13,13,15,15,17,17,18,18,19,19,20,20,22,22,23,23,24,24,25,25,26,26,27,27,29,29,30,30,36,36,37,37,38,38,42,42],"right_children":[2,4,6,8,10,12,-1,14,16,18,20,22,24,26,-1,28,-1,30,32,34,36,-1,38,40,42,44,46,48,-1,50,52,-1,-1,-1,-1,-1,54,56,58,-1,-1,-1,60,-1,-1,-1,-1,-1,-1,-1,-1,-1,-1,-1,-1,-1,-1,-1,-1,-1,-1],"split_conditions":[2.3079347E2,1.8536723E2,3.5765903E2,5E-1,1E0,3.0947507E2,4.1601214E-1,1.9427502E1,1.6739268E2,2E-1,2.3569693E1,2.379468E2,1.1368535E1,1.8692083E1,-2.9110146E-1,1.0500001E1,-3.038832E-1,1.6431667E1,1.8466455E1,7.4E0,1.8648105E2,-3.4922642E-1,1.6928614E1,1.3569167E1,1.0545832E0,4E0,1.9308752E1,1E0,2.1215166E-1,3E0,1.6519167E1,-2.937705E-1,-5.3770497E-2,6.6830164E-1,-4.2848364E-2,2.7290985E-1,8.625415E0,5E0,1.7423777E1,2.6601213E-1,-1.3655224E-1,1.2540984E-1,1E-1,-6.782972E-2,2.422823E-1,7.371824E-1,9.467215E-2,-3.442624E-2,-2.0970495E-1,1.0448363E-1,4.4703692E-1,2.9692627E-2,-5.3770497E-2,5.4682378E-2,-5.3770497E-2,5.260965E-3,3.2266417E-1,-3.2286546E-1,-3.0735856E-2,-2.4028522E-1,-5.0098187E-1],"split_indices":[3,3,3,1,1,3,0,0,3,1,2,3,2,0,0,1,0,0,2,1,3,0,2,0,0,4,0,4,0,4,0,0,0,0,0,0,0,4,2,0,0,0,1,0,0,0,0,0,0,0,0,0,0,0,0,0,0,0,0,0,0],"split_type":[0,0,0,0,0,0,0,0,0,0,0,0,0,0,0,0,0,0,0,0,0,0,0,0,0,0,0,0,0,0,0,0,0,0,0,0,0,0,0,0,0,0,0,0,0,0,0,0,0,0,0,0,0,0,0,0,0,0,0,0,0],"sum_hessian":[1.22E2,5.9E1,6.3E1,3.4E1,2.5E1,6.2E1,1E0,2.2E1,1.2E1,1.5E1,1E1,5E1,1.2E1,1.9E1,3E0,7E0,5E0,1.1E1,4E0,5E0,5E0,3E0,4.7E1,2E0,1E1,1.7E1,2E0,6E0,1E0,8E0,3E0,2E0,2E0,4E0,1E0,2E0,3E0,2.1E1,2.6E1,1E0,1E0,1E0,9E0,1E1,7E0,1E0,1E0,2E0,4E0,5E0,3E0,1E0,2E0,1E0,2E0,1.6E1,5E0,5E0,2.1E1,6E0,3E0],"tree_param":{"num_deleted":"0","num_feature":"5","num_nodes":"61","size_leaf_vector":"1"}},{"base_weights":[1.0223915E-2,1.9673146E-1,-1.6478667E-1,-4.6452638E-2,5.1652807E-1,-2.0482141E-1,3.5361034E-1,2.0269065E-1,-4.8367134E-1,1.4762068E-2,7.8130054E-1,-9.816185E-2,-6.074996E-1,7.452524E-1,-1.3635908E-1,-2.1618496E-1,-7.597079E-1,-2.1874088E-1,3.174433E-1,1.2839806E0,1.9180942E-1,-5.0289166E-1,6.857083E-2,2.4453528E-1,-7.846455E-1,-2.0337462E-2,6.849634E-1,-3.0960402E-1,3.4336054E-1,-4.188103E-1,1.8032889E-1,-2.808527E-1,-2.7118167E-1,2.6263708E-1,-4.6494773E-1,4.9120903E-1,5.4598683E-1,-1.2781008E-1,6.232863E-1,-4.808414E-2,-8.948377E-1,5.051773E-1,-7.1847215E-2,2.261103E-1,-1.1606941E-1,1.06598355E-1,-9.341756E-1,2.3987733E-1,-8.707722E-2,-1.48997E-2,-1.9437328E-1,-2.7540995E-2,-1.5937574E-1,-1.2476587E-1,2.7341188E-3,-1.6662173E-1,2.523873E-2,-3.226229E-2,2.0033453E-1,1.4020086E-2,-5.1619664E-2,4.648E-2,2.1832787E-1,-1.16912104E-1,1.1728964E-1,-3.0995828E-1,-9.595367E-2,5.0873194E-2,-1.1074123E-1,-3.324354E-1,-1.1886982E-1],"categories":[],"categories_nodes":[],"categories_segments":[],"categories_sizes":[],"default_left":[0,0,0,0,0,0,0,0,0,0,0,0,0,0,0,0,0,0,0,0,0,0,0,0,0,0,0,0,0,0,0,0,0,0,0,0,0,0,0,0,0,0,0,0,0,0,0,0,0,0,0,0,0,0,0,0,0,0,0,0,0,0,0,0,0,0,0,0,0,0,0],"id":2,"left_children":[1,3,5,7,9,11,-1,13,15,17,19,21,23,25,27,29,31,33,-1,35,37,39,41,43,45,47,-1,49,-1,51,-1,-1,53,-1,55,57,-1,59,61,63,65,-1,67,-1,-1,-1,69,-1,-1,-1,-1,-1,-1,-1,-1,-1,-1,-1,-1,-1,-1,-1,-1,-1,-1,-1,-1,-1,-1,-1,-1],"loss_changes":[4.0472364E0,4.6901617E0,3.6837387E0,3.9105895E0,3.442666E0,2.646184E0,0E0,4.332596E0,7.956307E-1,2.667788E0,4.791252E0,3.4760492E0,2.1540217E0,1.0643445E1,3.6829789E0,1.5765605E0,2.6338124E-1,2.8316326E0,0E0,2.9301767E0,1.3208381E0,2.6308727E0,8.513502E0,1.256118E0,2.2070026E0,1.7812927E0,0E0,1.1989664E0,0E0,2.0861495E-1,0E0,0E0,1.2547034E-1,0E0,4.4407296E-1,6.004286E-1,0E0,5.4388322E-2,8.296704E-2,1.352277E0,3.0596828E-1,0E0,2.5746574E0,0E0,0E0,0E0,4.9663734E-1,0E0,0E0,0E0,0E0,0E0,0E0,0E0,0E0,0E0,0E0,0E0,0E0,0E0,0E0,0E0,0E0,0E0,0E0,0E0,0E0,0E0,0E0,0E0,0E0],"parents":[2147483647,0,0,1,1,2,2,3,3,4,4,5,5,7,7,8,8,9,9,10,10,11,11,12,12,13,13,14,14,15,15,16,16,17,17,19,19,20,20,21,21,22,22,23,23,24,24,25,25,27,27,29,29,32,32,34,34,35,35,37,37,38,38,39,39,40,40,42,42,46,46],"right_children":[2,4,6,8,10,12,-1,14,16,18,20,22,24,26,28,30,32,34,-1,36,38,40,42,44,46,48,-1,50,-1,52,-1,-1,54,-1,56,58,-1,60,62,64,66,-1,68,-1,-1,-1,70,-1,-1,-1,-1,-1,-1,-1,-1,-1,-1,-1,-1,-1,-1,-1,-1,-1,-1,-1,-1,-1,-1,-1,-1],"split_conditions":[2.3079347E2,1.8536723E2,3.5765903E2,5E-1,1.8466455E1,3.0947507E2,3.5361034E-1,1.35999E2,1.6739268E2,1.8577497E1,2.4193098E1,5.012917E0,1.1368535E1,1.1521448E2,2.0991426E1,1.0500001E1,1.9211996E1,9.600937E0,3.174433E-1,4E0,3.6999998E0,3.4337494E0,5.2295833E0,1.3569167E1,1.0545832E0,7.541677E-2,6.849634E-1,1.6131666E1,3.4336054E-1,1E0,1.8032889E-1,-2.808527E-1,1.3275E0,2.6263708E-1,2.2612321E2,6.1004167E0,5.4598683E-1,1.3177501E1,8.625415E0,7.025001E-1,3E0,5.051773E-1,2.617364E2,2.261103E-1,-1.1606941E-1,1.06598355E-1,1.4428097E1,2.3987733E-1,-8.707722E-2,-1.48997E-2,-1.9437328E-1,-2.7540995E-2,-1.5937574E-1,-1.2476587E-1,2.7341188E-3,-1.6662173E-1,2.523873E-2,-3.226229E-2,2.0033453E-1,1.4020086E-2,-5.1619664E-2,4.648E-2,2.1832787E-1,-1.16912104E-1,1.1728964E-1,-3.0995828E-1,-9.595367E-2,5.0873194E-2,-1.1074123E-1,-3.324354E-1,-1.1886982E-1],"split_indices":[3,3,3,1,2,3,0,3,3,0,2,0,2,3,2,1,2,2,0,4,1,0,0,0,0,0,0,0,0,4,0,0,0,0,3,0,0,0,0,0,4,0,3,0,0,0,2,0,0,0,0,0,0,0,0,0,0,0,0,0,0,0,0,0,0,0,0,0,0,0,0],"split_type":[0,0,0,0,0,0,0,0,0,0,0,0,0,0,0,0,0,0,0,0,0,0,0,0,0,0,0,0,0,0,0,0,0,0,0,0,0,0,0,0,0,0,0,0,0,0,0,0,0,0,0,0,0,0,0,0,0,0,0,0,0,0,0,0,0,0,0,0,0,0,0],"sum_hessian":[1.22E2,5.9E1,6.3E1,3.4E1,2.5E1,6.2E1,1E0,2.2E1,1.2E1,9E0,1.6E1,5E1,1.2E1,8E0,1.4E1,7E0,5E0,8E0,1E0,8E0,8E0,1.4E1,3.6E1,2E0,1E1,6E0,2E0,1.3E1,1E0,6E0,1E0,3E0,2E0,1E0,7E0,4E0,4E0,5E0,3E0,7E0,7E0,2E0,3.4E1,1E0,1E0,1E0,9E0,1E0,5E0,8E0,5E0,2E0,4E0,1E0,1E0,6E0,1E0,1E0,3E0,1E0,4E0,1E0,2E0,4E0,3E0,5E0,2E0,1.9E1,1.5E1,6E0,3E0],"tree_param":{"num_deleted":"0","num_feature":"5","num_nodes":"71","size_leaf_vector":"1"}},{"base_weights":[2.4238544E-2,1.8673699E-1,-1.05640486E-1,-1.6448876E-2,5.1648784E-1,-3.25868E-2,-7.480321E-1,1.8413785E-1,-3.7006778E-1,3.0172738E-1,1.0031011E0,-6.1336386E-1,5.0963257E-2,-1.175336E-1,-3.2773316E-1,3.3836973E-1,-1.8991682E-1,-1.5215294E-1,-5.9894294E-1,-1.3932851E-1,7.601993E-1,4.7591484E-1,-3.2692436E-2,-7.83132E-1,8.625201E-2,1.2937658E-1,-4.3568876E-1,1.4134125E-1,1.4077507E0,-3.198696E-1,1.5327956E-1,-7.255361E-1,-2.305044E-1,-2.281129E-1,3.4283377E-2,3.287122E-1,4.6574545E-1,5.879982E-2,-2.9369617E-1,7.419439E-2,9.507721E-1,-5.842239E-1,9.06086E-2,-3.6520746E-2,1.4562137E-1,5.238606E-1,1.0962732E-1,-1.2794581E-1,-1.0665715E-2,-2.6014298E-1,-4.510723E-2,-1.0605099E-1,2.324009E-3,-7.603023E-2,-1.1427856E-2,2.1330836E-1,4.9604185E-2,-3.8587708E-2,1.06329836E-1,8.55453E-2,3.4230217E-1,-2.3255293E-1,8.422366E-2],"categories":[],"categories_nodes":[],"categories_segments":[],"categories_sizes":[],"default_left":[0,0,0,0,0,0,0,0,0,0,0,0,0,0,0,0,0,0,0,0,0,0,0,0,0,0,0,0,0,0,0,0,0,0,0,0,0,0,0,0,0,0,0,0,0,0,0,0,0,0,0,0,0,0,0,0,0,0,0,0,0,0,0],"id":3,"left_children":[1,3,5,7,9,11,13,15,17,19,21,23,25,-1,-1,27,-1,29,31,33,35,-1,-1,37,-1,39,41,43,45,47,-1,49,51,53,-1,-1,55,-1,-1,57,59,61,-1,-1,-1,-1,-1,-1,-1,-1,-1,-1,-1,-1,-1,-1,-1,-1,-1,-1,-1,-1,-1],"loss_changes":[2.6156592E0,3.6935353E0,3.21373E0,2.5507376E0,1.8919477E0,3.0882683E0,4.308889E-1,3.1130662E0,5.5724776E-1,3.3413053E0,4.064796E0,1.4486694E0,2.193328E0,0E0,0E0,4.0149975E0,0E0,1.0531145E0,1.1261177E-1,2.2871494E-1,2.8001213E-1,0E0,0E0,1.534256E0,0E0,2.1504521E0,1.0530682E0,1.6883639E0,4.2022467E-1,1.9702756E-1,0E0,1.9541597E-1,9.065235E-2,2.4026722E-2,0E0,0E0,3.2452774E-1,0E0,0E0,2.7169738E0,5.451417E-2,1.3738039E0,0E0,0E0,0E0,0E0,0E0,0E0,0E0,0E0,0E0,0E0,0E0,0E0,0E0,0E0,0E0,0E0,0E0,0E0,0E0,0E0,0E0],"parents":[2147483647,0,0,1,1,2,2,3,3,4,4,5,5,6,6,7,7,8,8,9,9,10,10,11,11,12,12,15,15,17,17,18,18,19,19,20,20,23,23,25,25,26,26,27,27,28,28,29,29,31,31,32,32,33,33,36,36,39,39,40,40,41,41],"right_children":[2,4,6,8,10,12,14,16,18,20,22,24,26,-1,-1,28,-1,30,32,34,36,-1,-1,38,-1,40,42,44,46,48,-1,50,52,54,-1,-1,56,-1,-1,58,60,62,-1,-1,-1,-1,-1,-1,-1,-1,-1,-1,-1,-1,-1,-1,-1,-1,-1,-1,-1,-1,-1],"split_conditions":[2.2443372E2,1.8536723E2,1.7423336E1,5E-1,4E0,1E0,1.6595179E1,1.9427502E1,1.6739268E2,1.3554584E1,2.3569693E1,1.6515001E1,1.4000001E0,-1.175336E-1,-3.2773316E-1,1.8692083E1,-1.8991682E-1,1.0500001E1,1.9211996E1,2.167786E1,1.476439E1,4.7591484E-1,-3.2692436E-2,3.031667E0,8.625201E-2,7E-1,3.2941504E2,4E0,1.9308752E1,1.27781044E2,1.5327956E-1,1.7727669E2,1.3275E0,1.2848332E1,3.4283377E-2,3.287122E-1,2E0,5.879982E-2,-2.9369617E-1,2.7663486E2,4.5420833E0,1.1123332E1,9.06086E-2,-3.6520746E-2,1.4562137E-1,5.238606E-1,1.0962732E-1,-1.2794581E-1,-1.0665715E-2,-2.6014298E-1,-4.510723E-2,-1.0605099E-1,2.324009E-3,-7.603023E-2,-1.1427856E-2,2.1330836E-1,4.9604185E-2,-3.8587708E-2,1.06329836E-1,8.55453E-2,3.4230217E-1,-2.3255293E-1,8.422366E-2],"split_indices":[3,3,0,1,4,4,2,0,3,0,2,0,1,0,0,0,0,1,2,2,2,0,0,0,0,1,3,4,0,3,0,3,0,0,0,0,4,0,0,3,0,0,0,0,0,0,0,0,0,0,0,0,0,0,0,0,0,0,0,0,0,0,0],"split_type":[0,0,0,0,0,0,0,0,0,0,0,0,0,0,0,0,0,0,0,0,0,0,0,0,0,0,0,0,0,0,0,0,0,0,0,0,0,0,0,0,0,0,0,0,0,0,0,0,0,0,0,0,0,0,0,0,0,0,0,0,0,0,0],"sum_hessian":[1.22E2,5.4E1,6.8E1,3.4E1,2E1,6.2E1,6E0,2.2E1,1.2E1,1.5E1,5E0,7E0,5.5E1,4E0,2E0,1.9E1,3E0,7E0,5E0,8E0,7E0,3E0,2E0,6E0,1E0,4.8E1,7E0,1.7E1,2E0,6E0,1E0,3E0,2E0,6E0,2E0,2E0,5E0,1E0,5E0,4.6E1,2E0,6E0,1E0,1E1,7E0,1E0,1E0,4E0,2E0,2E0,1E0,1E0,1E0,5E0,1E0,2E0,3E0,2.7E1,1.9E1,1E0,1E0,5E0,1E0],"tree_param":{"num_deleted":"0","num_feature":"5","num_nodes":"63","size_leaf_vector":"1"}},{"base_weights":[2.4966927E-2,-5.1456984E-2,2.1858868E-1,7.858681E-2,-3.3757335E-1,3.7839678E-1,-2.1877125E-1,2.1660902E-2,3.572728E-1,-6.2969425E-3,-5.5155826E-1,7.691853E-1,4.053951E-2,-5.525645E-1,2.2553492E-1,-3.090991E-1,2.0768806E-1,-3.7442875E-1,3.6687246E-1,-6.112683E-1,-6.9155335E-2,-2.661859E-1,1.0028782E0,-3.8318247E-1,2.2945501E-1,-7.931987E-2,-2.3080707E-1,1.2327569E-1,-7.7400185E-2,-7.4273187E-1,3.9978504E-1,4.450803E-1,1.3506928E-1,4.7164626E-2,-4.509687E-1,-1.8617734E-1,-7.0202625E-1,3.9358917E-3,-3.5055794E-2,1.9754113E-3,-1.2175908E-1,7.271347E-2,3.181342E-1,-1.5066263E-1,-4.0928602E-2,3.6174783E-1,-2.4390845E-1,-2.8715802E-2,-6.9781425E-3,2.3752285E-2,-2.4361373E-1,1.9085325E-1,-8.551769E-2,1.318096E-1,-3.9656337E-2,-8.448804E-3,-1.7032416E-1,-8.556034E-2,1.6634095E-2,-2.3470698E-1,2.7241088E-2,1.5048748E-1,-2.556441E-2,-9.0143345E-2,-1.961546E-2],"categories":[],"categories_nodes":[],"categories_segments":[],"categories_sizes":[],"default_left":[0,0,0,0,0,0,0,0,0,0,0,0,0,0,0,0,0,0,0,0,0,0,0,0,0,0,0,0,0,0,0,0,0,0,0,0,0,0,0,0,0,0,0,0,0,0,0,0,0,0,0,0,0,0,0,0,0,0,0,0,0,0,0,0,0],"id":4,"left_children":[1,3,5,7,9,11,13,15,-1,17,19,21,23,25,27,29,31,33,-1,35,37,39,41,43,45,47,-1,-1,-1,49,51,-1,53,-1,55,57,59,-1,-1,-1,-1,-1,-1,-1,-1,61,63,-1,-1,-1,-1,-1,-1,-1,-1,-1,-1,-1,-1,-1,-1,-1,-1,-1,-1],"loss_changes":[1.8313198E0,3.3380105E0,2.5290601E0,3.9000416E0,1.9813948E0,3.4016173E0,1.6076865E0,3.756017E0,0E0,5.8880057E0,4.4740105E-1,3.1704578E0,1.2886379E0,5.545496E-1,5.542162E-1,7.0596323E0,3.4131656E0,4.7781956E-1,0E0,4.4800472E-1,1.3305948E-2,1.1697239E-1,1.8078327E-1,7.8335226E-2,7.7708167E-1,5.315561E-4,0E0,0E0,0E0,8.618655E-1,1.6383753E0,0E0,3.1484392E0,0E0,4.283824E-1,1.1151974E-1,8.352995E-1,0E0,0E0,0E0,0E0,0E0,0E0,0E0,0E0,6.054243E-1,1.0650188E-2,0E0,0E0,0E0,0E0,0E0,0E0,0E0,0E0,0E0,0E0,0E0,0E0,0E0,0E0,0E0,0E0,0E0,0E0],"parents":[2147483647,0,0,1,1,2,2,3,3,4,4,5,5,6,6,7,7,9,9,10,10,11,11,12,12,13,13,14,14,15,15,16,16,17,17,19,19,20,20,21,21,22,22,23,23,24,24,25,25,29,29,30,30,32,32,34,34,35,35,36,36,45,45,46,46],"right_children":[2,4,6,8,10,12,14,16,-1,18,20,22,24,26,28,30,32,34,-1,36,38,40,42,44,46,48,-1,-1,-1,50,52,-1,54,-1,56,58,60,-1,-1,-1,-1,-1,-1,-1,-1,62,64,-1,-1,-1,-1,-1,-1,-1,-1,-1,-1,-1,-1,-1,-1,-1,-1,-1,-1],"split_conditions":[1.992235E1,1.6928614E1,2.617364E2,1.6801823E1,8.342083E0,2.4193098E1,2.94709E2,8.94625E0,3.572728E-1,7.8670826E0,2.5736548E2,1.7165486E2,2.4738707E1,1E-1,7.1150002E0,1.4021525E1,9.052501E0,-4.418333E0,3.6687246E-1,1.4002582E2,1.3056667E1,1.2396251E1,4.5420833E0,1.0825417E1,6E0,8.78375E0,-2.3080707E-1,1.2327569E-1,-7.7400185E-2,9.511088E0,1E-1,4.450803E-1,3E0,4.7164626E-2,2.5448679E2,9.733748E0,6E0,3.9358917E-3,-3.5055794E-2,1.9754113E-3,-1.2175908E-1,7.271347E-2,3.181342E-1,-1.5066263E-1,-4.0928602E-2,1.7273336E1,1.3275E0,-2.8715802E-2,-6.9781425E-3,2.3752285E-2,-2.4361373E-1,1.9085325E-1,-8.551769E-2,1.318096E-1,-3.9656337E-2,-8.448804E-3,-1.7032416E-1,-8.556034E-2,1.6634095E-2,-2.3470698E-1,2.7241088E-2,1.5048748E-1,-2.556441E-2,-9.0143345E-2,-1.961546E-2],"split_indices":[2,2,3,2,0,2,3,0,0,0,3,3,2,1,0,2,0,0,0,3,0,0,0,0,4,0,0,0,0,2,1,0,4,0,3,0,4,0,0,0,0,0,0,0,0,0,0,0,0,0,0,0,0,0,0,0,0,0,0,0,0,0,0,0,0],"split_type":[0,0,0,0,0,0,0,0,0,0,0,0,0,0,0,0,0,0,0,0,0,0,0,0,0,0,0,0,0,0,0,0,0,0,0,0,0,0,0,0,0,0,0,0,0,0,0,0,0,0,0,0,0,0,0,0,0,0,0,0,0,0,0,0,0],"sum_hessian":[1.22E2,8.8E1,3.4E1,6.1E1,2.7E1,2.5E1,9E0,5.9E1,2E0,1.1E1,1.6E1,1.1E1,1.4E1,5E0,4E0,2.1E1,3.8E1,9E0,2E0,1.4E1,2E0,2E0,9E0,4E0,1E1,2E0,3E0,3E0,1E0,1.3E1,8E0,1E0,3.7E1,1E0,8E0,3E0,1.1E1,1E0,1E0,1E0,1E0,1E0,8E0,2E0,2E0,8E0,2E0,1E0,1E0,1E0,1.2E1,6E0,2E0,1.7E1,2E1,2E0,6E0,2E0,1E0,1E1,1E0,6E0,2E0,1E0,1E0],"tree_param":{"num_deleted":"0","num_feature":"5","num_nodes":"65","size_leaf_vector":"1"}},{"base_weights":[2.2206457E-2,6.5104584E-3,2.9056776E-1,4.8289053E-2,-3.4750152E-1,-1.7824532E-1,9.161518E-2,2.3802714E-1,-4.7560012E-1,1.8074584E-1,-2.5961107E-1,3.2806325E-1,5.7577793E-2,1.8219274E-1,-7.508052E-2,-6.506846E-1,-6.531179E-3,-4.5661014E-2,-4.4471544E-1,-3.000778E-1,8.044553E-2,-2.2035861E-1,-7.983045E-2,1.374921E-1,-6.5790154E-2,7.0417084E-2,-6.749218E-2,-1.6554308E-1,6.1806466E-2,-8.390913E-2,3.5697702E-2,5.8525946E-2,3.3455016E-3],"categories":[],"categories_nodes":[],"categories_segments":[],"categories_sizes":[],"default_left":[0,0,0,0,0,0,0,0,0,0,0,0,0,0,0,0,0,0,0,0,0,0,0,0,0,0,0,0,0,0,0,0,0],"id":5,"left_children":[1,3,-1,5,7,9,11,13,15,-1,17,-1,19,-1,-1,21,23,25,27,-1,29,-1,-1,31,-1,-1,-1,-1,-1,-1,-1,-1,-1],"loss_changes":[1.8207301E0,1.8211756E0,0E0,1.0959642E0,1.0882758E0,1.2998583E0,3.1086192E0,6.9294643E-1,8.9914393E-1,0E0,6.529465E-1,0E0,2.2817874E0,0E0,0E0,6.2500715E-2,1.5272704E-1,5.052959E-1,7.408997E-1,0E0,1.2826931E0,0E0,0E0,1.9653957E-2,0E0,0E0,0E0,0E0,0E0,0E0,0E0,0E0,0E0],"parents":[2147483647,0,0,1,1,3,3,4,4,5,5,6,6,7,7,8,8,10,10,12,12,15,15,16,16,17,17,18,18,20,20,23,23],"right_children":[2,4,-1,6,8,10,12,14,16,-1,18,-1,20,-1,-1,22,24,26,28,-1,30,-1,-1,32,-1,-1,-1,-1,-1,-1,-1,-1,-1],"split_conditions":[3.5765903E2,3.0947507E2,2.9056776E-1,5.012917E0,1.1368535E1,2.6718569E1,5.2295833E0,1.3569167E1,1.503835E1,1.8074584E-1,3.4337494E0,3.2806325E-1,5.473333E0,1.8219274E-1,-7.508052E-2,1.3112918E1,1.3056667E1,1.710284E1,1.4E0,-3.000778E-1,1.2276044E2,-2.2035861E-1,-7.983045E-2,1.0545832E0,-6.5790154E-2,7.0417084E-2,-6.749218E-2,-1.6554308E-1,6.1806466E-2,-8.390913E-2,3.5697702E-2,5.8525946E-2,3.3455016E-3],"split_indices":[3,3,0,0,2,3,0,0,2,0,0,0,0,0,0,0,0,2,1,0,3,0,0,0,0,0,0,0,0,0,0,0,0],"split_type":[0,0,0,0,0,0,0,0,0,0,0,0,0,0,0,0,0,0,0,0,0,0,0,0,0,0,0,0,0,0,0,0,0],"sum_hessian":[1.22E2,1.21E2,1E0,1.09E2,1.2E1,1.7E1,9.2E1,2E0,1E1,1E0,1.6E1,2E0,9E1,1E0,1E0,7E0,3E0,8E0,8E0,1E0,8.9E1,5E0,2E0,2E0,1E0,3E0,5E0,7E0,1E0,8E0,8.1E1,1E0,1E0],"tree_param":{"num_deleted":"0","num_feature":"5","num_nodes":"33","size_leaf_vector":"1"}},{"base_weights":[1.6790684E-2,3.4319968E-3,2.469826E-1,2.2058876E-1,-4.1310396E-2,-2.5645998E-1,5.3388494E-1,-4.618551E-1,9.421149E-3,-4.0480113E-1,1.75156E-1,7.762702E-1,-2.0554957E-1,-5.4857975E-1,-4.7729533E-2,7.635602E-2,-2.903713E-1,1.4834798E-2,-4.8875108E-1,6.882981E-2,9.9903885E-3,8.92388E-1,-4.0318467E-2,-8.802742E-2,8.7113865E-3,-1.8535866E-1,-6.121826E-2,-9.394257E-2,7.246428E-2,-3.580417E-2,3.208616E-1,-5.260641E-1,4.0541127E-2,-1.8769406E-1,-4.299193E-2,4.646676E-1,1.4506356E-1,1.065458E-2,-1.0380879E-1,2.7312988E-1,4.7227714E-2,-8.0839306E-2,-2.186313E-1,1.05325535E-1,-1.0733224E-1],"categories":[],"categories_nodes":[],"categories_segments":[],"categories_sizes":[],"default_left":[0,0,0,0,0,0,0,0,0,0,0,0,0,0,0,0,0,0,0,0,0,0,0,0,0,0,0,0,0,0,0,0,0,0,0,0,0,0,0,0,0,0,0,0,0],"id":6,"left_children":[1,3,-1,5,7,9,11,13,15,17,19,21,23,25,27,29,31,-1,33,-1,-1,35,-1,-1,-1,-1,-1,-1,-1,37,39,41,43,-1,-1,-1,-1,-1,-1,-1,-1,-1,-1,-1,-1],"loss_changes":[1.3223244E0,1.1944785E0,0E0,3.2755282E0,2.1805096E0,6.471411E-1,2.4895265E0,3.6888003E-1,1.8682958E0,2.911085E-1,1.5457816E-2,1.1773763E0,9.0978086E-2,8.874035E-2,3.059718E-1,2.0956967E0,1.3472197E0,0E0,1.9408023E-1,0E0,0E0,1.6667032E0,0E0,0E0,0E0,0E0,0E0,0E0,0E0,1.1849185E0,2.1692455E0,3.2376742E-1,1.1151643E0,0E0,0E0,0E0,0E0,0E0,0E0,0E0,0E0,0E0,0E0,0E0,0E0],"parents":[2147483647,0,0,1,1,3,3,4,4,5,5,6,6,7,7,8,8,9,9,10,10,11,11,12,12,13,13,14,14,15,15,16,16,18,18,21,21,29,29,30,30,31,31,32,32],"right_children":[2,4,-1,6,8,10,12,14,16,18,20,22,24,26,28,30,32,-1,34,-1,-1,36,-1,-1,-1,-1,-1,-1,-1,38,40,42,44,-1,-1,-1,-1,-1,-1,-1,-1,-1,-1,-1,-1],"split_conditions":[3.5765903E2,1.1368535E1,2.469826E-1,1.3129581E1,1.3036026E1,1.0009036E1,2E-1,3E-1,1.7273336E1,1.5043593E2,3.3608334E0,1.9427502E1,1.7921251E1,1.5392083E1,9.139998E0,5E0,6E-1,1.4834798E-2,9.885262E0,6.882981E-2,9.9903885E-3,1.35999E2,-4.0318467E-2,-8.802742E-2,8.7113865E-3,-1.8535866E-1,-6.121826E-2,-9.394257E-2,7.246428E-2,4E0,1.4494192E1,4E0,1.885875E1,-1.8769406E-1,-4.299193E-2,4.646676E-1,1.4506356E-1,1.065458E-2,-1.0380879E-1,2.7312988E-1,4.7227714E-2,-8.0839306E-2,-2.186313E-1,1.05325535E-1,-1.0733224E-1],"split_indices":[3,2,0,0,2,2,1,1,0,3,0,0,0,0,0,4,1,0,2,0,0,3,0,0,0,0,0,0,0,4,2,4,0,0,0,0,0,0,0,0,0,0,0,0,0],"split_type":[0,0,0,0,0,0,0,0,0,0,0,0,0,0,0,0,0,0,0,0,0,0,0,0,0,0,0,0,0,0,0,0,0,0,0,0,0,0,0,0,0,0,0,0,0],"sum_hessian":[1.22E2,1.21E2,1E0,2E1,1.01E2,8E0,1.2E1,1E1,9.1E1,6E0,2E0,9E0,3E0,8E0,2E0,7.5E1,1.6E1,1E0,5E0,1E0,1E0,8E0,1E0,2E0,1E0,6E0,2E0,1E0,1E0,5.2E1,2.3E1,9E0,7E0,3E0,2E0,2E0,6E0,4.3E1,9E0,4E0,1.9E1,5E0,4E0,4E0,3E0],"tree_param":{"num_deleted":"0","num_feature":"5","num_nodes":"45","size_leaf_vector":"1"}},{"base_weights":[1.3848731E-2,2.4903764E-3,2.0993522E-1,6.2754594E-2,-1.323767E-1,-1.3000606E-2,2.3516065E-1,1.19959995E-1,-2.8457144E-1,1.3907544E-1,-1.9176878E-1,5.164835E-1,-5.5750133E-3,-1.2169913E-1,6.276181E-1,2.9398394E-1,-4.149817E-1,2.1651821E-1,-4.7651416E-1,3.0271742E-1,-3.7101263E-1,-2.2666164E-1,6.877787E-1,-2.3658703E-1,1.7472045E-1,3.5805922E-2,-3.1786638E-1,-1.0120046E-2,2.4041681E-1,1.3555114E-1,-5.0614323E-2,-1.2884296E-2,-4.3230203E-1,3.0157836E-2,3.680815E-1,-2.216656E-1,4.65899E-2,-1.9198097E-2,2.8057015E-1,-3.6693502E-2,-1.3870168E-1,-5.2737594E-3,-9.672398E-2,1.4195368E-1,3.0923557E-1,-1.13333814E-1,-3.1366266E-2,1.24255374E-1,-2.9906332E-2,5.7922628E-2,-3.912452E-2,-1.158918E-1,-6.6161873E-3,-1.8140186E-1,-9.8265044E-2],"categories":[],"categories_nodes":[],"categories_segments":[],"categories_sizes":[],"default_left":[0,0,0,0,0,0,0,0,0,0,0,0,0,0,0,0,0,0,0,0,0,0,0,0,0,0,0,0,0,0,0,0,0,0,0,0,0,0,0,0,0,0,0,0,0,0,0,0,0,0,0,0,0,0,0],"id":7,"left_children":[1,3,-1,5,7,9,11,13,15,17,19,21,23,25,27,29,31,33,35,37,39,41,43,45,47,49,51,-1,-1,-1,-1,-1,53,-1,-1,-1,-1,-1,-1,-1,-1,-1,-1,-1,-1,-1,-1,-1,-1,-1,-1,-1,-1,-1,-1],"loss_changes":[9.5656216E-1,9.998816E-1,0E0,1.1132127E0,1.4935012E0,1.6578519E0,1.7637149E0,1.9165837E0,1.9327873E0,1.6763818E0,2.5940533E0,1.6834595E0,6.660929E-1,3.5125214E-1,6.016531E-1,4.4142348E-1,1.10309124E-1,3.392683E0,7.778276E-1,1.915455E0,4.2042232E-1,5.4392174E-2,2.4834538E-1,9.09957E-2,6.326875E-1,2.0817037E-1,9.270686E-2,0E0,0E0,0E0,0E0,0E0,1.4500642E-1,0E0,0E0,0E0,0E0,0E0,0E0,0E0,0E0,0E0,0E0,0E0,0E0,0E0,0E0,0E0,0E0,0E0,0E0,0E0,0E0,0E0,0E0],"parents":[2147483647,0,0,1,1,3,3,4,4,5,5,6,6,7,7,8,8,9,9,10,10,11,11,12,12,13,13,14,14,15,15,16,16,17,17,18,18,19,19,20,20,21,21,22,22,23,23,24,24,25,25,26,26,32,32],"right_children":[2,4,-1,6,8,10,12,14,16,18,20,22,24,26,28,30,32,34,36,38,40,42,44,46,48,50,52,-1,-1,-1,-1,-1,54,-1,-1,-1,-1,-1,-1,-1,-1,-1,-1,-1,-1,-1,-1,-1,-1,-1,-1,-1,-1,-1,-1],"split_conditions":[3.5765903E2,2.617364E2,2.0993522E-1,1.992235E1,7.1150002E0,1.61198E1,2.4193098E1,4.8691664E0,1.1368535E1,2.5765036E2,8.342083E0,1.7165486E2,1.3177501E1,3.4337494E0,2.7959967E2,1.4717083E1,2.6263257E2,2.3909608E2,1.4021525E1,7.8670826E0,1.6862455E1,1.2396251E1,6E0,2.4738707E1,1.7273336E1,3E0,3E0,-1.0120046E-2,2.4041681E-1,1.3555114E-1,-5.0614323E-2,-1.2884296E-2,2.7761517E2,3.0157836E-2,3.680815E-1,-2.216656E-1,4.65899E-2,-1.9198097E-2,2.8057015E-1,-3.6693502E-2,-1.3870168E-1,-5.2737594E-3,-9.672398E-2,1.4195368E-1,3.0923557E-1,-1.13333814E-1,-3.1366266E-2,1.24255374E-1,-2.9906332E-2,5.7922628E-2,-3.912452E-2,-1.158918E-1,-6.6161873E-3,-1.8140186E-1,-9.8265044E-2],"split_indices":[3,3,0,2,0,2,2,0,2,3,0,3,0,0,3,0,3,3,2,0,2,0,4,2,0,4,4,0,0,0,0,0,3,0,0,0,0,0,0,0,0,0,0,0,0,0,0,0,0,0,0,0,0,0,0],"split_type":[0,0,0,0,0,0,0,0,0,0,0,0,0,0,0,0,0,0,0,0,0,0,0,0,0,0,0,0,0,0,0,0,0,0,0,0,0,0,0,0,0,0,0,0,0,0,0,0,0,0,0,0,0,0,0],"sum_hessian":[1.22E2,1.21E2,1E0,8.4E1,3.7E1,5.9E1,2.5E1,1.4E1,2.3E1,3.2E1,2.7E1,1.1E1,1.4E1,1E1,4E0,4E0,1.9E1,2.9E1,3E0,7E0,2E1,2E0,9E0,6E0,8E0,6E0,4E0,1E0,3E0,3E0,1E0,1E0,1.8E1,2.7E1,2E0,2E0,1E0,5E0,2E0,6E0,1.4E1,1E0,1E0,7E0,2E0,2E0,4E0,4E0,4E0,3E0,3E0,3E0,1E0,5E0,1.3E1],"tree_param":{"num_deleted":"0","num_feature":"5","num_nodes":"55","size_leaf_vector":"1"}},{"base_weights":[1.5685076E-2,6.0625533E-3,1.7844494E-1,2.0047043E-1,-1.8962886E-2,-6.000004E-2,6.8131727E-1,-6.2374063E-2,1.2201796E-1,1.475121E-1,-1.7593493E-1,-8.3479166E-2,3.657024E-1,-2.1489312E-1,-1.4485526E-2,7.1844316E-1,1.2986707E-2,4.9468162E-3,-8.24686E-2,-6.555702E-2,2.7991392E-2,-1.2324278E-1,-1.3955867E-1,2.8941226E-1,-6.849432E-2,5.998321E-2,2.4738847E-1,-1.0260119E-1,1.735111E-1,-5.8386205E-3,-1.2891583E-1,-3.5629787E-2,1.4439371E-1,5.6106388E-3,-8.62963E-2,-6.325116E-2,6.620942E-2,1.0569624E-1,-2.2728825E-2],"categories":[],"categories_nodes":[],"categories_segments":[],"categories_sizes":[],"default_left":[0,0,0,0,0,0,0,0,0,0,0,0,0,0,0,0,0,0,0,0,0,0,0,0,0,0,0,0,0,0,0,0,0,0,0,0,0,0,0],"id":8,"left_children":[1,3,-1,5,7,9,11,13,15,-1,17,19,-1,21,23,25,27,-1,-1,-1,-1,29,-1,31,33,-1,-1,35,37,-1,-1,-1,-1,-1,-1,-1,-1,-1,-1],"loss_changes":[6.818366E-1,5.9734887E-1,0E0,1.7943287E0,6.7470646E-1,7.261293E-1,2.1578817E0,6.1041594E-1,1.6814234E0,0E0,1.7591429E-1,9.201013E-2,0E0,4.0147388E-1,1.086678E0,5.5348158E-2,4.4456002E-1,0E0,0E0,0E0,0E0,5.0053865E-1,0E0,8.404577E-1,1.0755383E0,0E0,0E0,5.36428E-1,4.7241864E-1,0E0,0E0,0E0,0E0,0E0,0E0,0E0,0E0,0E0,0E0],"parents":[2147483647,0,0,1,1,3,3,4,4,5,5,6,6,7,7,8,8,10,10,11,11,13,13,14,14,15,15,16,16,21,21,23,23,24,24,27,27,28,28],"right_children":[2,4,-1,6,8,10,12,14,16,-1,18,20,-1,22,24,26,28,-1,-1,-1,-1,30,-1,32,34,-1,-1,36,38,-1,-1,-1,-1,-1,-1,-1,-1,-1,-1],"split_conditions":[3.5765903E2,1.4002582E2,1.7844494E-1,1.2276044E2,2.2725668E1,7.541677E-2,1.0964999E1,1.8994312E2,2.3946089E1,1.475121E-1,7.247434E1,9.733748E0,3.657024E-1,1.839878E1,2.2443372E2,6.3608336E0,1.3177501E1,4.9468162E-3,-8.24686E-2,-6.555702E-2,2.7991392E-2,5E0,-1.3955867E-1,2E0,1.4717083E1,5.998321E-2,2.4738847E-1,2.94709E2,1.7273336E1,-5.8386205E-3,-1.2891583E-1,-3.5629787E-2,1.4439371E-1,5.6106388E-3,-8.62963E-2,-6.325116E-2,6.620942E-2,1.0569624E-1,-2.2728825E-2],"split_indices":[3,3,0,3,2,0,0,3,2,0,3,0,0,2,3,0,0,0,0,0,0,4,0,4,0,0,0,3,0,0,0,0,0,0,0,0,0,0,0],"split_type":[0,0,0,0,0,0,0,0,0,0,0,0,0,0,0,0,0,0,0,0,0,0,0,0,0,0,0,0,0,0,0,0,0,0,0,0,0,0,0],"sum_hessian":[1.22E2,1.21E2,1E0,1.3E1,1.08E2,9E0,4E0,8.3E1,2.5E1,1E0,8E0,2E0,2E0,1.9E1,6.4E1,3E0,2.2E1,3E0,5E0,1E0,1E0,1.5E1,4E0,9E0,5.5E1,1E0,2E0,1.3E1,9E0,1.2E1,3E0,3E0,6E0,4E1,1.5E1,1E1,3E0,5E0,4E0],"tree_param":{"num_deleted":"0","num_feature":"5","num_nodes":"39","size_leaf_vector":"1"}},{"base_weights":[1.6862769E-2,-6.44964E-2,6.8025626E-2,-3.5672355E-1,5.4237213E-2,2.759403E-1,4.440461E-2,3.859675E-2,-4.2582667E-1,1.0998268E-1,-4.052858E-1,2.329902E-1,-2.3740325E-2,-3.1606812E-2,4.8975352E-2,2.7423264E-2,-4.8115832E-1,-8.989897E-2,2.91637E-1,-1.7463148E-2,-1.5047224E-1,-1.0652578E-1,3.2452706E-1,-1.0180871E-1,1.777937E-1,-5.25188E-1,-6.129241E-3,1.2538527E-1,-1.5161902E-1,6.2840265E-1,1.3967815E-1,1.110305E-1,-8.657204E-2,7.7581155E-1,1.6070667E-1,1.21707E-1,-1.5968244E-1,-3.6868723E-3,4.808758E-1,-6.568425E-2,-1.7231391E-1,-6.549033E-2,2.5899572E-2,2.4037282E-1,-9.4436295E-3,1.171307E-1,-3.9310005E-2,4.7824718E-2,2.1390081E-3,4.7824718E-2,2.784415E-1,-6.5115863E-3,9.604817E-2,-6.273939E-2,1.762613E-1,2.1911997E-2,-8.380909E-2,-2.640187E-2,4.976207E-2,2.2114038E-1,-6.328357E-3],"categories":[],"categories_nodes":[],"categories_segments":[],"categories_sizes":[],"default_left":[0,0,0,0,0,0,0,0,0,0,0,0,0,0,0,0,0,0,0,0,0,0,0,0,0,0,0,0,0,0,0,0,0,0,0,0,0,0,0,0,0,0,0,0,0,0,0,0,0,0,0,0,0,0,0,0,0,0,0,0,0],"id":9,"left_children":[1,3,5,7,9,-1,11,13,15,17,19,21,23,-1,-1,-1,25,27,29,-1,-1,31,33,35,37,39,-1,-1,41,43,45,47,-1,49,51,53,55,57,59,-1,-1,-1,-1,-1,-1,-1,-1,-1,-1,-1,-1,-1,-1,-1,-1,-1,-1,-1,-1,-1,-1],"loss_changes":[5.1638323E-1,1.6848125E0,1.4882615E0,3.988856E-1,9.411457E-1,0E0,9.6936774E-1,7.103255E-2,3.874185E-1,1.1881176E0,1.0448027E-1,6.5613496E-1,8.991733E-1,0E0,0E0,0E0,2.124126E-1,5.6488156E-1,7.821928E-1,0E0,0E0,2.3006853E-1,1.0581957E0,5.4979765E-1,8.818291E-1,2.4886131E-2,0E0,0E0,2.568522E-1,5.9549177E-1,9.336382E-1,1.3945103E-2,0E0,2.2761416E-1,3.8507098E-1,1.5099039E0,9.395373E-1,1.718674E-1,7.873553E-1,0E0,0E0,0E0,0E0,0E0,0E0,0E0,0E0,0E0,0E0,0E0,0E0,0E0,0E0,0E0,0E0,0E0,0E0,0E0,0E0,0E0,0E0],"parents":[2147483647,0,0,1,1,2,2,3,3,4,4,6,6,7,7,8,8,9,9,10,10,11,11,12,12,16,16,17,17,18,18,21,21,22,22,23,23,24,24,25,25,28,28,29,29,30,30,31,31,33,33,34,34,35,35,36,36,37,37,38,38],"right_children":[2,4,6,8,10,-1,12,14,16,18,20,22,24,-1,-1,-1,26,28,30,-1,-1,32,34,36,38,40,-1,-1,42,44,46,48,-1,50,52,54,56,58,60,-1,-1,-1,-1,-1,-1,-1,-1,-1,-1,-1,-1,-1,-1,-1,-1,-1,-1,-1,-1,-1,-1],"split_conditions":[8.94625E0,1.4021525E1,9.052501E0,3.3608334E0,8.625415E0,2.759403E-1,1.2348052E1,1.6170831E0,9.511088E0,5.012917E0,3E0,9.19939E0,2.2725668E1,-3.1606812E-2,4.8975352E-2,2.7423264E-2,8.73375E0,2.6718569E1,5.87125E0,-1.7463148E-2,-1.5047224E-1,3E0,9.901636E0,1.1081664E1,5E0,4.9275002E0,-6.129241E-3,1.2538527E-1,2.94709E2,1.6928614E1,2.4953912E2,1.3560834E1,-8.657204E-2,9.292255E0,4E0,1.0483749E1,3E0,3.7E0,1.7273336E1,-6.568425E-2,-1.7231391E-1,-6.549033E-2,2.5899572E-2,2.4037282E-1,-9.4436295E-3,1.171307E-1,-3.9310005E-2,4.7824718E-2,2.1390081E-3,4.7824718E-2,2.784415E-1,-6.5115863E-3,9.604817E-2,-6.273939E-2,1.762613E-1,2.1911997E-2,-8.380909E-2,-2.640187E-2,4.976207E-2,2.2114038E-1,-6.328357E-3],"split_indices":[0,2,0,0,0,0,2,0,2,0,4,2,2,0,0,0,0,3,0,0,0,4,2,0,4,0,0,0,3,2,3,0,0,2,4,0,4,1,0,0,0,0,0,0,0,0,0,0,0,0,0,0,0,0,0,0,0,0,0,0,0],"split_type":[0,0,0,0,0,0,0,0,0,0,0,0,0,0,0,0,0,0,0,0,0,0,0,0,0,0,0,0,0,0,0,0,0,0,0,0,0,0,0,0,0,0,0,0,0,0,0,0,0,0,0,0,0,0,0,0,0,0,0,0,0],"sum_hessian":[1.22E2,4.7E1,7.5E1,1.3E1,3.4E1,1E0,7.4E1,2E0,1.1E1,3.1E1,3E0,1.9E1,5.5E1,1E0,1E0,1E0,1E1,1.5E1,1.6E1,1E0,2E0,4E0,1.5E1,4E1,1.5E1,9E0,1E0,1E0,1.4E1,4E0,1.2E1,2E0,2E0,3E0,1.2E1,8E0,3.2E1,1E1,5E0,2E0,7E0,1.1E1,3E0,3E0,1E0,6E0,6E0,1E0,1E0,1E0,2E0,6E0,6E0,5E0,3E0,1.1E1,2.1E1,7E0,3E0,3E0,2E0],"tree_param":{"num_deleted":"0","num_feature":"5","num_nodes":"61","size_leaf_vector":"1"}},{"base_weights":[1.9708036E-2,3.0472344E-2,-3.0814826E-1,-4.457929E-2,7.940394E-2,-1.2161975E-1,-2.4593354E-3,-2.6394475E-1,4.4440586E-2,2.3454924E-1,5.8789246E-2,-1.9130488E-1,-1.8123946E-1,1.04856916E-1,-2.6504782E-1,2.116935E-1,1.8231437E-2,-5.3410243E-2,-3.0187026E-1,4.5907583E-2,1.8602951E-1,-2.9735804E-2,-1.1258097E-1,2.9753682E-1,-6.925765E-2,-2.2767521E-2,3.2019064E-1,9.534143E-3,-3.7574522E-2,-1.2990974E-1,-2.8572148E-2,7.6669715E-2,-1.5220185E-2,1.462555E-3,-1.4843667E-2,1.2373215E-1,-1.9231958E-2,2.9960113E-2,-2.8920474E-2,-3.890401E-2,1.2503473E-1],"categories":[],"categories_nodes":[],"categories_segments":[],"categories_sizes":[],"default_left":[0,0,0,0,0,0,0,0,0,0,0,0,0,0,0,0,0,0,0,0,0,0,0,0,0,0,0,0,0,0,0,0,0,0,0,0,0,0,0,0,0],"id":10,"left_children":[1,3,5,7,9,-1,-1,11,13,-1,15,17,-1,19,21,23,25,27,29,31,-1,33,-1,35,-1,37,39,-1,-1,-1,-1,-1,-1,-1,-1,-1,-1,-1,-1,-1,-1],"loss_changes":[4.4347507E-1,4.4422728E-1,1.1335844E-1,9.490683E-1,1.0110996E0,0E0,0E0,2.3038244E-1,6.8222743E-1,0E0,4.4264573E-1,1.8207982E-1,0E0,8.8272685E-1,1.4446047E-1,6.3854146E-1,7.253306E-1,4.6820063E-2,1.4847189E-1,5.8029294E-1,0E0,2.2912014E-3,0E0,5.6664395E-1,0E0,4.7919148E-1,3.582251E-1,0E0,0E0,0E0,0E0,0E0,0E0,0E0,0E0,0E0,0E0,0E0,0E0,0E0,0E0],"parents":[2147483647,0,0,1,1,2,2,3,3,4,4,7,7,8,8,10,10,11,11,13,13,14,14,15,15,16,16,17,17,18,18,19,19,21,21,23,23,25,25,26,26],"right_children":[2,4,6,8,10,-1,-1,12,14,-1,16,18,-1,20,22,24,26,28,30,32,-1,34,-1,36,-1,38,40,-1,-1,-1,-1,-1,-1,-1,-1,-1,-1,-1,-1,-1,-1],"split_conditions":[1.8000002E1,8.94625E0,1.21379175E1,1.4021525E1,9.052501E0,-1.2161975E-1,-2.4593354E-3,1.3830749E1,8.342083E0,2.3454924E-1,1.1368535E1,6.83375E0,-1.8123946E-1,7.887916E0,3E0,6E0,5.1E0,1.1212135E1,7.967083E0,1.6928614E1,1.8602951E-1,8.625415E0,-1.1258097E-1,2E-1,-6.925765E-2,1.3787918E1,1.3350371E1,9.534143E-3,-3.7574522E-2,-1.2990974E-1,-2.8572148E-2,7.6669715E-2,-1.5220185E-2,1.462555E-3,-1.4843667E-2,1.2373215E-1,-1.9231958E-2,2.9960113E-2,-2.8920474E-2,-3.890401E-2,1.2503473E-1],"split_indices":[1,0,0,2,0,0,0,2,0,0,2,0,0,0,4,4,1,2,0,2,0,0,0,1,0,0,2,0,0,0,0,0,0,0,0,0,0,0,0,0,0],"split_type":[0,0,0,0,0,0,0,0,0,0,0,0,0,0,0,0,0,0,0,0,0,0,0,0,0,0,0,0,0,0,0,0,0,0,0,0,0,0,0,0,0],"sum_hessian":[1.22E2,1.19E2,3E0,4.7E1,7.2E1,2E0,1E0,1.3E1,3.4E1,1E0,7.1E1,1.2E1,1E0,2.9E1,5E0,1.4E1,5.7E1,6E0,6E0,2.7E1,2E0,2E0,3E0,1.2E1,2E0,5.1E1,6E0,3E0,3E0,3E0,3E0,8E0,1.9E1,1E0,1E0,9E0,3E0,1.9E1,3.2E1,1E0,5E0],"tree_param":{"num_deleted":"0","num_feature":"5","num_nodes":"41","size_leaf_vector":"1"}},{"base_weights":[1.368699E-2,6.5436093E-3,1.3277693E-1,1.5001804E-2,-2.4672356E-1,2.3536295E-2,-2.362489E-1,-9.7295806E-2,-2.0904422E-3,3.2057643E-2,-2.2307588E-1,-2.1229614E-2,-8.034649E-2,1.7206986E-2,4.3243632E-1,-1.1443628E-1,3.7808884E-2,7.339783E-3,-1.1610292E-1,2.3075002E-1,1.9141186E-2],"categories":[],"categories_nodes":[],"categories_segments":[],"categories_sizes":[],"default_left":[0,0,0,0,0,0,0,0,0,0,0,0,0,0,0,0,0,0,0,0,0],"id":11,"left_children":[1,3,-1,5,7,9,11,-1,-1,13,15,-1,-1,17,19,-1,-1,-1,-1,-1,-1],"loss_changes":[3.7395322E-1,2.650476E-1,0E0,2.6073176E-1,7.21561E-2,2.5092164E-1,1.9465536E-3,0E0,0E0,6.644442E-1,2.6923758E-1,0E0,0E0,3.3222967E-1,4.47443E-1,0E0,0E0,0E0,0E0,0E0,0E0],"parents":[2147483647,0,0,1,1,3,3,4,4,5,5,6,6,9,9,10,10,13,13,14,14],"right_children":[2,4,-1,6,8,10,12,-1,-1,14,16,-1,-1,18,20,-1,-1,-1,-1,-1,-1],"split_conditions":[3.5765903E2,1.8000002E1,1.3277693E-1,3.4931607E2,1.21379175E1,1.9427502E1,1.6170831E0,-9.7295806E-2,-2.0904422E-3,1.9171251E1,1E-1,-2.1229614E-2,-8.034649E-2,1.907125E1,1.9308752E1,-1.1443628E-1,3.7808884E-2,7.339783E-3,-1.1610292E-1,2.3075002E-1,1.9141186E-2],"split_indices":[3,1,0,3,0,0,0,0,0,0,1,0,0,0,0,0,0,0,0,0,0],"split_type":[0,0,0,0,0,0,0,0,0,0,0,0,0,0,0,0,0,0,0,0,0],"sum_hessian":[1.22E2,1.21E2,1E0,1.18E2,3E0,1.15E2,3E0,2E0,1E0,1.12E2,3E0,1E0,2E0,1.09E2,3E0,2E0,1E0,1.08E2,1E0,1E0,2E0],"tree_param":{"num_deleted":"0","num_feature":"5","num_nodes":"21","size_leaf_vector":"1"}},{"base_weights":[9.550934E-3,3.4619838E-3,1.1286042E-1,3.1254023E-2,-5.8795523E-2,5.7488126E-3,1.314563E-1,-2.8786662E-1,2.2162257E-3,2.4514422E-2,-1.4709856E-1,-3.2603934E-1,-3.098631E-3,-1.8821526E-1,3.7399232E-2,1.0930967E-1,-2.6853018E-2,-4.2244315E-2,-1.1158994E-1,-3.1167986E-3,-6.902233E-2,1.2139686E-1,-1.17536426E-1,1.27293365E-2,2.091219E-1,-4.893052E-2,1.08598E-2,4.8248883E-2,-3.881301E-2,-5.075413E-2,5.208893E-2],"categories":[],"categories_nodes":[],"categories_segments":[],"categories_sizes":[],"default_left":[0,0,0,0,0,0,0,0,0,0,0,0,0,0,0,0,0,0,0,0,0,0,0,0,0,0,0,0,0,0,0],"id":12,"left_children":[1,3,-1,5,7,9,-1,11,13,15,-1,17,-1,19,21,23,25,-1,-1,-1,-1,27,29,-1,-1,-1,-1,-1,-1,-1,-1],"loss_changes":[2.732971E-1,2.1292971E-1,0E0,8.7968975E-1,5.317271E-1,7.660647E-1,0E0,8.13874E-2,2.1473761E-1,3.4703675E-1,0E0,7.169783E-3,0E0,3.4827888E-2,3.6565274E-1,1.1496853E0,4.3544418E-1,0E0,0E0,0E0,0E0,1.9880396E-1,1.7974462E-1,0E0,0E0,0E0,0E0,0E0,0E0,0E0,0E0],"parents":[2147483647,0,0,1,1,3,3,4,4,5,5,7,7,8,8,9,9,11,11,13,13,14,14,15,15,16,16,21,21,22,22],"right_children":[2,4,-1,6,8,10,-1,12,14,16,-1,18,-1,20,22,24,26,-1,-1,-1,-1,28,30,-1,-1,-1,-1,-1,-1,-1,-1],"split_conditions":[3.5765903E2,2.617364E2,1.1286042E-1,2.5896298E2,2.7761517E2,2.5765036E2,1.314563E-1,2.2545315E1,1E0,1.61198E1,-1.4709856E-1,1.2906138E1,-3.098631E-3,3.031667E0,2E-1,2.3909608E2,1.8116623E1,-4.2244315E-2,-1.1158994E-1,-3.1167986E-3,-6.902233E-2,3.4792365E2,6E0,1.27293365E-2,2.091219E-1,-4.893052E-2,1.08598E-2,4.8248883E-2,-3.881301E-2,-5.075413E-2,5.208893E-2],"split_indices":[3,3,0,3,3,3,0,2,4,2,0,2,0,0,1,3,2,0,0,0,0,3,4,0,0,0,0,0,0,0,0],"split_type":[0,0,0,0,0,0,0,0,0,0,0,0,0,0,0,0,0,0,0,0,0,0,0,0,0,0,0,0,0,0,0],"sum_hessian":[1.22E2,1.21E2,1E0,8.4E1,3.7E1,8E1,4E0,7E0,3E1,7.8E1,2E0,6E0,1E0,4E0,2.6E1,2.9E1,4.9E1,2E0,4E0,1E0,3E0,1.7E1,9E0,2.7E1,2E0,1.5E1,3.4E1,1.5E1,2E0,8E0,1E0],"tree_param":{"num_deleted":"0","num_feature":"5","num_nodes":"31","size_leaf_vector":"1"}},{"base_weights":[7.195393E-3,2.0122195E-3,9.593139E-2,-9.054822E-3,1.2686858E-1,-4.2260453E-2,6.934239E-2,4.8681635E-1,-1.9423269E-1,1.9464731E-1,-6.06496E-2,1.7693056E-1,-7.873132E-2,2.3045418E-1,4.3180067E-2,-3.8748372E-1,3.845387E-2,8.6248346E-2,-4.0438272E-2,-1.3165516E-1,1.4441508E-3,-2.4036355E-2,3.1291154E-1,1.3548434E-3,-8.97921E-2,-8.5501675E-4,2.0286048E-2,-1.3582608E-1,-2.87511E-2,-8.0993585E-2,-1.1294039E-2,1.2569037E-1,-1.27631165E-2,-3.6059618E-2,1.117894E-1,1.2408089E-1,2.4383962E-3,-6.782466E-2,2.0835143E-2],"categories":[],"categories_nodes":[],"categories_segments":[],"categories_sizes":[],"default_left":[0,0,0,0,0,0,0,0,0,0,0,0,0,0,0,0,0,0,0,0,0,0,0,0,0,0,0,0,0,0,0,0,0,0,0,0,0,0,0],"id":13,"left_children":[1,3,-1,5,7,9,11,13,15,17,19,21,23,-1,25,27,-1,-1,-1,29,31,33,35,37,-1,-1,-1,-1,-1,-1,-1,-1,-1,-1,-1,-1,-1,-1,-1],"loss_changes":[1.9863318E-1,1.6972719E-1,0E0,2.970953E-1,1.2503525E0,3.6032784E-1,5.5558324E-1,5.909468E-1,4.235065E-1,2.2227888E-1,3.308652E-1,5.540747E-1,2.653814E-1,0E0,3.567662E-3,3.2752454E-2,0E0,0E0,0E0,4.4496083E-1,7.708297E-1,3.8809034E-1,3.6490738E-1,2.0155114E-1,0E0,0E0,0E0,0E0,0E0,0E0,0E0,0E0,0E0,0E0,0E0,0E0,0E0,0E0,0E0],"parents":[2147483647,0,0,1,1,3,3,4,4,5,5,6,6,7,7,8,8,9,9,10,10,11,11,12,12,14,14,15,15,19,19,20,20,21,21,22,22,23,23],"right_children":[2,4,-1,6,8,10,12,14,16,18,20,22,24,-1,26,28,-1,-1,-1,30,32,34,36,38,-1,-1,-1,-1,-1,-1,-1,-1,-1,-1,-1,-1,-1,-1,-1],"split_conditions":[3.5765903E2,1.8692083E1,9.593139E-2,5E0,3E0,1.0545832E0,2.550332E2,1.9308752E1,1.6293728E1,2.4162947E1,1.0825417E1,1.8368056E2,1.51170845E1,2.3045418E-1,1.937125E1,1.9479584E1,3.845387E-2,8.6248346E-2,-4.0438272E-2,2.4070164E2,1.1081664E1,1.769E1,2.5076267E1,2.568747E2,-8.97921E-2,-8.5501675E-4,2.0286048E-2,-1.3582608E-1,-2.87511E-2,-8.0993585E-2,-1.1294039E-2,1.2569037E-1,-1.27631165E-2,-3.6059618E-2,1.117894E-1,1.2408089E-1,2.4383962E-3,-6.782466E-2,2.0835143E-2],"split_indices":[3,0,0,4,4,0,3,0,2,2,0,3,0,0,0,0,0,0,0,3,0,0,2,3,0,0,0,0,0,0,0,0,0,0,0,0,0,0,0],"split_type":[0,0,0,0,0,0,0,0,0,0,0,0,0,0,0,0,0,0,0,0,0,0,0,0,0,0,0,0,0,0,0,0,0,0,0,0,0,0,0],"sum_hessian":[1.22E2,1.21E2,1E0,1.12E2,9E0,7.9E1,3.3E1,4E0,5E0,5E0,7.4E1,1.9E1,1.4E1,2E0,2E0,3E0,2E0,4E0,1E0,3.4E1,4E1,8E0,1.1E1,1.1E1,3E0,1E0,1E0,2E0,1E0,1.3E1,2.1E1,3E0,3.7E1,7E0,1E0,8E0,3E0,2E0,9E0],"tree_param":{"num_deleted":"0","num_feature":"5","num_nodes":"39","size_leaf_vector":"1"}},{"base_weights":[7.895393E-3,-8.2205184E-2,2.514651E-2,4.3858718E-2,-2.4115647E-1,4.628226E-1,1.202715E-2,1.7764135E-1,-4.5237765E-2,-2.8303534E-1,1.4081169E-2,1.6665359E-1,4.1616585E-2,-1.3139562E-1,2.081921E-2,-9.5515256E-4,6.709308E-2,2.7434686E-2,-5.265103E-2,-1.1480139E-1,-5.5813447E-2,-3.5986127E-3,1.1401085E-1,-4.7887474E-2,3.56158E-2,5.787684E-2,-7.468602E-2,3.331025E-1,2.4725795E-2,2.548671E-2,-3.614613E-2,3.5661173E-3,1.041493E-1,9.465882E-3,-4.865745E-2,1.2051346E-1,-1.4913798E-3,-7.378228E-2,2.4287904E-2],"categories":[],"categories_nodes":[],"categories_segments":[],"categories_sizes":[],"default_left":[0,0,0,0,0,0,0,0,0,0,0,0,0,0,0,0,0,0,0,0,0,0,0,0,0,0,0,0,0,0,0,0,0,0,0,0,0,0,0],"id":14,"left_children":[1,3,5,7,9,11,13,15,17,19,-1,-1,-1,-1,21,-1,-1,23,-1,-1,-1,25,27,29,-1,31,33,35,37,-1,-1,-1,-1,-1,-1,-1,-1,-1,-1],"loss_changes":[1.9325046E-1,4.1133723E-1,5.9160477E-1,1.5107082E-1,1.2187022E-1,1.3060331E-2,4.1268525E-1,4.230389E-2,8.0548674E-2,6.115973E-3,0E0,0E0,0E0,0E0,2.3023951E-1,0E0,0E0,4.6939716E-2,0E0,0E0,0E0,3.5830316E-1,4.0255755E-1,4.8813514E-2,0E0,5.8126104E-1,3.5838425E-1,1.4116651E-1,2.6344153E-1,0E0,0E0,0E0,0E0,0E0,0E0,0E0,0E0,0E0,0E0],"parents":[2147483647,0,0,1,1,2,2,3,3,4,4,5,5,6,6,7,7,8,8,9,9,14,14,17,17,21,21,22,22,23,23,25,25,26,26,27,27,28,28],"right_children":[2,4,6,8,10,12,14,16,18,20,-1,-1,-1,-1,22,-1,-1,24,-1,-1,-1,26,28,30,-1,32,34,36,38,-1,-1,-1,-1,-1,-1,-1,-1,-1,-1],"split_conditions":[5.012917E0,3.4337494E0,5.2295833E0,3E0,1.4E0,5.148333E0,5.473333E0,1E0,2E-1,4.4775E0,1.4081169E-2,1.6665359E-1,4.1616585E-2,-1.3139562E-1,2.2725668E1,-9.5515256E-4,6.709308E-2,1.7423777E1,-5.265103E-2,-1.1480139E-1,-5.5813447E-2,1.61198E1,2.4193098E1,-4.418333E0,3.56158E-2,1.4428097E1,1.1081664E1,7.2999997E0,2.4490585E1,2.548671E-2,-3.614613E-2,3.5661173E-3,1.041493E-1,9.465882E-3,-4.865745E-2,1.2051346E-1,-1.4913798E-3,-7.378228E-2,2.4287904E-2],"split_indices":[0,0,0,4,1,0,0,4,1,0,0,0,0,0,2,0,0,2,0,0,0,2,2,0,0,2,0,1,2,0,0,0,0,0,0,0,0,0,0],"split_type":[0,0,0,0,0,0,0,0,0,0,0,0,0,0,0,0,0,0,0,0,0,0,0,0,0,0,0,0,0,0,0,0,0,0,0,0,0,0,0],"sum_hessian":[1.22E2,1.9E1,1.03E2,1.1E1,8E0,2E0,1.01E2,4E0,7E0,7E0,1E0,1E0,1E0,1E0,1E2,1E0,3E0,5E0,2E0,2E0,5E0,8E1,2E1,3E0,2E0,4.3E1,3.7E1,5E0,1.5E1,1E0,2E0,3.8E1,5E0,1.7E1,2E1,4E0,1E0,2E0,1.3E1],"tree_param":{"num_deleted":"0","num_feature":"5","num_nodes":"39","size_leaf_vector":"1"}},{"base_weights":[6.3140523E-3,-3.8451068E-2,3.3556215E-2,-1.7778178E-1,1.4398939E-2,3.4540066E-1,2.0635022E-2,4.0852427E-2,-2.212473E-1,3.6482114E-2,-1.1046436E-1,7.6797013E-3,1.477506E-1,1.2319492E-1,-4.922903E-3,-5.107194E-3,2.3490788E-2,2.374331E-2,-2.592009E-1,-6.389643E-2,1.1909131E-1,1.8285662E-1,-5.2921224E-2,-1.8568893E-1,2.1948414E-2,-8.349395E-2,-1.3078595E-2,6.906542E-2,-9.885194E-2,2.5724134E-1,-4.767017E-3,-2.7407289E-2,2.4867651E-1,2.4187053E-2,-2.352512E-1,-6.5145637E-3,1.6498715E-1,-5.8712284E-3,-5.5998955E-2,1.0042104E-1,-5.4408345E-2,-4.9855456E-2,2.2961333E-2,5.6859856E-3,-2.4973352E-2,1.690741E-1,2.9850904E-2,-1.084882E-2,-7.872165E-2,-9.100396E-3,3.9159264E-2,8.9930296E-2,-6.134892E-2],"categories":[],"categories_nodes":[],"categories_segments":[],"categories_sizes":[],"default_left":[0,0,0,0,0,0,0,0,0,0,0,0,0,0,0,0,0,0,0,0,0,0,0,0,0,0,0,0,0,0,0,0,0,0,0,0,0,0,0,0,0,0,0,0,0,0,0,0,0,0,0,0,0],"id":15,"left_children":[1,3,5,7,9,11,13,15,17,19,-1,-1,-1,21,23,-1,-1,-1,25,27,29,31,-1,33,35,-1,-1,-1,37,39,41,43,45,-1,47,49,51,-1,-1,-1,-1,-1,-1,-1,-1,-1,-1,-1,-1,-1,-1,-1,-1],"loss_changes":[1.5128861E-1,3.4865046E-1,3.0313662E-1,1.3257816E-1,3.0915943E-1,1.2852219E-1,1.9719782E-1,7.83547E-3,1.4592469E-1,2.8954402E-1,0E0,0E0,0E0,3.003754E-1,3.0037826E-1,0E0,0E0,0E0,2.9073954E-2,1.8725222E-1,3.2633585E-1,1.8672967E-1,0E0,1.24559194E-1,2.2092545E-1,0E0,0E0,0E0,1.0077351E-1,3.666156E-1,1.5708388E-1,1.1932338E-2,4.136752E-1,0E0,2.8353423E-2,1.5412362E-1,5.0949395E-1,0E0,0E0,0E0,0E0,0E0,0E0,0E0,0E0,0E0,0E0,0E0,0E0,0E0,0E0,0E0,0E0],"parents":[2147483647,0,0,1,1,2,2,3,3,4,4,5,5,6,6,7,7,8,8,9,9,13,13,14,14,18,18,19,19,20,20,21,21,23,23,24,24,28,28,29,29,30,30,31,31,32,32,34,34,35,35,36,36],"right_children":[2,4,6,8,10,12,14,16,18,20,-1,-1,-1,22,24,-1,-1,-1,26,28,30,32,-1,34,36,-1,-1,-1,38,40,42,44,46,-1,48,50,52,-1,-1,-1,-1,-1,-1,-1,-1,-1,-1,-1,-1,-1,-1,-1,-1],"split_conditions":[8.867084E0,1.4021525E1,9.052501E0,3.3608334E0,8.78375E0,8.94625E0,1.1368535E1,1.6170831E0,9.511088E0,5.012917E0,-1.1046436E-1,7.6797013E-3,1.477506E-1,6E0,1.4454231E2,-5.107194E-3,2.3490788E-2,2.374331E-2,8.106666E0,2.6718569E1,1.8606289E1,1.0139528E2,-5.2921224E-2,2.2128273E1,6E0,-8.349395E-2,-1.3078595E-2,6.906542E-2,3.4337494E0,6E0,1.91588E1,1.8692083E1,1.35999E2,2.4187053E-2,1.2503199E1,2.474329E1,1.6519167E1,-5.8712284E-3,-5.5998955E-2,1.0042104E-1,-5.4408345E-2,-4.9855456E-2,2.2961333E-2,5.6859856E-3,-2.4973352E-2,1.690741E-1,2.9850904E-2,-1.084882E-2,-7.872165E-2,-9.100396E-3,3.9159264E-2,8.9930296E-2,-6.134892E-2],"split_indices":[0,2,0,0,0,0,2,0,2,0,0,0,0,4,3,0,0,0,0,3,2,3,0,3,4,0,0,0,0,4,2,0,3,0,2,2,0,0,0,0,0,0,0,0,0,0,0,0,0,0,0,0,0],"split_type":[0,0,0,0,0,0,0,0,0,0,0,0,0,0,0,0,0,0,0,0,0,0,0,0,0,0,0,0,0,0,0,0,0,0,0,0,0,0,0,0,0,0,0,0,0,0,0,0,0,0,0,0,0],"sum_hessian":[1.22E2,4.6E1,7.6E1,1.2E1,3.4E1,2E0,7.4E1,2E0,1E1,3.3E1,1E0,1E0,1E0,1.4E1,6E1,1E0,1E0,1E0,9E0,1.5E1,1.8E1,1.2E1,2E0,7E0,5.3E1,8E0,1E0,1E0,1.4E1,8E0,1E1,3E0,9E0,1E0,6E0,4.5E1,8E0,8E0,6E0,7E0,1E0,3E0,7E0,2E0,1E0,2E0,7E0,1E0,5E0,3.9E1,6E0,6E0,2E0],"tree_param":{"num_deleted":"0","num_feature":"5","num_nodes":"53","size_leaf_vector":"1"}},{"base_weights":[5.5320975E-3,1.1078769E-2,-1.622511E-1,1.1415464E-3,1.500572E-1,-6.496536E-2,9.738207E-5,1.9411577E-2,-1.0317224E-1,-3.1553235E-2,2.5266498E-1,3.8462172E-3,3.0504495E-1,-1.3445948E-1,2.6296403E-2,9.109358E-2,3.0140895E-2,1.3643374E-1,-1.1983799E-2,6.8955473E-3,1.5045382E-1,1.925534E-2,-2.1324243E-1,4.4041427E-4,1.352593E-1,3.6218516E-3,-4.328962E-2,2.0368839E-2,-1.7265843E-2,-3.8840445E-3,1.673193E-2,-6.702717E-2,-1.82414E-2],"categories":[],"categories_nodes":[],"categories_segments":[],"categories_sizes":[],"default_left":[0,0,0,0,0,0,0,0,0,0,0,0,0,0,0,0,0,0,0,0,0,0,0,0,0,0,0,0,0,0,0,0,0],"id":16,"left_children":[1,3,5,7,9,-1,-1,11,13,-1,15,17,19,21,-1,-1,-1,23,25,27,-1,29,31,-1,-1,-1,-1,-1,-1,-1,-1,-1,-1],"loss_changes":[1.1626607E-1,1.6555588E-1,3.538181E-2,2.1735996E-1,2.3608716E-1,0E0,0E0,4.300874E-1,1.1328356E-1,0E0,1.6046613E-2,1.9682921E-1,2.8942546E-1,1.8575764E-1,0E0,0E0,0E0,4.237115E-1,2.691185E-1,1.5701775E-2,0E0,7.7777863E-3,1.9351542E-3,0E0,0E0,0E0,0E0,0E0,0E0,0E0,0E0,0E0,0E0],"parents":[2147483647,0,0,1,1,2,2,3,3,4,4,7,7,8,8,10,10,11,11,12,12,13,13,17,17,18,18,19,19,21,21,22,22],"right_children":[2,4,6,8,10,-1,-1,12,14,-1,16,18,20,22,-1,-1,-1,24,26,28,-1,30,32,-1,-1,-1,-1,-1,-1,-1,-1,-1,-1],"split_conditions":[1.8000002E1,6.2E0,1.21379175E1,1.4000001E0,1.3350371E1,-6.496536E-2,9.738207E-5,1E0,2.94709E2,-3.1553235E-2,1.37E1,1.35999E2,4.9275002E0,2E0,2.6296403E-2,9.109358E-2,3.0140895E-2,1.1521448E2,1.7423336E1,4.5420833E0,1.5045382E-1,2.4613312E1,2.858545E1,4.4041427E-4,1.352593E-1,3.6218516E-3,-4.328962E-2,2.0368839E-2,-1.7265843E-2,-3.8840445E-3,1.673193E-2,-6.702717E-2,-1.82414E-2],"split_indices":[1,1,0,1,2,0,0,1,3,0,1,3,0,4,0,0,0,3,0,0,0,2,2,0,0,0,0,0,0,0,0,0,0],"split_type":[0,0,0,0,0,0,0,0,0,0,0,0,0,0,0,0,0,0,0,0,0,0,0,0,0,0,0,0,0,0,0,0,0],"sum_hessian":[1.22E2,1.19E2,3E0,1.12E2,7E0,2E0,1E0,9.6E1,1.6E1,2E0,5E0,9.2E1,4E0,1.4E1,2E0,3E0,2E0,9E0,8.3E1,2E0,2E0,5E0,9E0,7E0,2E0,7.1E1,1.2E1,1E0,1E0,3E0,2E0,8E0,1E0],"tree_param":{"num_deleted":"0","num_feature":"5","num_nodes":"33","size_leaf_vector":"1"}},{"base_weights":[5.728391E-3,-3.0661216E-2,2.7865835E-2,-1.1066515E-1,2.281244E-2,2.91176E-1,1.6961884E-2,-1.4436194E-1,1.2558246E-2,3.0702364E-1,-2.1789763E-2,5.9844735E-3,1.2504473E-1,-9.1772184E-2,3.131479E-2,-2.8877303E-1,-4.3279096E-2,4.6222094E-2,-3.9942972E-2,-4.744649E-4,1.2312577E-1,-1.6688982E-1,4.045182E-2,-1.4658242E-1,5.200646E-2,3.4099138E-1,1.1470709E-2,-9.808791E-2,-1.4675966E-2,1.7315006E-2,-8.6560994E-2,2.8031826E-2,-8.683475E-2,9.652E-2,-1.1565608E-2,2.0492936E-2,-1.8703985E-1,1.422529E-1,-8.784521E-3,-6.0411554E-2,2.5239553E-2,-1.7470194E-2,2.6127696E-2,-4.884392E-3,-2.9208202E-2,3.6499895E-2,-3.7930746E-2,1.1424481E-2,-2.6379129E-2,-6.179726E-2,-1.1000061E-2,8.415909E-2,3.5492636E-3],"categories":[],"categories_nodes":[],"categories_segments":[],"categories_sizes":[],"default_left":[0,0,0,0,0,0,0,0,0,0,0,0,0,0,0,0,0,0,0,0,0,0,0,0,0,0,0,0,0,0,0,0,0,0,0,0,0,0,0,0,0,0,0,0,0,0,0,0,0,0,0,0,0],"id":17,"left_children":[1,3,5,7,9,11,13,15,17,19,21,-1,-1,23,25,27,29,-1,-1,-1,-1,31,33,35,-1,37,39,-1,-1,41,43,45,-1,-1,47,-1,49,-1,-1,-1,51,-1,-1,-1,-1,-1,-1,-1,-1,-1,-1,-1,-1],"loss_changes":[9.993986E-2,2.0359536E-1,2.1613745E-1,8.0705345E-2,3.743069E-1,9.391624E-2,1.1992256E-1,2.0646444E-1,1.23608865E-1,1.2828276E-1,2.415637E-1,0E0,0E0,1.5619588E-1,4.0782014E-1,3.8960278E-2,2.7725082E-2,0E0,0E0,0E0,0E0,1.9922952E-1,2.817203E-1,8.232854E-2,0E0,2.1114391E-1,1.9264066E-1,0E0,0E0,3.1429756E-2,2.9688291E-3,7.323697E-2,0E0,0E0,6.780063E-2,0E0,1.23949945E-2,0E0,0E0,0E0,2.054908E-1,0E0,0E0,0E0,0E0,0E0,0E0,0E0,0E0,0E0,0E0,0E0,0E0],"parents":[2147483647,0,0,1,1,2,2,3,3,4,4,5,5,6,6,7,7,8,8,9,9,10,10,13,13,14,14,15,15,16,16,21,21,22,22,23,23,25,25,26,26,29,29,30,30,31,31,34,34,36,36,40,40],"right_children":[2,4,6,8,10,12,14,16,18,20,22,-1,-1,24,26,28,30,-1,-1,-1,-1,32,34,36,-1,38,40,-1,-1,42,44,46,-1,-1,48,-1,50,-1,-1,-1,52,-1,-1,-1,-1,-1,-1,-1,-1,-1,-1,-1,-1],"split_conditions":[8.867084E0,1.5299999E1,9.052501E0,5E0,1.6928614E1,8.94625E0,1.0825417E1,2.5826144E2,5.87125E0,1E0,1.8030575E1,5.9844735E-3,1.2504473E-1,2.1000001E0,1.1081664E1,1E-1,2.9360443E2,4.6222094E-2,-3.9942972E-2,-4.744649E-4,1.2312577E-1,7.025001E-1,1.8606289E1,2.2128273E1,5.200646E-2,1E-1,1.21379175E1,-9.808791E-2,-1.4675966E-2,2.7515625E2,1.6170831E0,5E0,-8.683475E-2,9.652E-2,7.1150002E0,2.0492936E-2,2.431666E1,1.422529E-1,-8.784521E-3,-6.0411554E-2,1.2389999E1,-1.7470194E-2,2.6127696E-2,-4.884392E-3,-2.9208202E-2,3.6499895E-2,-3.7930746E-2,1.1424481E-2,-2.6379129E-2,-6.179726E-2,-1.1000061E-2,8.415909E-2,3.5492636E-3],"split_indices":[0,2,0,4,2,0,0,3,0,4,2,0,0,1,0,1,3,0,0,0,0,0,2,3,0,1,0,0,0,3,0,4,0,0,0,0,2,0,0,0,0,0,0,0,0,0,0,0,0,0,0,0,0],"split_type":[0,0,0,0,0,0,0,0,0,0,0,0,0,0,0,0,0,0,0,0,0,0,0,0,0,0,0,0,0,0,0,0,0,0,0,0,0,0,0,0,0,0,0,0,0,0,0,0,0,0,0,0,0],"sum_hessian":[1.22E2,4.6E1,7.6E1,1.8E1,2.8E1,2E0,7.4E1,1.4E1,4E0,3E0,2.5E1,1E0,1E0,8E0,6.6E1,5E0,9E0,2E0,2E0,1E0,2E0,7E0,1.8E1,7E0,1E0,3E0,6.3E1,4E0,1E0,4E0,5E0,3E0,4E0,2E0,1.6E1,1E0,6E0,2E0,1E0,3E0,6E1,2E0,2E0,1E0,4E0,2E0,1E0,1E1,6E0,5E0,1E0,2E0,5.8E1],"tree_param":{"num_deleted":"0","num_feature":"5","num_nodes":"53","size_leaf_vector":"1"}},{"base_weights":[6.2499344E-3,-1.0755796E-3,8.9135796E-2,1.0398683E-2,-6.715806E-2,2.7694255E-1,-8.2225785E-2,4.688239E-3,8.464676E-2,1.0962288E-2,-1.378164E-1,1.283133E-1,3.385989E-2,-2.4899554E-1,5.0262753E-2,-1.1159701E-2,4.6188813E-2,-2.058329E-2,6.2184077E-2,1.2037683E-2,-1.6507486E-1,-2.9546858E-3,1.8191636E-2,-8.50477E-2,-2.182578E-2,2.3322348E-2,-7.1737185E-2,1.3814178E-1,-3.658301E-2,-5.3563625E-2,5.8735896E-2,-1.9143625E-1,-5.732711E-2,-8.14987E-4,1.19235955E-1,-1.19153716E-1,-8.420371E-3,5.869142E-2,-1.20403115E-2,-3.7785705E-2,6.209067E-3,-3.056286E-2,-1.0502101E-3,-2.4170233E-2,-6.8018645E-2,-5.126506E-3,-2.0670695E-2],"categories":[],"categories_nodes":[],"categories_segments":[],"categories_sizes":[],"default_left":[0,0,0,0,0,0,0,0,0,0,0,0,0,0,0,0,0,0,0,0,0,0,0,0,0,0,0,0,0,0,0,0,0,0,0,0,0,0,0,0,0,0,0,0,0,0,0],"id":18,"left_children":[1,3,5,7,9,11,13,15,-1,17,19,-1,21,23,-1,25,27,-1,29,-1,31,-1,-1,-1,-1,33,35,37,39,41,-1,43,45,-1,-1,-1,-1,-1,-1,-1,-1,-1,-1,-1,-1,-1,-1],"loss_changes":[7.47792E-2,8.71386E-2,3.4460044E-1,1.5075889E-1,9.534829E-2,1.6876376E-1,2.9164013E-1,6.431222E-2,0E0,4.0949468E-2,5.0277546E-2,0E0,4.1086525E-3,3.694445E-3,0E0,1.4998043E-1,2.1055375E-1,0E0,1.0327195E-1,0E0,1.1748552E-2,0E0,0E0,0E0,0E0,4.4921088E-1,3.5835913E-1,1.4110461E-1,7.939283E-2,9.318038E-3,0E0,5.2101016E-3,2.1988899E-4,0E0,0E0,0E0,0E0,0E0,0E0,0E0,0E0,0E0,0E0,0E0,0E0,0E0,0E0],"parents":[2147483647,0,0,1,1,2,2,3,3,4,4,5,5,6,6,7,7,9,9,10,10,12,12,13,13,15,15,16,16,18,18,20,20,25,25,26,26,27,27,28,28,29,29,31,31,32,32],"right_children":[2,4,6,8,10,12,14,16,-1,18,20,-1,22,24,-1,26,28,-1,30,-1,32,-1,-1,-1,-1,34,36,38,40,42,-1,44,46,-1,-1,-1,-1,-1,-1,-1,-1,-1,-1,-1,-1,-1,-1],"split_conditions":[1.8692083E1,1.7273336E1,3E0,1.7154585E1,2.0194772E2,1.9308752E1,1.6293728E1,1.992235E1,8.464676E-2,1.7746248E1,1.7423336E1,1.283133E-1,1.937125E1,1.9479584E1,5.0262753E-2,1.6928614E1,2.4193098E1,-2.058329E-2,4E0,1.2037683E-2,2.7761517E2,-2.9546858E-3,1.8191636E-2,-8.50477E-2,-2.182578E-2,1.6801823E1,1.7015474E1,2.617364E2,2.5744402E1,1.8415E1,5.8735896E-2,2.2184917E2,1.7523336E1,-8.14987E-4,1.19235955E-1,-1.19153716E-1,-8.420371E-3,5.869142E-2,-1.20403115E-2,-3.7785705E-2,6.209067E-3,-3.056286E-2,-1.0502101E-3,-2.4170233E-2,-6.8018645E-2,-5.126506E-3,-2.0670695E-2],"split_indices":[0,0,4,0,3,0,2,2,0,0,0,0,0,0,0,2,2,0,4,0,3,0,0,0,0,2,2,3,2,0,0,3,0,0,0,0,0,0,0,0,0,0,0,0,0,0,0],"split_type":[0,0,0,0,0,0,0,0,0,0,0,0,0,0,0,0,0,0,0,0,0,0,0,0,0,0,0,0,0,0,0,0,0,0,0,0,0,0,0,0,0,0,0,0,0,0,0],"sum_hessian":[1.22E2,1.13E2,9E0,9.7E1,1.6E1,4E0,5E0,9.6E1,1E0,8E0,8E0,2E0,2E0,3E0,2E0,7E1,2.6E1,3E0,5E0,1E0,7E0,1E0,1E0,2E0,1E0,4.5E1,2.5E1,1.2E1,1.4E1,3E0,2E0,5E0,2E0,4.3E1,2E0,2E0,2.3E1,9E0,3E0,5E0,9E0,1E0,2E0,2E0,3E0,1E0,1E0],"tree_param":{"num_deleted":"0","num_feature":"5","num_nodes":"47","size_leaf_vector":"1"}},{"base_weights":[5.0098957E-3,2.0743355E-3,5.4472234E-2,6.1947107E-3,-1.21025406E-1,1.1731745E-3,1.5027058E-1,-4.0294826E-3,-4.572384E-2,6.219362E-3,-1.12096064E-1,1.5726138E-2,6.657314E-2,3.9316658E-2,2.7582E-3,-7.1566054E-3,-3.845772E-2,-1.579939E-2,3.8256408E-3],"categories":[],"categories_nodes":[],"categories_segments":[],"categories_sizes":[],"default_left":[0,0,0,0,0,0,0,0,0,0,0,0,0,0,0,0,0,0,0],"id":19,"left_children":[1,3,-1,5,7,9,11,-1,-1,13,15,-1,-1,-1,17,-1,-1,-1,-1],"loss_changes":[6.337608E-2,6.26302E-2,0E0,8.591809E-2,1.1461206E-2,6.700019E-2,1.6407236E-2,0E0,0E0,4.803127E-2,4.043691E-3,0E0,0E0,0E0,6.1599728E-2,0E0,0E0,0E0,0E0],"parents":[2147483647,0,0,1,1,3,3,4,4,5,5,6,6,9,9,10,10,14,14],"right_children":[2,4,-1,6,8,10,12,-1,-1,14,16,-1,-1,-1,18,-1,-1,-1,-1],"split_conditions":[3.5765903E2,3.4931607E2,5.4472234E-2,3.371451E2,1.6170831E0,3.179738E2,1.3056667E1,-4.0294826E-3,-4.572384E-2,2.6718569E1,8.73375E0,1.5726138E-2,6.657314E-2,3.9316658E-2,5.012917E0,-7.1566054E-3,-3.845772E-2,-1.579939E-2,3.8256408E-3],"split_indices":[3,3,0,3,0,3,0,0,0,3,0,0,0,0,0,0,0,0,0],"split_type":[0,0,0,0,0,0,0,0,0,0,0,0,0,0,0,0,0,0,0],"sum_hessian":[1.22E2,1.21E2,1E0,1.18E2,3E0,1.15E2,3E0,1E0,2E0,1.11E2,4E0,2E0,1E0,2E0,1.09E2,1E0,3E0,1.6E1,9.3E1],"tree_param":{"num_deleted":"0","num_feature":"5","num_nodes":"19","size_leaf_vector":"1"}},{"base_weights":[4.065825E-3,7.6720277E-3,-3.154102E-2,3.1872438E-3,4.1080188E-2,1.2431389E-2,-3.9663676E-2,2.529795E-3,1.9411476E-1,-7.24188E-2,3.6192127E-2,-9.525687E-3,7.1237564E-2,-1.8142486E-3,9.760166E-2,5.8666587E-2,-9.7098604E-2,9.982447E-2,-8.192583E-2,6.414085E-3,-1.9384446E-2,1.7925606E-3,4.06939E-2,9.166002E-3,-9.982415E-3,4.2025745E-3,2.219739E-2,3.5563053E-3,-3.929098E-2,6.416345E-3,4.3495897E-2,-2.9585196E-2,-7.2814287E-3],"categories":[],"categories_nodes":[],"categories_segments":[],"categories_sizes":[],"default_left":[0,0,0,0,0,0,0,0,0,0,0,0,0,0,0,0,0,0,0,0,0,0,0,0,0,0,0,0,0,0,0,0,0],"id":20,"left_children":[1,3,-1,5,-1,7,9,11,13,15,17,19,21,23,-1,25,27,29,31,-1,-1,-1,-1,-1,-1,-1,-1,-1,-1,-1,-1,-1,-1],"loss_changes":[4.9244817E-2,6.9128975E-2,0E0,4.683913E-2,0E0,1.7400753E-1,5.4798998E-2,7.771098E-2,1.2914327E-1,5.422385E-2,6.0791064E-2,1.3758813E-1,5.803804E-2,4.071552E-3,0E0,1.0166E-3,4.952752E-2,1.4610775E-2,4.9343146E-4,0E0,0E0,0E0,0E0,0E0,0E0,0E0,0E0,0E0,0E0,0E0,0E0,0E0,0E0],"parents":[2147483647,0,0,1,1,3,3,5,5,6,6,7,7,8,8,9,9,10,10,11,11,12,12,13,13,15,15,16,16,17,17,18,18],"right_children":[2,4,-1,6,-1,8,10,12,14,16,18,20,22,24,-1,26,28,30,32,-1,-1,-1,-1,-1,-1,-1,-1,-1,-1,-1,-1,-1,-1],"split_conditions":[1.8000002E1,1.0500001E1,-3.154102E-2,1.4000001E0,4.1080188E-2,1E0,5.1E0,2.2725668E1,4.9275002E0,1.3864674E1,7.4E0,1.6928614E1,1.0825417E1,4.5420833E0,9.760166E-2,1.3129581E1,2E0,8.625415E0,1.3554584E1,6.414085E-3,-1.9384446E-2,1.7925606E-3,4.06939E-2,9.166002E-3,-9.982415E-3,4.2025745E-3,2.219739E-2,3.5563053E-3,-3.929098E-2,6.416345E-3,4.3495897E-2,-2.9585196E-2,-7.2814287E-3],"split_indices":[1,1,0,1,0,1,1,2,0,2,1,2,0,0,0,0,4,0,0,0,0,0,0,0,0,0,0,0,0,0,0,0,0],"split_type":[0,0,0,0,0,0,0,0,0,0,0,0,0,0,0,0,0,0,0,0,0,0,0,0,0,0,0,0,0,0,0,0,0],"sum_hessian":[1.22E2,1.19E2,3E0,1.16E2,3E0,9.6E1,2E1,9.2E1,4E0,1.4E1,6E0,7.9E1,1.3E1,2E0,2E0,2E0,1.2E1,4E0,2E0,5.1E1,2.8E1,7E0,6E0,1E0,1E0,1E0,1E0,3E0,9E0,2E0,2E0,1E0,1E0],"tree_param":{"num_deleted":"0","num_feature":"5","num_nodes":"33","size_leaf_vector":"1"}},{"base_weights":[3.9806287E-3,1.5357006E-3,4.5339275E-2,5.0018667E-3,-1.01966664E-1,7.3802704E-4,1.2740275E-1,-4.3871645E-3,-3.7861895E-2,5.36197E-3,-7.202937E-2,5.1452997E-3,4.7530904E-2,-3.4071044E-3,6.1126582E-2,-9.414157E-3,-2.8401261E-2,2.5074303E-3,-2.8523965E-2,8.815892E-2,7.0536993E-3],"categories":[],"categories_nodes":[],"categories_segments":[],"categories_sizes":[],"default_left":[0,0,0,0,0,0,0,0,0,0,0,0,0,0,0,0,0,0,0,0,0],"id":21,"left_children":[1,3,-1,5,7,9,11,-1,-1,13,15,-1,-1,17,19,-1,-1,-1,-1,-1,-1],"loss_changes":[4.4019844E-2,4.4278305E-2,0E0,6.20118E-2,6.6230036E-3,3.9417002E-2,1.0968693E-2,0E0,0E0,5.399871E-2,3.4716353E-3,0E0,0E0,1.04335375E-1,1.2440373E-1,0E0,0E0,0E0,0E0,0E0,0E0],"parents":[2147483647,0,0,1,1,3,3,4,4,5,5,6,6,9,9,10,10,13,13,14,14],"right_children":[2,4,-1,6,8,10,12,-1,-1,14,16,-1,-1,18,20,-1,-1,-1,-1,-1,-1],"split_conditions":[3.5765903E2,3.4931607E2,4.5339275E-2,3.371451E2,1.6170831E0,3.0947507E2,1.0545832E0,-4.3871645E-3,-3.7861895E-2,2.803297E2,4E0,5.1452997E-3,4.7530904E-2,2.6263257E2,2.8469308E2,-9.414157E-3,-2.8401261E-2,2.5074303E-3,-2.8523965E-2,8.815892E-2,7.0536993E-3],"split_indices":[3,3,0,3,0,3,0,0,0,3,4,0,0,3,3,0,0,0,0,0,0],"split_type":[0,0,0,0,0,0,0,0,0,0,0,0,0,0,0,0,0,0,0,0,0],"sum_hessian":[1.22E2,1.21E2,1E0,1.18E2,3E0,1.15E2,3E0,1E0,2E0,1.09E2,6E0,1E0,2E0,9.5E1,1.4E1,3E0,3E0,8.5E1,1E1,1E0,1.3E1],"tree_param":{"num_deleted":"0","num_feature":"5","num_nodes":"21","size_leaf_vector":"1"}},{"base_weights":[3.494966E-3,3.224887E-2,8.875384E-4,-1.5897028E-2,1.8794999E-2,5.1251194E-3,-2.164616E-1,2.1617186E-1,4.3610255E-3,-1.8672638E-2,8.125183E-2,-2.4793904E-1,-8.861166E-3,1.0332363E-1,-2.5282325E-2,-1.2548105E-1,1.965014E-2,-1.00956835E-1,2.5834687E-2,1.5534726E-1,-8.3189376E-2,-9.1952965E-2,-3.2016553E-2,2.218399E-1,-5.0056344E-3,1.3492751E-3,-4.9403775E-2,5.5583816E-2,-6.523939E-3,6.1122727E-2,-7.6466803E-3,7.4150567E-3,-3.4903545E-2,3.0647637E-3,7.863646E-2,-4.0089067E-2,5.7122796E-3],"categories":[],"categories_nodes":[],"categories_segments":[],"categories_sizes":[],"default_left":[0,0,0,0,0,0,0,0,0,0,0,0,0,0,0,0,0,0,0,0,0,0,0,0,0,0,0,0,0,0,0,0,0,0,0,0,0],"id":22,"left_children":[1,-1,3,5,7,9,11,13,15,17,19,21,-1,-1,-1,-1,23,25,27,29,31,-1,-1,33,35,-1,-1,-1,-1,-1,-1,-1,-1,-1,-1,-1,-1],"loss_changes":[3.325921E-2,0E0,3.6667623E-2,2.6673612E-1,1.6714427E-1,1.065926E-1,2.797997E-2,1.831423E-1,3.7007183E-1,1.6740942E-1,1.83504E-1,8.644789E-3,0E0,0E0,0E0,0E0,2.7529344E-1,1.0825759E-1,2.3162603E-1,9.270917E-2,2.0764258E-2,0E0,0E0,4.8469573E-2,1.571934E-1,0E0,0E0,0E0,0E0,0E0,0E0,0E0,0E0,0E0,0E0,0E0,0E0],"parents":[2147483647,0,0,2,2,3,3,4,4,5,5,6,6,7,7,8,8,9,9,10,10,11,11,16,16,17,17,18,18,19,19,20,20,23,23,24,24],"right_children":[2,-1,4,6,8,10,12,14,16,18,20,22,-1,-1,-1,-1,24,26,28,30,32,-1,-1,34,36,-1,-1,-1,-1,-1,-1,-1,-1,-1,-1,-1,-1],"split_conditions":[2.6718569E1,3.224887E-2,2.3909608E2,2.3079347E2,2.4250787E2,2.1149829E2,3E-1,1.8359999E1,2.4423953E2,1E-1,2E-1,5E0,-8.861166E-3,1.0332363E-1,-2.5282325E-2,-1.2548105E-1,2.550332E2,1.4518013E2,4E-1,2.4193098E1,4.5420833E0,-9.1952965E-2,-3.2016553E-2,1E-1,2.5896298E2,1.3492751E-3,-4.9403775E-2,5.5583816E-2,-6.523939E-3,6.1122727E-2,-7.6466803E-3,7.4150567E-3,-3.4903545E-2,3.0647637E-3,7.863646E-2,-4.0089067E-2,5.7122796E-3],"split_indices":[3,0,3,3,3,3,1,2,3,1,1,4,0,0,0,0,3,3,1,2,0,0,0,1,3,0,0,0,0,0,0,0,0,0,0,0,0],"split_type":[0,0,0,0,0,0,0,0,0,0,0,0,0,0,0,0,0,0,0,0,0,0,0,0,0,0,0,0,0,0,0,0,0,0,0,0,0],"sum_hessian":[1.22E2,2E0,1.2E2,6.2E1,5.8E1,5.7E1,5E0,3E0,5.5E1,4.4E1,1.3E1,4E0,1E0,2E0,1E0,1E0,5.4E1,1.5E1,2.9E1,9E0,4E0,2E0,2E0,5E0,4.9E1,6E0,9E0,6E0,2.3E1,7E0,2E0,1E0,3E0,1E0,4E0,7E0,4.2E1],"tree_param":{"num_deleted":"0","num_feature":"5","num_nodes":"37","size_leaf_vector":"1"}},{"base_weights":[1.8472378E-3,5.191235E-3,-9.893448E-2,-4.5293424E-4,1.6898537E-1,-5.6537755E-2,2.544594E-2,-2.8364806E-2,1.0388768E-2,2.3201673E-1,-3.0163052E-3,-7.2375E-2,2.2919461E-2,8.89997E-2,3.4489755E-3,8.3446175E-2,2.0961357E-2,-9.140942E-2,3.7681535E-2,2.0040555E-1,-5.2943032E-2,-1.2237544E-1,9.619947E-3,6.740931E-3,-4.2219467E-2,1.1587179E-2,6.93585E-2,9.842438E-3,-3.5664223E-2,4.8956512E-3,-8.076875E-2,3.7925757E-2,-4.228743E-4],"categories":[],"categories_nodes":[],"categories_segments":[],"categories_sizes":[],"default_left":[0,0,0,0,0,0,0,0,0,0,0,0,0,0,0,0,0,0,0,0,0,0,0,0,0,0,0,0,0,0,0,0,0],"id":23,"left_children":[1,3,5,7,9,-1,-1,11,13,15,-1,17,19,-1,21,-1,-1,23,-1,25,27,29,31,-1,-1,-1,-1,-1,-1,-1,-1,-1,-1],"loss_changes":[4.196628E-2,1.1101435E-1,8.178724E-2,3.5700303E-2,4.7473244E-2,0E0,0E0,7.6140806E-2,1.678465E-1,3.007874E-3,0E0,7.931335E-2,2.2604266E-1,0E0,6.639979E-2,0E0,0E0,9.864722E-2,0E0,1.5976176E-2,7.175106E-2,8.586457E-2,1.0452567E-1,0E0,0E0,0E0,0E0,0E0,0E0,0E0,0E0,0E0,0E0],"parents":[2147483647,0,0,1,1,2,2,3,3,4,4,7,7,8,8,9,9,11,11,12,12,14,14,17,17,19,19,20,20,21,21,22,22],"right_children":[2,4,6,8,10,-1,-1,12,14,16,-1,18,20,-1,22,-1,-1,24,-1,26,28,30,32,-1,-1,-1,-1,-1,-1,-1,-1,-1,-1],"split_conditions":[1.9427502E1,1.9171251E1,1E-1,1.3608762E1,2E-1,-5.6537755E-2,2.544594E-2,1.3554584E1,1.3776762E1,1.9308752E1,-3.0163052E-3,3.5765903E2,1.3787918E1,8.89997E-2,1.4021525E1,8.3446175E-2,2.0961357E-2,6.83375E0,3.7681535E-2,7.208994E0,1.0948973E1,1.3864674E1,1.476439E1,6.740931E-3,-4.2219467E-2,1.1587179E-2,6.93585E-2,9.842438E-3,-3.5664223E-2,4.8956512E-3,-8.076875E-2,3.7925757E-2,-4.228743E-4],"split_indices":[0,0,1,2,1,0,0,0,2,0,0,3,0,0,2,0,0,0,0,2,2,2,2,0,0,0,0,0,0,0,0,0,0],"split_type":[0,0,0,0,0,0,0,0,0,0,0,0,0,0,0,0,0,0,0,0,0,0,0,0,0,0,0,0,0,0,0,0,0],"sum_hessian":[1.22E2,1.19E2,3E0,1.16E2,3E0,2E0,1E0,3.2E1,8.4E1,2E0,1E0,1.7E1,1.5E1,1E0,8.3E1,1E0,1E0,1.6E1,1E0,4E0,1.1E1,3E0,8E1,5E0,1.1E1,1E0,3E0,5E0,6E0,2E0,1E0,6E0,7.4E1],"tree_param":{"num_deleted":"0","num_feature":"5","num_nodes":"33","size_leaf_vector":"1"}},{"base_weights":[2.7423245E-3,5.579897E-3,-8.307044E-2,3.8432807E-4,7.8269824E-2,-3.0274767E-2,-4.430115E-3,5.3849816E-2,-5.9094974E-3,-1.6850103E-2,1.3244326E-1,1.0847576E-1,-4.4321656E-2,1.0491211E-2,-4.9628913E-2,4.7951464E-2,1.5530682E-2,2.5932333E-2,7.122121E-2,-2.8744841E-2,2.1946708E-2,2.6390506E-3,5.9419014E-2,-1.0659545E-1,-2.5147157E-2,2.5883665E-2,-7.743198E-3,1.050759E-2,-6.315708E-4,-1.608249E-2,1.1648608E-2,3.309608E-2,-1.6050974E-2],"categories":[],"categories_nodes":[],"categories_segments":[],"categories_sizes":[],"default_left":[0,0,0,0,0,0,0,0,0,0,0,0,0,0,0,0,0,0,0,0,0,0,0,0,0,0,0,0,0,0,0,0,0],"id":24,"left_children":[1,3,5,7,9,-1,-1,11,13,-1,15,17,19,21,23,-1,-1,25,-1,-1,27,29,-1,-1,31,-1,-1,-1,-1,-1,-1,-1,-1],"loss_changes":[3.041402E-2,4.528978E-2,3.3853855E-3,3.8343005E-2,6.570219E-2,0E0,0E0,6.916034E-2,7.365766E-2,0E0,4.9857497E-3,7.898103E-2,1.9165123E-2,1.0994079E-1,2.0061144E-1,0E0,0E0,2.0961978E-2,0E0,0E0,1.0174331E-3,1.5067825E-1,0E0,0E0,1.0961828E-1,0E0,0E0,0E0,0E0,0E0,0E0,0E0,0E0],"parents":[2147483647,0,0,1,1,2,2,3,3,4,4,7,7,8,8,10,10,11,11,12,12,13,13,14,14,17,17,20,20,21,21,24,24],"right_children":[2,4,6,8,10,-1,-1,12,14,-1,16,18,20,22,24,-1,-1,26,-1,-1,28,30,-1,-1,32,-1,-1,-1,-1,-1,-1,-1,-1],"split_conditions":[1.8000002E1,6.2E0,1.21379175E1,1.35999E2,1.3350371E1,-3.0274767E-2,-4.430115E-3,2E-1,1.6431667E1,-1.6850103E-2,1.37E1,1.1521448E2,9.733748E0,1.5392083E1,1.6465002E1,4.7951464E-2,1.5530682E-2,9.548332E0,7.122121E-2,-2.8744841E-2,1.3129581E1,2.4070164E2,5.9419014E-2,-1.0659545E-1,1.6696253E1,2.5883665E-2,-7.743198E-3,1.050759E-2,-6.315708E-4,-1.608249E-2,1.1648608E-2,3.309608E-2,-1.6050974E-2],"split_indices":[1,1,0,3,2,0,0,1,0,0,1,3,0,0,0,0,0,0,0,0,0,3,0,0,0,0,0,0,0,0,0,0,0],"split_type":[0,0,0,0,0,0,0,0,0,0,0,0,0,0,0,0,0,0,0,0,0,0,0,0,0,0,0,0,0,0,0,0,0],"sum_hessian":[1.22E2,1.19E2,3E0,1.12E2,7E0,2E0,1E0,1.1E1,1.01E2,2E0,5E0,7E0,4E0,7.4E1,2.7E1,3E0,2E0,5E0,2E0,2E0,2E0,7.2E1,2E0,1E0,2.6E1,2E0,3E0,1E0,1E0,2.8E1,4.4E1,4E0,2.2E1],"tree_param":{"num_deleted":"0","num_feature":"5","num_nodes":"33","size_leaf_vector":"1"}},{"base_weights":[2.3086718E-3,-1.3916856E-2,1.6078021E-2,1.2042858E-2,-4.3207012E-2,2.4528807E-1,1.5011737E-3,-1.638955E-2,1.11866765E-1,-5.678926E-2,-1.7058302E-2,1.0093708E-1,-4.2327764E-3,4.229323E-2,-2.7522158E-2,-8.180217E-2,3.267234E-2,4.069124E-2,-4.613614E-3,7.7020094E-2,-3.9724987E-2,1.408277E-2,1.6360268E-1,-4.549738E-2,5.8582015E-2,-1.5469487E-1,-1.8049922E-2,1.6609943E-1,-1.4526055E-2,-7.2559714E-4,5.8200434E-2,-9.1980904E-2,5.0156504E-2,3.8217947E-2,-4.6543054E-2,6.1429117E-2,-1.5621186E-4,1.4918097E-2,-8.7619446E-2,1.4548138E-1,-4.296285E-2,-7.591294E-2,-1.4345029E-3,5.2184165E-3,-1.46946255E-2,2.8645992E-3,6.453004E-2,2.0149935E-2,-8.417606E-3,-4.0943567E-3,2.439332E-3,3.301083E-3,-3.7192985E-2,4.2674378E-2,-1.0064378E-2,-7.4593364E-3,3.9566316E-2,1.2431146E-2,-2.700677E-2,-2.7170038E-2,1.2013844E-2,-5.332158E-2,-6.0715205E-3,5.366185E-2,6.7960564E-3,-3.765607E-3,-1.4674736E-2],"categories":[],"categories_nodes":[],"categories_segments":[],"categories_sizes":[],"default_left":[0,0,0,0,0,0,0,0,0,0,0,0,0,0,0,0,0,0,0,0,0,0,0,0,0,0,0,0,0,0,0,0,0,0,0,0,0,0,0,0,0,0,0,0,0,0,0,0,0,0,0,0,0,0,0,0,0,0,0,0,0,0,0,0,0,0,0],"id":25,"left_children":[1,3,5,7,9,11,13,15,17,-1,19,-1,-1,21,23,25,27,-1,-1,29,31,33,35,37,39,41,43,45,47,49,-1,51,53,55,57,-1,-1,59,61,63,65,-1,-1,-1,-1,-1,-1,-1,-1,-1,-1,-1,-1,-1,-1,-1,-1,-1,-1,-1,-1,-1,-1,-1,-1,-1,-1],"loss_changes":[2.7703794E-2,4.3861084E-2,2.2348951E-1,8.98187E-2,9.991302E-2,9.9343E-2,7.693496E-2,8.2904324E-2,2.3258924E-2,0E0,5.423831E-2,0E0,0E0,9.00953E-2,6.147951E-2,4.832559E-2,9.6875936E-2,0E0,0E0,4.5614745E-2,9.8550245E-2,3.5432722E-2,3.388405E-2,8.2741514E-2,6.8019584E-2,7.250853E-2,8.526686E-3,2.8630473E-2,1.5150777E-2,5.687666E-4,0E0,4.4200003E-2,6.64398E-2,1.03730865E-1,3.0507632E-2,0E0,0E0,4.0735666E-2,1.1177698E-1,1.2353502E-2,1.10142864E-4,0E0,0E0,0E0,0E0,0E0,0E0,0E0,0E0,0E0,0E0,0E0,0E0,0E0,0E0,0E0,0E0,0E0,0E0,0E0,0E0,0E0,0E0,0E0,0E0,0E0,0E0],"parents":[2147483647,0,0,1,1,2,2,3,3,4,4,5,5,6,6,7,7,8,8,10,10,13,13,14,14,15,15,16,16,19,19,20,20,21,21,22,22,23,23,24,24,25,25,26,26,27,27,28,28,29,29,31,31,32,32,33,33,34,34,37,37,38,38,39,39,40,40],"right_children":[2,4,6,8,10,12,14,16,18,-1,20,-1,-1,22,24,26,28,-1,-1,30,32,34,36,38,40,42,44,46,48,50,-1,52,54,56,58,-1,-1,60,62,64,66,-1,-1,-1,-1,-1,-1,-1,-1,-1,-1,-1,-1,-1,-1,-1,-1,-1,-1,-1,-1,-1,-1,-1,-1,-1,-1],"split_conditions":[1.0825417E1,7.1150002E0,1.1081664E1,5.579584E0,7.7754173E0,1E-1,3E0,1.5299999E1,1E-1,-5.678926E-2,7.900417E0,1.0093708E-1,-4.2327764E-3,1.8692083E1,2.2545315E1,2.5826144E2,1.6928614E1,4.069124E-2,-4.613614E-3,7.887916E0,5E0,1.6996248E1,1.1E0,1.3864674E1,4E-1,1E-1,2.9360443E2,1E0,-4.418333E0,7.8025002E0,5.8200434E-2,1E0,2E-1,1.5392083E1,1E0,6.1429117E-2,-1.5621186E-4,8.654986E0,1.7015474E1,1.7273336E1,1.2396251E1,-7.591294E-2,-1.4345029E-3,5.2184165E-3,-1.46946255E-2,2.8645992E-3,6.453004E-2,2.0149935E-2,-8.417606E-3,-4.0943567E-3,2.439332E-3,3.301083E-3,-3.7192985E-2,4.2674378E-2,-1.0064378E-2,-7.4593364E-3,3.9566316E-2,1.2431146E-2,-2.700677E-2,-2.7170038E-2,1.2013844E-2,-5.332158E-2,-6.0715205E-3,5.366185E-2,6.7960564E-3,-3.765607E-3,-1.4674736E-2],"split_indices":[0,0,0,0,0,1,4,2,1,0,0,0,0,0,2,3,2,0,0,0,4,0,1,2,1,1,3,4,0,0,0,4,1,0,4,0,0,2,2,0,0,0,0,0,0,0,0,0,0,0,0,0,0,0,0,0,0,0,0,0,0,0,0,0,0,0,0],"split_type":[0,0,0,0,0,0,0,0,0,0,0,0,0,0,0,0,0,0,0,0,0,0,0,0,0,0,0,0,0,0,0,0,0,0,0,0,0,0,0,0,0,0,0,0,0,0,0,0,0,0,0,0,0,0,0,0,0,0,0,0,0,0,0,0,0,0,0],"sum_hessian":[1.22E2,5.6E1,6.6E1,3E1,2.6E1,3E0,6.3E1,2.4E1,6E0,3E0,2.3E1,2E0,1E0,2.6E1,3.7E1,1E1,1.4E1,5E0,1E0,4E0,1.9E1,2.2E1,4E0,3.1E1,6E0,4E0,6E0,3E0,1.1E1,3E0,1E0,1.2E1,7E0,1.6E1,6E0,3E0,1E0,1.3E1,1.8E1,3E0,3E0,2E0,2E0,3E0,3E0,1E0,2E0,1E0,1E1,1E0,2E0,3E0,9E0,3E0,4E0,1E1,6E0,2E0,4E0,2E0,1.1E1,7E0,1.1E1,2E0,1E0,1E0,2E0],"tree_param":{"num_deleted":"0","num_feature":"5","num_nodes":"67","size_leaf_vector":"1"}},{"base_weights":[2.9968312E-3,-1.3652151E-2,1.3120278E-2,-3.749876E-3,-1.5763557E-1,1.5528886E-1,7.2585973E-3,-5.6268074E-2,3.3346258E-2,-1.4591683E-2,-5.6344327E-2,2.3787261E-3,6.750126E-2,4.8164416E-2,-2.9192036E-3,-7.1528845E-2,7.678509E-4,1.3311827E-1,1.5328161E-2,-3.2143988E-2,6.691139E-2,-3.2773044E-2,2.5365932E-3,-1.4474523E-1,-2.0446127E-2,8.364264E-2,-2.4708869E-2,3.812472E-2,6.2714845E-2,7.797059E-2,-2.7455334E-2,-7.516718E-3,9.7434305E-2,-1.2923399E-2,4.1492067E-2,-1.9587595E-2,-6.0730346E-2,1.1578632E-2,-9.388405E-3,4.1941884E-3,3.3445E-2,1.4721216E-2,2.4349093E-3,-7.29813E-3,3.7586328E-2,-1.5485015E-2,1.5567792E-2,1.0050345E-2,-7.843941E-3,4.951348E-2,7.4559217E-3,-3.562075E-5,-8.2607895E-2,4.5193065E-2,-4.9624033E-3],"categories":[],"categories_nodes":[],"categories_segments":[],"categories_sizes":[],"default_left":[0,0,0,0,0,0,0,0,0,0,0,0,0,0,0,0,0,0,0,0,0,0,0,0,0,0,0,0,0,0,0,0,0,0,0,0,0,0,0,0,0,0,0,0,0,0,0,0,0,0,0,0,0,0,0],"id":26,"left_children":[1,3,5,7,9,11,13,15,17,-1,-1,-1,-1,19,21,23,25,27,29,-1,31,-1,33,35,37,39,-1,41,-1,43,45,47,49,51,53,-1,-1,-1,-1,-1,-1,-1,-1,-1,-1,-1,-1,-1,-1,-1,-1,-1,-1,-1,-1],"loss_changes":[2.0910168E-2,6.641977E-2,6.304052E-2,8.954632E-2,7.33085E-4,2.9035635E-2,3.136545E-2,1.6592756E-2,4.6497487E-2,0E0,0E0,0E0,0E0,5.084351E-2,3.5662208E-2,5.3141907E-2,4.1336264E-2,2.0881943E-2,6.64622E-2,0E0,3.2537065E-2,0E0,3.6069047E-2,1.4284238E-2,7.612988E-3,4.2597074E-3,0E0,5.8713835E-4,0E0,5.1452253E-2,3.1435873E-2,4.6967007E-3,4.497076E-2,1.4446484E-1,1.10177204E-1,0E0,0E0,0E0,0E0,0E0,0E0,0E0,0E0,0E0,0E0,0E0,0E0,0E0,0E0,0E0,0E0,0E0,0E0,0E0,0E0],"parents":[2147483647,0,0,1,1,2,2,3,3,4,4,5,5,6,6,7,7,8,8,13,13,14,14,15,15,16,16,17,17,18,18,20,20,22,22,23,23,24,24,25,25,27,27,29,29,30,30,31,31,32,32,33,33,34,34],"right_children":[2,4,6,8,10,12,14,16,18,-1,-1,-1,-1,20,22,24,26,28,30,-1,32,-1,34,36,38,40,-1,42,-1,44,46,48,50,52,54,-1,-1,-1,-1,-1,-1,-1,-1,-1,-1,-1,-1,-1,-1,-1,-1,-1,-1,-1,-1],"split_conditions":[8.867084E0,8.73375E0,9.052501E0,1.5299999E1,8.78375E0,8.94625E0,1.1368535E1,5E0,1.6928614E1,-1.4591683E-2,-5.6344327E-2,2.3787261E-3,6.750126E-2,1.2583749E1,1.1901798E1,2.5826144E2,5.87125E0,3.031667E0,2.5448679E2,-3.2143988E-2,1.2276044E2,-3.2773044E-2,2.4423953E2,1.3089354E1,1.1212135E1,5.4858327E0,-2.4708869E-2,7.541677E-2,6.2714845E-2,2.1770541E2,2.94709E2,1.3129581E1,2.1998477E2,2.4070164E2,2.617364E2,-1.9587595E-2,-6.0730346E-2,1.1578632E-2,-9.388405E-3,4.1941884E-3,3.3445E-2,1.4721216E-2,2.4349093E-3,-7.29813E-3,3.7586328E-2,-1.5485015E-2,1.5567792E-2,1.0050345E-2,-7.843941E-3,4.951348E-2,7.4559217E-3,-3.562075E-5,-8.2607895E-2,4.5193065E-2,-4.9624033E-3],"split_indices":[0,0,0,2,0,0,2,4,2,0,0,0,0,0,2,3,0,0,3,0,3,0,3,2,2,0,0,0,0,3,3,0,3,3,3,0,0,0,0,0,0,0,0,0,0,0,0,0,0,0,0,0,0,0,0],"split_type":[0,0,0,0,0,0,0,0,0,0,0,0,0,0,0,0,0,0,0,0,0,0,0,0,0,0,0,0,0,0,0,0,0,0,0,0,0,0,0,0,0,0,0,0,0,0,0,0,0,0,0,0,0,0,0],"sum_hessian":[1.22E2,4.6E1,7.6E1,4.4E1,2E0,2E0,7.4E1,1.8E1,2.6E1,1E0,1E0,1E0,1E0,1.4E1,6E1,1.4E1,4E0,3E0,2.3E1,1E0,1.3E1,2E0,5.8E1,5E0,9E0,2E0,2E0,2E0,1E0,9E0,1.4E1,4E0,9E0,4.2E1,1.6E1,3E0,2E0,1E0,8E0,1E0,1E0,1E0,1E0,3E0,6E0,1.1E1,3E0,1E0,3E0,4E0,5E0,4.1E1,1E0,5E0,1.1E1],"tree_param":{"num_deleted":"0","num_feature":"5","num_nodes":"55","size_leaf_vector":"1"}},{"base_weights":[2.0639307E-3,4.838931E-4,2.9224278E-2,2.5005233E-3,-5.963183E-2,2.098261E-4,6.830561E-2,-3.7319185E-3,-2.1364788E-2,4.705368E-3,-2.6246881E-2,1.8702984E-2,3.2567024E-2,-1.2898064E-3,6.546655E-2,6.5280655E-3,-1.0621236E-1,7.602811E-4,7.656062E-3,2.6582032E-3,-9.125612E-3,3.2040525E-2,-1.5841326E-2,-1.6409267E-2,1.5489382E-2,-4.7093946E-2,-6.012237E-3],"categories":[],"categories_nodes":[],"categories_segments":[],"categories_sizes":[],"default_left":[0,0,0,0,0,0,0,0,0,0,0,0,0,0,0,0,0,0,0,0,0,0,0,0,0,0,0],"id":27,"left_children":[1,3,-1,5,7,9,11,-1,-1,13,15,17,-1,19,21,23,25,-1,-1,-1,-1,-1,-1,-1,-1,-1,-1],"loss_changes":[1.8483685E-2,1.4939316E-2,0E0,1.7923672E-2,1.300809E-3,1.392022E-2,5.955914E-3,0E0,0E0,3.651183E-2,4.524806E-2,2.660019E-4,0E0,2.7471391E-2,4.9638387E-2,3.8723238E-2,1.8727556E-2,0E0,0E0,0E0,0E0,0E0,0E0,0E0,0E0,0E0,0E0],"parents":[2147483647,0,0,1,1,3,3,4,4,5,5,6,6,9,9,10,10,11,11,13,13,14,14,15,15,16,16],"right_children":[2,4,-1,6,8,10,12,-1,-1,14,16,18,-1,20,22,24,26,-1,-1,-1,-1,-1,-1,-1,-1,-1,-1],"split_conditions":[3.5765903E2,3.4931607E2,2.9224278E-2,3.371451E2,1.6170831E0,6E0,1.3056667E1,-3.7319185E-3,-2.1364788E-2,1.8692083E1,1.6519167E1,1.0545832E0,3.2567024E-2,1.6431667E1,1.1E0,1.7313717E1,2E-1,7.602811E-4,7.656062E-3,2.6582032E-3,-9.125612E-3,3.2040525E-2,-1.5841326E-2,-1.6409267E-2,1.5489382E-2,-4.7093946E-2,-6.012237E-3],"split_indices":[3,3,0,3,0,4,0,0,0,0,0,0,0,0,1,2,1,0,0,0,0,0,0,0,0,0,0],"split_type":[0,0,0,0,0,0,0,0,0,0,0,0,0,0,0,0,0,0,0,0,0,0,0,0,0,0,0],"sum_hessian":[1.22E2,1.21E2,1E0,1.18E2,3E0,1.15E2,3E0,1E0,2E0,9.9E1,1.6E1,2E0,1E0,9.1E1,8E0,1.2E1,4E0,1E0,1E0,6.8E1,2.3E1,6E0,2E0,5E0,7E0,2E0,2E0],"tree_param":{"num_deleted":"0","num_feature":"5","num_nodes":"27","size_leaf_vector":"1"}},{"base_weights":[1.4513922E-3,3.4039745E-3,-5.7488926E-2,4.6756763E-2,-3.2345834E-3,-3.6426697E-2,2.014669E-2,9.938446E-2,-1.8293984E-2,-1.12098E-1,2.1867203E-3,1.5819782E-1,1.308344E-2,-5.68465E-2,1.6206825E-2,-4.142542E-2,-1.2226582E-3,-1.5251323E-2,1.5915234E-2,1.2114323E-2,5.5202916E-2,-2.0077776E-2,-3.9912346E-3,8.144063E-3,6.685093E-3,-6.488896E-3,-1.3576233E-1,8.942114E-2,2.6993486E-4,1.4394522E-4,2.5780736E-3,-1.6993275E-2,5.1399693E-3,-1.2801648E-2,-4.8291404E-2,5.144571E-3,7.570229E-2,1.3427529E-2,-8.374533E-3],"categories":[],"categories_nodes":[],"categories_segments":[],"categories_sizes":[],"default_left":[0,0,0,0,0,0,0,0,0,0,0,0,0,0,0,0,0,0,0,0,0,0,0,0,0,0,0,0,0,0,0,0,0,0,0,0,0,0,0],"id":28,"left_children":[1,3,5,7,9,-1,-1,11,13,15,17,19,-1,21,23,-1,-1,25,27,-1,-1,-1,-1,-1,29,31,33,35,37,-1,-1,-1,-1,-1,-1,-1,-1,-1,-1],"loss_changes":[1.4351247E-2,3.468724E-2,4.0029988E-2,5.6593664E-2,6.2214196E-2,0E0,0E0,2.262254E-2,1.1562045E-2,1.3472997E-2,2.4421968E-2,4.7337785E-3,0E0,8.6513814E-4,3.3936184E-4,0E0,0E0,4.6637654E-2,6.5527104E-2,0E0,0E0,0E0,0E0,0E0,4.324739E-5,5.191587E-2,1.7113611E-4,1.1341904E-1,6.143712E-2,0E0,0E0,0E0,0E0,0E0,0E0,0E0,0E0,0E0,0E0],"parents":[2147483647,0,0,1,1,2,2,3,3,4,4,7,7,8,8,9,9,10,10,11,11,13,13,14,14,17,17,18,18,24,24,25,25,26,26,27,27,28,28],"right_children":[2,4,6,8,10,-1,-1,12,14,16,18,20,-1,22,24,-1,-1,26,28,-1,-1,-1,-1,-1,30,32,34,36,38,-1,-1,-1,-1,-1,-1,-1,-1,-1,-1],"split_conditions":[1.9427502E1,1.5043593E2,1E-1,2E-1,1.6116347E2,-3.6426697E-2,2.014669E-2,2E0,1.0964999E1,1.8415E1,8.867084E0,7.541677E-2,1.308344E-2,9.733748E0,1.3129581E1,-4.142542E-2,-1.2226582E-3,8.73375E0,1.1081664E1,1.2114323E-2,5.5202916E-2,-2.0077776E-2,-3.9912346E-3,8.144063E-3,5E-1,1.4410121E1,8.78375E0,1.0825417E1,1.61198E1,1.4394522E-4,2.5780736E-3,-1.6993275E-2,5.1399693E-3,-1.2801648E-2,-4.8291404E-2,5.144571E-3,7.570229E-2,1.3427529E-2,-8.374533E-3],"split_indices":[0,3,1,1,3,0,0,4,0,0,0,0,0,0,0,0,0,0,0,0,0,0,0,0,1,2,0,0,2,0,0,0,0,0,0,0,0,0,0],"split_type":[0,0,0,0,0,0,0,0,0,0,0,0,0,0,0,0,0,0,0,0,0,0,0,0,0,0,0,0,0,0,0,0,0,0,0,0,0,0,0],"sum_hessian":[1.22E2,1.19E2,3E0,1.5E1,1.04E2,2E0,1E0,8E0,7E0,4E0,1E2,3E0,5E0,3E0,4E0,3E0,1E0,4.4E1,5.6E1,1E0,2E0,2E0,1E0,1E0,3E0,4.2E1,2E0,9E0,4.7E1,1E0,2E0,1.3E1,2.9E1,1E0,1E0,7E0,2E0,1.8E1,2.9E1],"tree_param":{"num_deleted":"0","num_feature":"5","num_nodes":"39","size_leaf_vector":"1"}},{"base_weights":[1.188514E-3,-4.9091348E-5,2.2826457E-2,-7.4857604E-3,1.3787714E-2,6.005954E-3,-4.3327823E-2,5.1365856E-2,1.9320287E-3,1.7903993E-4,3.4414604E-2,-6.759168E-2,-2.3933377E-2,-2.2205023E-2,2.3786983E-2,-6.176457E-2,1.0086437E-2,9.122794E-3,-7.879E-2,-7.413233E-2,1.1458322E-2,4.8282016E-2,-1.6959397E-2,-2.8024757E-2,-2.0277975E-3,5.010743E-3,-2.9739702E-2,1.0478318E-2,-2.914136E-2,-3.1906486E-2,1.712469E-2,-2.682006E-2,-1.0954325E-2,1.7464139E-2,-1.583761E-2,2.1798309E-2,-3.0397226E-3,1.4171246E-2,-1.7079227E-2],"categories":[],"categories_nodes":[],"categories_segments":[],"categories_sizes":[],"default_left":[0,0,0,0,0,0,0,0,0,0,0,0,0,0,0,0,0,0,0,0,0,0,0,0,0,0,0,0,0,0,0,0,0,0,0,0,0,0,0],"id":29,"left_children":[1,3,-1,5,7,9,11,-1,13,15,-1,-1,17,19,21,23,25,27,29,31,33,35,37,-1,-1,-1,-1,-1,-1,-1,-1,-1,-1,-1,-1,-1,-1,-1,-1],"loss_changes":[1.1405374E-2,1.2656979E-2,0E0,3.89459E-2,7.992706E-2,3.7352435E-2,7.225356E-2,0E0,2.215627E-2,3.5603885E-2,0E0,0E0,3.8799137E-2,3.581037E-2,2.2776676E-2,1.3296468E-2,3.7785545E-2,4.1781493E-2,3.603348E-2,1.3303682E-3,4.2125944E-2,2.0673435E-2,2.5783593E-2,0E0,0E0,0E0,0E0,0E0,0E0,0E0,0E0,0E0,0E0,0E0,0E0,0E0,0E0,0E0,0E0],"parents":[2147483647,0,0,1,1,3,3,4,4,5,5,6,6,8,8,9,9,12,12,13,13,14,14,15,15,16,16,17,17,18,18,19,19,20,20,21,21,22,22],"right_children":[2,4,-1,6,8,10,12,-1,14,16,-1,-1,18,20,22,24,26,28,30,32,34,36,38,-1,-1,-1,-1,-1,-1,-1,-1,-1,-1,-1,-1,-1,-1,-1,-1],"split_conditions":[3.5765903E2,3E-1,2.2826457E-2,1.6431667E1,4E-1,1.5392083E1,1.6465002E1,5.1365856E-2,1.2848332E1,1E0,3.4414604E-2,-6.759168E-2,1.7992796E1,1.8994312E2,1.790875E1,2.6321112E2,1.4717083E1,1.9427502E1,1.8415E1,4.5999994E0,2.5510825E2,2.1060768E1,3E0,-2.8024757E-2,-2.0277975E-3,5.010743E-3,-2.9739702E-2,1.0478318E-2,-2.914136E-2,-3.1906486E-2,1.712469E-2,-2.682006E-2,-1.0954325E-2,1.7464139E-2,-1.583761E-2,2.1798309E-2,-3.0397226E-3,1.4171246E-2,-1.7079227E-2],"split_indices":[3,1,0,0,1,0,0,0,0,4,0,0,2,3,0,3,0,0,0,1,3,2,4,0,0,0,0,0,0,0,0,0,0,0,0,0,0,0,0],"split_type":[0,0,0,0,0,0,0,0,0,0,0,0,0,0,0,0,0,0,0,0,0,0,0,0,0,0,0,0,0,0,0,0,0,0,0,0,0,0,0],"sum_hessian":[1.22E2,1.21E2,1E0,7.9E1,4.2E1,5.8E1,2.1E1,2E0,4E1,5.6E1,2E0,1E0,2E1,1.9E1,2.1E1,7E0,4.9E1,1.3E1,7E0,7E0,1.2E1,1.3E1,8E0,4E0,3E0,4.7E1,2E0,1.1E1,2E0,6E0,1E0,4E0,3E0,7E0,5E0,9E0,4E0,3E0,5E0],"tree_param":{"num_deleted":"0","num_feature":"5","num_nodes":"39","size_leaf_vector":"1"}},{"base_weights":[2.831075E-4,-1.192397E-2,7.730504E-3,-4.5380234E-3,-3.5621554E-2,1.3446505E-1,2.5580486E-3,-3.507288E-2,1.7117543E-2,5.0552133E-3,5.5454064E-2,-4.0313363E-2,8.278715E-3,-5.5200443E-2,-4.9742754E-4,1.0355985E-1,1.997261E-3,-6.797266E-2,3.7662786E-2,1.4598352E-1,-4.5718998E-4,-1.1353332E-1,-1.184234E-2,1.2232184E-2,-2.1050211E-2,2.3888111E-2,5.1386263E-2,-1.5343179E-2,7.095957E-2,9.1310805E-3,-8.944708E-2,-6.287992E-4,1.7577052E-2,5.9559684E-2,-1.7494083E-3,-7.331104E-3,5.656341E-2,-4.8932735E-2,-7.833925E-3,2.2048322E-2,-2.332298E-2,-8.163361E-3,1.4632121E-3,9.5455535E-3,1.2040973E-3,1.7528862E-2,-6.690358E-3,3.495193E-2,5.2785873E-4,-3.0984772E-2,-3.040445E-3,3.2865203E-3,-1.0107893E-2,3.2570843E-2,4.21413E-3],"categories":[],"categories_nodes":[],"categories_segments":[],"categories_sizes":[],"default_left":[0,0,0,0,0,0,0,0,0,0,0,0,0,0,0,0,0,0,0,0,0,0,0,0,0,0,0,0,0,0,0,0,0,0,0,0,0,0,0,0,0,0,0,0,0,0,0,0,0,0,0,0,0,0,0],"id":30,"left_children":[1,3,5,7,-1,9,11,13,15,-1,-1,17,19,21,23,25,27,29,31,33,35,37,39,-1,41,43,-1,45,47,-1,49,-1,-1,-1,-1,51,53,-1,-1,-1,-1,-1,-1,-1,-1,-1,-1,-1,-1,-1,-1,-1,-1,-1,-1],"loss_changes":[1.1274225E-2,3.6540706E-2,5.0131753E-2,3.0356597E-2,0E0,1.4662076E-2,1.872772E-2,1.3195012E-2,3.5083033E-2,0E0,0E0,2.197093E-2,8.066614E-2,2.9005937E-2,7.644233E-3,1.749219E-2,2.9788826E-2,1.7515518E-2,2.6189475E-3,3.3068433E-2,2.5499774E-2,1.7410353E-2,5.0703865E-2,0E0,1.0911569E-3,3.4512836E-4,0E0,1.156928E-2,1.55542195E-2,0E0,5.5371933E-3,0E0,0E0,0E0,0E0,2.8328452E-2,1.3952656E-2,0E0,0E0,0E0,0E0,0E0,0E0,0E0,0E0,0E0,0E0,0E0,0E0,0E0,0E0,0E0,0E0,0E0,0E0],"parents":[2147483647,0,0,1,1,2,2,3,3,5,5,6,6,7,7,8,8,11,11,12,12,13,13,14,14,15,15,16,16,17,17,18,18,19,19,20,20,21,21,22,22,24,24,25,25,27,27,28,28,30,30,35,35,36,36],"right_children":[2,4,6,8,-1,10,12,14,16,-1,-1,18,20,22,24,26,28,30,32,34,36,38,40,-1,42,44,-1,46,48,-1,50,-1,-1,-1,-1,52,54,-1,-1,-1,-1,-1,-1,-1,-1,-1,-1,-1,-1,-1,-1,-1,-1,-1,-1],"split_conditions":[8.867084E0,8.73375E0,9.052501E0,1.5299999E1,-3.5621554E-2,8.94625E0,1.0825417E1,2.889033E2,1.6928614E1,5.0552133E-3,5.5454064E-2,7E-1,1.1081664E1,5.473333E0,2.9360443E2,3.031667E0,7.887916E0,2.2128273E1,9.733748E0,1E-1,2.474329E1,1E-1,6.83375E0,1.2232184E-2,7.967083E0,7.541677E-2,5.1386263E-2,-4.418333E0,8.342083E0,9.1310805E-3,2.431666E1,-6.287992E-4,1.7577052E-2,5.9559684E-2,-1.7494083E-3,1.6595179E1,4E-1,-4.8932735E-2,-7.833925E-3,2.2048322E-2,-2.332298E-2,-8.163361E-3,1.4632121E-3,9.5455535E-3,1.2040973E-3,1.7528862E-2,-6.690358E-3,3.495193E-2,5.2785873E-4,-3.0984772E-2,-3.040445E-3,3.2865203E-3,-1.0107893E-2,3.2570843E-2,4.21413E-3],"split_indices":[0,0,0,2,0,0,0,3,2,0,0,1,0,0,3,0,0,3,0,1,2,1,0,0,0,0,0,0,0,0,2,0,0,0,0,2,1,0,0,0,0,0,0,0,0,0,0,0,0,0,0,0,0,0,0],"split_type":[0,0,0,0,0,0,0,0,0,0,0,0,0,0,0,0,0,0,0,0,0,0,0,0,0,0,0,0,0,0,0,0,0,0,0,0,0,0,0,0,0,0,0,0,0,0,0,0,0,0,0,0,0,0,0],"sum_hessian":[1.22E2,4.6E1,7.6E1,4.4E1,2E0,2E0,7.4E1,1.8E1,2.6E1,1E0,1E0,8E0,6.6E1,1.1E1,7E0,3E0,2.3E1,6E0,2E0,3E0,6.3E1,4E0,7E0,2E0,5E0,2E0,1E0,1.9E1,4E0,1E0,5E0,1E0,1E0,2E0,1E0,5.7E1,6E0,2E0,2E0,3E0,4E0,4E0,1E0,1E0,1E0,1E0,1.8E1,2E0,2E0,4E0,1E0,3.4E1,2.3E1,2E0,4E0],"tree_param":{"num_deleted":"0","num_feature":"5","num_nodes":"55","size_leaf_vector":"1"}},{"base_weights":[1.504362E-3,-6.3338303E-3,1.0691283E-2,4.675874E-3,-4.481253E-2,2.9849384E-3,6.531019E-2,-3.990297E-3,8.866918E-2,-3.747586E-2,-2.2879181E-2,1.1376616E-2,-6.184874E-2,3.4102563E-2,-3.7068237E-2,-5.1621675E-2,6.5626954E-3,3.650029E-2,-6.498689E-3,-4.4513363E-2,2.0638179E-2,-1.9741997E-3,6.6482656E-2,-2.3760198E-2,-5.428982E-3,-1.7933246E-2,1.2525381E-3,-3.5253614E-2,9.088516E-4,6.9941364E-2,-4.1827126E-3,2.9111863E-3,-8.303524E-2,9.651375E-3,-3.824115E-3,8.051136E-3,-5.5936743E-2,1.1908762E-1,5.811557E-4,2.0331413E-2,-2.656324E-2,6.4890384E-4,3.0986937E-2,-3.2169115E-2,3.6147588E-3,-9.269679E-3,1.0725273E-2,-3.1039955E-3,-2.958622E-2,1.4137323E-2,-2.4497388E-3,8.662892E-3,4.0326416E-2,-9.358233E-3,1.9152332E-2],"categories":[],"categories_nodes":[],"categories_segments":[],"categories_sizes":[],"default_left":[0,0,0,0,0,0,0,0,0,0,0,0,0,0,0,0,0,0,0,0,0,0,0,0,0,0,0,0,0,0,0,0,0,0,0,0,0,0,0,0,0,0,0,0,0,0,0,0,0,0,0,0,0,0,0],"id":31,"left_children":[1,3,5,7,9,11,13,15,17,-1,19,21,23,-1,25,27,29,-1,-1,31,33,35,37,-1,-1,-1,-1,-1,39,41,43,45,47,-1,-1,49,-1,51,53,-1,-1,-1,-1,-1,-1,-1,-1,-1,-1,-1,-1,-1,-1,-1,-1],"loss_changes":[8.924806E-3,2.8593363E-2,2.3797045E-2,3.893254E-2,2.3497162E-2,2.8450858E-2,3.8874477E-2,2.4968805E-2,2.0839434E-2,0E0,1.3157686E-2,3.3973936E-2,3.121838E-3,0E0,3.059396E-3,3.1258103E-2,2.821476E-2,0E0,0E0,1.6683673E-2,2.3352595E-3,7.17818E-2,3.1131506E-2,0E0,0E0,0E0,0E0,0E0,4.188707E-2,1.3338391E-2,6.1507806E-2,6.656238E-3,4.6440437E-3,0E0,0E0,2.3829805E-2,0E0,3.0348003E-3,1.2041974E-2,0E0,0E0,0E0,0E0,0E0,0E0,0E0,0E0,0E0,0E0,0E0,0E0,0E0,0E0,0E0,0E0],"parents":[2147483647,0,0,1,1,2,2,3,3,4,4,5,5,6,6,7,7,8,8,10,10,11,11,12,12,14,14,15,15,16,16,19,19,20,20,21,21,22,22,28,28,29,29,30,30,31,31,32,32,35,35,37,37,38,38],"right_children":[2,4,6,8,10,12,14,16,18,-1,20,22,24,-1,26,28,30,-1,-1,32,34,36,38,-1,-1,-1,-1,-1,40,42,44,46,48,-1,-1,50,-1,52,54,-1,-1,-1,-1,-1,-1,-1,-1,-1,-1,-1,-1,-1,-1,-1,-1],"split_conditions":[1E-1,1.6519167E1,1.8692083E1,1.5392083E1,1.702125E1,1.790875E1,1.1E0,1.861791E2,2.2916946E2,-3.747586E-2,1.4369594E1,1.6465002E1,1.8577497E1,3.4102563E-2,1.9171251E1,1.1885453E1,2.3079347E2,3.650029E-2,-6.498689E-3,1.35999E2,1.7523336E1,1.51170845E1,1.7273336E1,-2.3760198E-2,-5.428982E-3,-1.7933246E-2,1.2525381E-3,-3.5253614E-2,1.7214249E1,1E0,2.4070164E2,1.14249855E2,1.0966713E1,9.651375E-3,-3.824115E-3,4E-1,-5.5936743E-2,1.6598333E1,1.769E1,2.0331413E-2,-2.656324E-2,6.4890384E-4,3.0986937E-2,-3.2169115E-2,3.6147588E-3,-9.269679E-3,1.0725273E-2,-3.1039955E-3,-2.958622E-2,1.4137323E-2,-2.4497388E-3,8.662892E-3,4.0326416E-2,-9.358233E-3,1.9152332E-2],"split_indices":[1,0,0,0,0,0,1,3,3,0,2,0,0,0,0,2,3,0,0,3,0,0,0,0,0,0,0,0,2,4,3,3,2,0,0,1,0,0,0,0,0,0,0,0,0,0,0,0,0,0,0,0,0,0,0],"split_type":[0,0,0,0,0,0,0,0,0,0,0,0,0,0,0,0,0,0,0,0,0,0,0,0,0,0,0,0,0,0,0,0,0,0,0,0,0,0,0,0,0,0,0,0,0,0,0,0,0,0,0,0,0,0,0],"sum_hessian":[1.22E2,6.6E1,5.6E1,5.2E1,1.4E1,5E1,6E0,4.8E1,4E0,2E0,1.2E1,4.5E1,5E0,4E0,2E0,8E0,4E1,3E0,1E0,8E0,4E0,3.7E1,8E0,3E0,2E0,1E0,1E0,3E0,5E0,5E0,3.5E1,4E0,4E0,3E0,1E0,3.6E1,1E0,4E0,4E0,3E0,2E0,2E0,3E0,4E0,3.1E1,2E0,2E0,1E0,3E0,1E1,2.6E1,1E0,3E0,3E0,1E0],"tree_param":{"num_deleted":"0","num_feature":"5","num_nodes":"55","size_leaf_vector":"1"}},{"base_weights":[4.9599685E-4,-1.0770813E-2,7.3666987E-3,-6.4208005E-3,-3.1630706E-2,1.12873994E-1,3.0481843E-3,-3.5416186E-2,7.371436E-3,4.1996064E-3,4.6593692E-2,-3.928172E-3,2.0033414E-2,-5.9797414E-2,9.905644E-4,-1.8134171E-2,3.09431E-2,5.129454E-4,-2.3879446E-2,4.614176E-2,6.3392096E-3,-2.3660662E-2,-3.7255213E-2,9.062791E-3,-1.6738791E-2,1.4357311E-2,-2.5724143E-2,4.3862343E-2,5.827284E-3,-1.694683E-2,9.477602E-3,-2.02312E-2,4.4014335E-2,-1.3379508E-2,5.736715E-3,-6.9245696E-4,-5.9308186E-3,-1.798649E-2,-4.7537833E-3,1.893028E-2,-8.7358905E-3,-1.3941436E-2,7.7303643E-3,2.8863717E-2,-1.4452824E-3,-1.3298138E-2,8.156312E-3,2.724545E-2,1.6428173E-3],"categories":[],"categories_nodes":[],"categories_segments":[],"categories_sizes":[],"default_left":[0,0,0,0,0,0,0,0,0,0,0,0,0,0,0,0,0,0,0,0,0,0,0,0,0,0,0,0,0,0,0,0,0,0,0,0,0,0,0,0,0,0,0,0,0,0,0,0,0],"id":32,"left_children":[1,3,5,7,-1,9,11,13,15,-1,-1,17,19,21,23,25,27,29,-1,-1,31,33,-1,-1,35,-1,37,-1,39,41,43,45,47,-1,-1,-1,-1,-1,-1,-1,-1,-1,-1,-1,-1,-1,-1,-1,-1],"loss_changes":[9.600884E-3,1.8677302E-2,3.4739815E-2,1.8656982E-2,0E0,1.0414135E-2,8.96582E-3,1.3373854E-2,1.9799834E-2,0E0,0E0,1.8188028E-2,3.9326947E-2,1.8002234E-2,4.131873E-3,9.245122E-3,4.836245E-2,8.299702E-3,0E0,0E0,2.1912377E-2,7.1232747E-3,0E0,0E0,1.7303566E-4,0E0,4.1220393E-3,0E0,3.1860538E-2,2.389791E-2,4.3859735E-2,1.6058985E-2,1.5736328E-2,0E0,0E0,0E0,0E0,0E0,0E0,0E0,0E0,0E0,0E0,0E0,0E0,0E0,0E0,0E0,0E0],"parents":[2147483647,0,0,1,1,2,2,3,3,5,5,6,6,7,7,8,8,11,11,12,12,13,13,14,14,15,15,16,16,17,17,20,20,21,21,24,24,26,26,28,28,29,29,30,30,31,31,32,32],"right_children":[2,4,6,8,-1,10,12,14,16,-1,-1,18,20,22,24,26,28,30,-1,-1,32,34,-1,-1,36,-1,38,-1,40,42,44,46,48,-1,-1,-1,-1,-1,-1,-1,-1,-1,-1,-1,-1,-1,-1,-1,-1],"split_conditions":[8.867084E0,8.78375E0,9.052501E0,1.4410121E1,-3.1630706E-2,8.94625E0,1.992235E1,2.889033E2,5.012917E0,4.1996064E-3,4.6593692E-2,1.945333E1,2.0929594E1,1.3089354E1,2.9360443E2,-4.418333E0,1.6928614E1,1.3554584E1,-2.3879446E-2,4.614176E-2,4E0,1.0009036E1,-3.7255213E-2,9.062791E-3,1.6170831E0,1.4357311E-2,-9.141666E-1,4.3862343E-2,2.4497989E2,1.6801823E1,1.3787918E1,3.2E0,1.7273336E1,-1.3379508E-2,5.736715E-3,-6.9245696E-4,-5.9308186E-3,-1.798649E-2,-4.7537833E-3,1.893028E-2,-8.7358905E-3,-1.3941436E-2,7.7303643E-3,2.8863717E-2,-1.4452824E-3,-1.3298138E-2,8.156312E-3,2.724545E-2,1.6428173E-3],"split_indices":[0,0,0,2,0,0,2,3,0,0,0,2,2,2,3,0,2,0,0,0,4,2,0,0,0,0,0,0,3,2,0,1,0,0,0,0,0,0,0,0,0,0,0,0,0,0,0,0,0],"split_type":[0,0,0,0,0,0,0,0,0,0,0,0,0,0,0,0,0,0,0,0,0,0,0,0,0,0,0,0,0,0,0,0,0,0,0,0,0,0,0,0,0,0,0,0,0,0,0,0,0],"sum_hessian":[1.22E2,4.6E1,7.6E1,4.5E1,1E0,2E0,7.4E1,1.4E1,3.1E1,1E0,1E0,5.3E1,2.1E1,8E0,6E0,1.5E1,1.6E1,5.1E1,2E0,1E0,2E1,6E0,2E0,2E0,4E0,1E0,1.4E1,2E0,1.4E1,1.7E1,3.4E1,1.2E1,8E0,4E0,2E0,1E0,3E0,2E0,1.2E1,5E0,9E0,1E1,7E0,4E0,3E1,8E0,4E0,3E0,5E0],"tree_param":{"num_deleted":"0","num_feature":"5","num_nodes":"49","size_leaf_vector":"1"}},{"base_weights":[1.0756077E-3,-3.35245E-5,2.045846E-2,1.1705551E-3,-2.1859074E-2,-3.0585295E-3,1.6740615E-2,2.6066662E-3,-4.7072012E-2,3.655672E-2,7.661781E-3,-1.3386616E-3,8.382055E-2,2.2123854E-3,-5.8269918E-2,9.542902E-5,1.8934965E-2,1.4979021E-3,-1.6186148E-2,3.4282792E-2,-1.1318565E-3,1.4224381E-3,-4.2686463E-4,-2.2944168E-3,-2.149222E-2,-2.7243767E-3,8.282874E-3],"categories":[],"categories_nodes":[],"categories_segments":[],"categories_sizes":[],"default_left":[0,0,0,0,0,0,0,0,0,0,0,0,0,0,0,0,0,0,0,0,0,0,0,0,0,0,0],"id":33,"left_children":[1,3,-1,5,-1,7,9,11,13,-1,15,17,19,21,23,25,-1,-1,-1,-1,-1,-1,-1,-1,-1,-1,-1],"loss_changes":[9.158914E-3,1.07838595E-2,0E0,8.0187E-3,0E0,2.4059817E-2,2.387876E-2,2.7667932E-2,6.199619E-3,0E0,1.0483733E-2,2.7920155E-2,1.1101922E-2,3.4328124E-5,5.543789E-3,6.057969E-3,0E0,0E0,0E0,0E0,0E0,0E0,0E0,0E0,0E0,0E0,0E0],"parents":[2147483647,0,0,1,1,3,3,5,5,6,6,7,7,8,8,10,10,11,11,12,12,13,13,14,14,15,15],"right_children":[2,4,-1,6,-1,8,10,12,14,-1,16,18,20,22,24,26,-1,-1,-1,-1,-1,-1,-1,-1,-1,-1,-1],"split_conditions":[3.5765903E2,3.5649103E2,2.045846E-2,2.803297E2,-2.1859074E-2,2.6263257E2,2.8469308E2,2.6092667E2,1.1792404E1,3.655672E-2,6E0,2.5510825E2,2.0929594E1,7.8025002E0,4.4775E0,3.371451E2,1.8934965E-2,1.4979021E-3,-1.6186148E-2,3.4282792E-2,-1.1318565E-3,1.4224381E-3,-4.2686463E-4,-2.2944168E-3,-2.149222E-2,-2.7243767E-3,8.282874E-3],"split_indices":[3,3,0,3,0,3,3,3,2,0,4,3,2,0,0,3,0,0,0,0,0,0,0,0,0,0,0],"split_type":[0,0,0,0,0,0,0,0,0,0,0,0,0,0,0,0,0,0,0,0,0,0,0,0,0,0,0],"sum_hessian":[1.22E2,1.21E2,1E0,1.2E2,1E0,9.5E1,2.5E1,8.5E1,1E1,1E0,2.4E1,8.2E1,3E0,2E0,8E0,2.2E1,2E0,7.4E1,8E0,2E0,1E0,1E0,1E0,2E0,6E0,1.7E1,5E0],"tree_param":{"num_deleted":"0","num_feature":"5","num_nodes":"27","size_leaf_vector":"1"}},{"base_weights":[1.2026925E-3,2.6229233E-4,1.7389728E-2,1.2881634E-3,-1.8580217E-2,-7.860437E-3,6.4323973E-3,-3.136081E-2,6.6883764E-3,1.06558455E-2,-2.7131354E-2,-1.110771E-2,-2.8321939E-2,-2.6009735E-2,2.354589E-2,-2.9469496E-3,3.1165287E-2,-4.0412806E-2,1.1868042E-2,-6.7199906E-3,2.0353748E-2,2.1826029E-3,-3.183001E-2,1.2260531E-2,-9.93928E-3,3.858552E-4,-2.7110783E-2,1.934765E-2,1.7421532E-3,-5.2161827E-3,-1.7727457E-2],"categories":[],"categories_nodes":[],"categories_segments":[],"categories_sizes":[],"default_left":[0,0,0,0,0,0,0,0,0,0,0,0,0,0,0,0,0,0,0,0,0,0,0,0,0,0,0,0,0,0,0],"id":34,"left_children":[1,3,-1,5,-1,7,9,11,13,15,17,19,-1,21,23,25,27,29,-1,-1,-1,-1,-1,-1,-1,-1,-1,-1,-1,-1,-1],"loss_changes":[6.550535E-3,7.864044E-3,0E0,5.7451283E-3,0E0,1.5253462E-2,1.134598E-2,2.065815E-2,1.6046267E-2,1.9620843E-2,9.570576E-3,1.4001636E-2,0E0,2.743003E-2,2.000796E-2,1.6029257E-2,2.3288468E-2,2.413259E-3,0E0,0E0,0E0,0E0,0E0,0E0,0E0,0E0,0E0,0E0,0E0,0E0,0E0],"parents":[2147483647,0,0,1,1,3,3,5,5,6,6,7,7,8,8,9,9,10,10,11,11,13,13,14,14,15,15,16,16,17,17],"right_children":[2,4,-1,6,-1,8,10,12,14,16,18,20,-1,22,24,26,28,30,-1,-1,-1,-1,-1,-1,-1,-1,-1,-1,-1,-1,-1],"split_conditions":[3.5765903E2,3.5649103E2,1.7389728E-2,2.0613145E2,-1.8580217E-2,1.2848332E1,1.7423336E1,1.8484518E2,1E-1,8.867084E0,1.863167E1,1.8368056E2,-2.8321939E-2,1.4178927E1,1.9707729E2,8.78375E0,2.4250787E2,1.8265003E1,1.1868042E-2,-6.7199906E-3,2.0353748E-2,2.1826029E-3,-3.183001E-2,1.2260531E-2,-9.93928E-3,3.858552E-4,-2.7110783E-2,1.934765E-2,1.7421532E-3,-5.2161827E-3,-1.7727457E-2],"split_indices":[3,3,0,3,0,0,0,3,1,0,0,3,0,2,3,0,3,0,0,0,0,0,0,0,0,0,0,0,0,0,0],"split_type":[0,0,0,0,0,0,0,0,0,0,0,0,0,0,0,0,0,0,0,0,0,0,0,0,0,0,0,0,0,0,0],"sum_hessian":[1.22E2,1.21E2,1E0,1.2E2,1E0,4.3E1,7.7E1,1.6E1,2.7E1,6.9E1,8E0,1.3E1,3E0,9E0,1.8E1,4.2E1,2.7E1,7E0,1E0,1.2E1,1E0,7E0,2E0,1.4E1,4E0,4.1E1,1E0,1.1E1,1.6E1,4E0,3E0],"tree_param":{"num_deleted":"0","num_feature":"5","num_nodes":"31","size_leaf_vector":"1"}},{"base_weights":[3.54786E-4,-3.1880506E-3,1.2488984E-2,9.321135E-4,-3.511042E-2,3.101535E-2,5.2934275E-3,-3.16676E-3,5.6111556E-2,1.1711518E-3,-4.330312E-2,-4.3737926E-3,1.8592019E-2,3.217869E-4,-9.3976244E-2,1.3196677E-2,9.462754E-2,1.1511863E-3,-6.2416797E-4,-1.6923247E-2,-1.8306712E-2,2.2013374E-3,-3.7799776E-2,-4.74007E-3,3.2044183E-2,-3.374955E-2,-8.5397605E-3,6.094277E-3,-1.2234092E-3,3.3816755E-2,8.765638E-3,1.480651E-3,-7.0865434E-3,-6.6269087E-3,4.137811E-2,-1.8889011E-3,-1.3860644E-2,-3.6596666E-5,-4.7815442E-2,-8.565438E-3,2.618974E-2,3.11868E-3,-6.385343E-3,3.0346515E-3,1.4528144E-2],"categories":[],"categories_nodes":[],"categories_segments":[],"categories_sizes":[],"default_left":[0,0,0,0,0,0,0,0,0,0,0,0,0,0,0,0,0,0,0,0,0,0,0,0,0,0,0,0,0,0,0,0,0,0,0,0,0,0,0,0,0,0,0,0,0],"id":35,"left_children":[1,3,5,7,9,-1,11,13,15,17,19,21,-1,23,25,27,29,-1,-1,31,-1,33,35,37,39,-1,-1,-1,-1,-1,-1,-1,-1,41,43,-1,-1,-1,-1,-1,-1,-1,-1,-1,-1],"loss_changes":[5.327522E-3,1.2659166E-2,1.7765965E-2,1.9628616E-2,3.3203969E-3,0E0,1.5065376E-2,2.5690485E-2,8.6686835E-3,3.3992215E-5,3.1741876E-3,5.3579346E-3,0E0,1.2837256E-2,4.3783337E-4,5.746585E-4,2.5709346E-4,0E0,0E0,8.486967E-4,0E0,7.537315E-3,7.6790946E-4,4.9257733E-2,3.9322816E-2,0E0,0E0,0E0,0E0,0E0,0E0,0E0,0E0,4.712419E-3,3.9161975E-4,0E0,0E0,0E0,0E0,0E0,0E0,0E0,0E0,0E0,0E0],"parents":[2147483647,0,0,1,1,2,2,3,3,4,4,6,6,7,7,8,8,9,9,10,10,11,11,13,13,14,14,15,15,16,16,19,19,21,21,22,22,23,23,24,24,33,33,34,34],"right_children":[2,4,6,8,10,-1,12,14,16,18,20,22,-1,24,26,28,30,-1,-1,32,-1,34,36,38,40,-1,-1,-1,-1,-1,-1,-1,-1,42,44,-1,-1,-1,-1,-1,-1,-1,-1,-1,-1],"split_conditions":[2.803297E2,2.6263257E2,2.8469308E2,2.5896298E2,1.1792404E1,3.101535E-2,6E0,2.5765036E2,1.0256667E1,7.8025002E0,5.579584E0,3.4931607E2,1.8592019E-2,2.4423953E2,5.473333E0,6.3608336E0,1.1081664E1,1.1511863E-3,-6.2416797E-4,3.031667E0,-1.8306712E-2,3.371451E2,1.6170831E0,2.4250787E2,1E-1,-3.374955E-2,-8.5397605E-3,6.094277E-3,-1.2234092E-3,3.3816755E-2,8.765638E-3,1.480651E-3,-7.0865434E-3,2.965194E2,1.0545832E0,-1.8889011E-3,-1.3860644E-2,-3.6596666E-5,-4.7815442E-2,-8.565438E-3,2.618974E-2,3.11868E-3,-6.385343E-3,3.0346515E-3,1.4528144E-2],"split_indices":[3,3,3,3,2,0,4,3,0,0,0,3,0,3,0,0,0,0,0,0,0,3,0,3,1,0,0,0,0,0,0,0,0,3,0,0,0,0,0,0,0,0,0,0,0],"split_type":[0,0,0,0,0,0,0,0,0,0,0,0,0,0,0,0,0,0,0,0,0,0,0,0,0,0,0,0,0,0,0,0,0,0,0,0,0,0,0,0,0,0,0,0,0],"sum_hessian":[1.22E2,9.5E1,2.7E1,8.5E1,1E1,1E0,2.6E1,8E1,5E0,2E0,8E0,2.3E1,3E0,7.8E1,2E0,3E0,2E0,1E0,1E0,4E0,4E0,2E1,3E0,6.8E1,1E1,1E0,1E0,2E0,1E0,1E0,1E0,1E0,3E0,1.7E1,3E0,1E0,2E0,6.7E1,1E0,5E0,5E0,8E0,9E0,1E0,2E0],"tree_param":{"num_deleted":"0","num_feature":"5","num_nodes":"45","size_leaf_vector":"1"}},{"base_weights":[2.459257E-4,1.2888317E-3,-3.1102736E-2,-4.8170338E-4,1.5826434E-2,-1.2943848E-2,7.541299E-4,-1.1332522E-2,4.4807903E-3,8.682952E-3,-2.8779821E-2,2.4503802E-3,1.6936399E-2,2.0470358E-2,-1.712326E-2,-5.3150695E-2,-8.10335E-3,-1.6175725E-2,3.8643358E-3,1.4184317E-2,-3.6751407E-3,-2.2511095E-2,-2.1100761E-3,8.378501E-3,-1.4636928E-2,1.9918203E-3,-7.5693717E-3],"categories":[],"categories_nodes":[],"categories_segments":[],"categories_sizes":[],"default_left":[0,0,0,0,0,0,0,0,0,0,0,0,0,0,0,0,0,0,0,0,0,0,0,0,0,0,0],"id":36,"left_children":[1,3,5,7,-1,-1,-1,9,11,13,15,17,-1,19,-1,21,23,-1,25,-1,-1,-1,-1,-1,-1,-1,-1],"loss_changes":[4.061412E-3,1.0960083E-2,1.72789E-3,6.3508917E-3,0E0,0E0,0E0,1.3170885E-2,8.409454E-3,1.5121017E-2,9.647373E-3,6.5049697E-3,0E0,1.4615504E-2,0E0,8.5562095E-3,1.8954614E-2,0E0,6.4654057E-3,0E0,0E0,0E0,0E0,0E0,0E0,0E0,0E0],"parents":[2147483647,0,0,1,1,2,2,3,3,7,7,8,8,9,9,10,10,11,11,13,13,15,15,16,16,18,18],"right_children":[2,4,6,8,-1,-1,-1,10,12,14,16,18,-1,20,-1,22,24,-1,26,-1,-1,-1,-1,-1,-1,-1,-1],"split_conditions":[1.8000002E1,1.0500001E1,1.21379175E1,2.0090652E2,1.5826434E-2,-1.2943848E-2,7.541299E-4,1.5043593E2,6.2E0,1.937125E1,1E-1,2.0613145E2,1.6936399E-2,2E-1,-1.712326E-2,4E0,1.1E0,-1.6175725E-2,1.7523336E1,1.4184317E-2,-3.6751407E-3,-2.2511095E-2,-2.1100761E-3,8.378501E-3,-1.4636928E-2,1.9918203E-3,-7.5693717E-3],"split_indices":[1,1,0,3,0,0,0,3,1,0,1,3,0,1,0,4,1,0,0,0,0,0,0,0,0,0,0],"split_type":[0,0,0,0,0,0,0,0,0,0,0,0,0,0,0,0,0,0,0,0,0,0,0,0,0,0,0],"sum_hessian":[1.22E2,1.19E2,3E0,1.16E2,3E0,2E0,1E0,3.6E1,8E1,1.7E1,1.9E1,7.8E1,2E0,1.5E1,2E0,8E0,1.1E1,1E0,7.7E1,8E0,7E0,5E0,3E0,6E0,5E0,7.1E1,6E0],"tree_param":{"num_deleted":"0","num_feature":"5","num_nodes":"27","size_leaf_vector":"1"}},{"base_weights":[-1.4226309E-4,-7.419418E-3,4.301484E-3,-3.4121592E-3,-6.505516E-2,8.074248E-2,1.1864915E-3,-2.2881048E-2,6.118341E-3,-5.9373737E-3,-2.333745E-2,1.495421E-4,3.6184575E-2,-2.09952E-2,4.148413E-3,-9.138641E-3,-5.838801E-2,-1.35707315E-2,2.5425017E-2,-3.2301288E-2,1.2384077E-2,7.521522E-2,-3.5808168E-4,-3.8125318E-2,4.7122609E-4,2.9555084E-3,-2.5325544E-2,-5.7271717E-4,-3.0200649E-2,3.0332327E-2,7.3912144E-3,2.2133053E-3,-4.0144067E-2,1.3509393E-5,5.559325E-3,3.0712081E-2,-9.3898777E-4,-1.250933E-2,2.3585875E-3,-1.4474631E-3,-1.570893E-2,3.1014483E-3,-3.4390022E-3,4.8976988E-3,-9.00051E-3,-1.1277615E-2,2.1221638E-3,1.1926675E-2,-4.5018834E-3,-1.3916395E-2,-1.3386727E-3,1.4395524E-2,-4.138577E-7],"categories":[],"categories_nodes":[],"categories_segments":[],"categories_sizes":[],"default_left":[0,0,0,0,0,0,0,0,0,0,0,0,0,0,0,0,0,0,0,0,0,0,0,0,0,0,0,0,0,0,0,0,0,0,0,0,0,0,0,0,0,0,0,0,0,0,0,0,0,0,0,0,0],"id":37,"left_children":[1,3,5,7,9,11,13,15,17,-1,-1,-1,-1,19,21,23,25,27,29,31,33,35,37,39,41,-1,-1,43,45,-1,47,-1,49,-1,-1,-1,-1,-1,51,-1,-1,-1,-1,-1,-1,-1,-1,-1,-1,-1,-1,-1,-1],"loss_changes":[4.0094685E-3,1.0633205E-2,1.8238913E-2,8.489665E-3,1.8989854E-4,9.538528E-3,5.0146286E-3,6.7856796E-3,1.2129082E-2,0E0,0E0,0E0,0E0,3.7965234E-3,2.1484498E-2,3.360663E-3,7.936909E-3,3.4411983E-3,2.1090254E-2,2.4745231E-3,2.2671014E-4,8.831341E-3,7.2859474E-3,1.1697272E-3,1.2960858E-3,0E0,0E0,5.4628183E-3,2.1944987E-3,0E0,1.0744913E-2,0E0,1.1297725E-3,0E0,0E0,0E0,0E0,0E0,6.568364E-3,0E0,0E0,0E0,0E0,0E0,0E0,0E0,0E0,0E0,0E0,0E0,0E0,0E0,0E0],"parents":[2147483647,0,0,1,1,2,2,3,3,4,4,5,5,6,6,7,7,8,8,13,13,14,14,15,15,16,16,17,17,18,18,19,19,20,20,21,21,22,22,23,23,24,24,27,27,28,28,30,30,32,32,38,38],"right_children":[2,4,6,8,10,12,14,16,18,-1,-1,-1,-1,20,22,24,26,28,30,32,34,36,38,40,42,-1,-1,44,46,-1,48,-1,50,-1,-1,-1,-1,-1,52,-1,-1,-1,-1,-1,-1,-1,-1,